1970 64
罪 -0.31021214 0.24509281 0.12079452 0.19248639 0.19137394 -0.3300853 0.70311606 0.22815204 0.12866478 -0.26568738 0.3877545 0.24900457 -0.30887157 0.57020104 -0.65045184 -0.53473186 0.48066518 0.061995342 0.08233031 -0.2806557 -0.40103945 0.7398514 0.35748622 -0.013465738 -0.6085405 -0.52889055 -0.32153413 0.08458309 -0.036186315 -0.22637299 0.86722225 0.43949422 -0.24848229 -0.4907888 0.038323913 0.73414224 -0.4641905 0.07818497 0.05635797 0.3990481 -0.13469075 0.7520118 -0.6552993 0.86371964 0.39739987 0.40932065 0.3960514 -0.040317297 0.58134305 0.606039 0.123146236 -1.0899119 -0.1284294 1.1697081 -0.19084038 -0.87325954 0.65201783 -0.15275675 0.6558344 -0.052943695 0.26773944 0.44148314 0.48507008 0.7100118
的 -0.2722028 0.21379314 0.10345725 0.17086934 0.16331466 -0.29536468 0.6169079 0.2078876 0.09730797 -0.24480115 0.34140548 0.20785545 -0.2570225 0.5026512 -0.5693734 -0.46912667 0.41345578 0.06799884 0.05981109 -0.25154284 -0.36277702 0.65050215 0.31477046 -0.020369032 -0.5355062 -0.47914958 -0.2776379 0.06772841 -0.028686242 -0.21400082 0.7611007 0.39604774 -0.21878117 -0.43844765 0.030283442 0.6532709 -0.40095255 0.074030824 0.03336686 0.35101932 -0.115900606 0.6521327 -0.5684533 0.76871467 0.34352338 0.36049128 0.3306539 -0.031747494 0.50806725 0.5358472 0.10082123 -0.95281315 -0.117484495 1.0095336 -0.16012135 -0.764 0.5764845 -0.14665958 0.58269644 -0.039805625 0.23173808 0.3815666 0.42282242 0.62330455
是 -0.23901848 0.18887015 0.079492226 0.13346407 0.1249988 -0.24104376 0.51051795 0.17223649 0.077626005 -0.20108274 0.28341624 0.17181678 -0.21257702 0.41566035 -0.46935797 -0.38419494 0.35424715 0.045747317 0.048989452 -0.19960314 -0.29179245 0.5509854 0.25667432 -0.007813054 -0.44743744 -0.39085743 -0.22798862 0.054621674 -0.031026373 -0.17463152 0.6185971 0.31773603 -0.17331682 -0.35935473 0.04006635 0.53286123 -0.33324856 0.06544355 0.038705986 0.2886784 -0.10163532 0.5438041 -0.46920276 0.64100397 0.2914885 0.2923262 0.27706987 -0.021095337 0.42823884 0.45197862 0.080025084 -0.7888895 -0.0976783 0.8376243 -0.12686124 -0.63381684 0.48249987 -0.109224066 0.4814008 -0.043466125 0.18501455 0.30823496 0.34578067 0.5182863
什么 -0.23900215 0.19728011 0.08061849 0.15500855 0.14355761 -0.24667683 0.5252943 0.17920823 0.09352545 -0.2086439 0.3023067 0.17996474 -0.23423138 0.42229673 -0.4953302 -0.4085583 0.35598546 0.056279816 0.065206595 -0.22153197 -0.3039219 0.568846 0.2735485 -0.019467872 -0.47137034 -0.41566277 -0.23678613 0.06595759 -0.014838263 -0.1800017 0.65808207 0.3436505 -0.18248284 -0.38300738 0.035184406 0.5640001 -0.356542 0.05871071 0.025649667 0.3092328 -0.11201192 0.56492925 -0.495261 0.6556837 0.29188162 0.31280196 0.29593122 -0.027489088 0.44994405 0.4536088 0.094740346 -0.8313575 -0.10969829 0.8872914 -0.14158101 -0.6508787 0.49984697 -0.11923328 0.50274754 -0.04192449 0.20641905 0.3303584 0.35919464 0.54586923
怎么 -0.2536592 0.20003587 0.086279385 0.1529133 0.14923903 -0.27047747 0.5572091 0.18653303 0.09336947 -0.21281204 0.30681872 0.19707274 -0.24708085 0.44182494 -0.5139725 -0.4332762 0.3794656 0.056490064 0.054760266 -0.21703619 -0.321173 0.5927607 0.2906124 -0.010737813 -0.49652588 -0.41313502 -0.2579851 0.06391317 -0.016423034 -0.1832688 0.6841445 0.36024752 -0.19190052 -0.38810605 0.03353919 0.5801222 -0.36684927 0.055884473 0.045225274 0.30938515 -0.10822221 0.5910006 -0.5227232 0.68925184 0.31063783 0.33237284 0.30619562 -0.036737688 0.46655545 0.49004635 0.09929948 -0.85871464 -0.10746786 0.9206781 -0.144037 -0.6816215 0.5169226 -0.12803072 0.51843184 -0.04022579 0.20302774 0.35302404 0.37925786 0.57123107
标准 -0.19442518 0.13937688 0.0747712 0.10912116 0.09919874 -0.20138714 0.40731165 0.13793862 0.07206283 -0.15987115 0.2272587 0.1304131 -0.1743578 0.33034953 -0.37045404 -0.31816822 0.2751648 0.043862708 0.046935555 -0.16455409 -0.2243697 0.43854332 0.20275928 0.0018568077 -0.36120734 -0.31316894 -0.1839468 0.036923293 -0.012599631 -0.14072986 0.4914317 0.2631374 -0.14998123 -0.2739234 0.022352839 0.4185128 -0.25597885 0.040131655 0.035828404 0.23246808 -0.07441452 0.43769252 -0.36951733 0.5078984 0.23149791 0.2353161 0.21787982 -0.030962164 0.33444676 0.35115322 0.06784378 -0.63208485 -0.08577646 0.6673387 -0.11654807 -0.5085596 0.37932357 -0.08551847 0.37637183 -0.024664622 0.15778513 0.24422726 0.28188524 0.41132164
量刑 -0.16784002 0.13860373 0.060124468 0.09149187 0.10579979 -0.17502692 0.37965506 0.11577182 0.072246134 -0.15148523 0.20326178 0.13641708 -0.14945857 0.2884802 -0.33964807 -0.29278514 0.2518736 0.042486776 0.04425507 -0.14856684 -0.20965827 0.39465111 0.18496215 -0.014982524 -0.31528252 -0.27907676 -0.16305591 0.043852665 -0.006817377 -0.12386262 0.4493128 0.23227835 -0.13380077 -0.25456625 0.028671695 0.39661708 -0.2486751 0.046736762 0.020505918 0.20661257 -0.07031225 0.38292253 -0.3390418 0.45264798 0.19623089 0.2211096 0.19907402 -0.030854942 0.30771405 0.32824352 0.05553444 -0.57741374 -0.07086565 0.6087483 -0.09141211 -0.4620443 0.33832774 -0.08864184 0.35427848 -0.022591252 0.125883 0.23157156 0.259486 0.3859438
一下 -0.31002745 0.24702631 0.10916655 0.17966537 0.17618307 -0.31827778 0.67993706 0.20235367 0.09835688 -0.26852474 0.37138262 0.24961826 -0.29372606 0.5301221 -0.6321482 -0.505817 0.43998176 0.085544445 0.09887341 -0.26565018 -0.3961803 0.71194845 0.35708243 -0.011737387 -0.60208356 -0.5240879 -0.3158611 0.089173295 -0.011344021 -0.21047486 0.81794065 0.42373097 -0.23567323 -0.48271155 0.036777645 0.69763976 -0.46124318 0.09170737 0.032576576 0.37840167 -0.15223184 0.72470415 -0.62720656 0.8372733 0.38050613 0.38460287 0.37369657 -0.022398412 0.57174945 0.5841269 0.112708144 -1.04322 -0.12537201 1.13184 -0.15878858 -0.8203531 0.62134075 -0.16837528 0.6285689 -0.04407062 0.25275993 0.41352502 0.4468704 0.6849026
既 -0.1401802 0.11253416 0.055277012 0.081533715 0.08609689 -0.15341637 0.323551 0.11188586 0.055712122 -0.11881177 0.17524841 0.11290258 -0.13532332 0.25081617 -0.27995017 -0.25612938 0.2124771 0.0286097 0.040609602 -0.122428164 -0.17845254 0.33854827 0.17061864 -0.0038815087 -0.27526197 -0.23417127 -0.15127584 0.037223633 -0.020909443 -0.10549158 0.3957261 0.19471909 -0.1107105 -0.21206528 0.020537537 0.33393568 -0.20051545 0.03511908 0.03187501 0.18455158 -0.07104479 0.3411315 -0.2956565 0.38197526 0.1784222 0.18964714 0.16692351 -0.027886683 0.26328638 0.26616737 0.04598472 -0.49776316 -0.06908947 0.5124209 -0.09010697 -0.38609782 0.298839 -0.06781335 0.29087543 -0.027120562 0.10981143 0.20653932 0.23075849 0.32352227
遂 -0.15576206 0.11559646 0.052136604 0.0889661 0.10074559 -0.16715287 0.33950716 0.1052552 0.06861657 -0.11973004 0.17545563 0.12342181 -0.13383079 0.27164644 -0.30082774 -0.27236086 0.22784178 0.03653674 0.029940441 -0.14022872 -0.189443 0.35395914 0.18482651 -0.014226159 -0.28961456 -0.25922188 -0.15305227 0.027358513 -0.011650917 -0.11806918 0.4131305 0.22059442 -0.10971438 -0.23249593 0.017272683 0.36114037 -0.22412805 0.04004469 0.035498813 0.19272785 -0.05857575 0.34915772 -0.30549678 0.41048765 0.19344813 0.2095406 0.18990189 -0.015979666 0.27877772 0.30289668 0.052454982 -0.5323722 -0.055398155 0.5552466 -0.083521895 -0.41679955 0.30963078 -0.07324151 0.3229525 -0.03426668 0.113099806 0.20667258 0.24638103 0.3546389
吗 -0.30225825 0.23281536 0.10010647 0.18260506 0.16880308 -0.3182516 0.6600262 0.21196654 0.11140015 -0.26122242 0.36146346 0.2245112 -0.2926491 0.5226398 -0.6025767 -0.5101781 0.4548133 0.070724115 0.08473627 -0.2600997 -0.37678605 0.7058277 0.3371119 -0.008473484 -0.587253 -0.50513995 -0.30474117 0.073765345 -0.030082196 -0.2153495 0.8145532 0.41866788 -0.23852295 -0.466116 0.044078074 0.70220876 -0.44104466 0.06700266 0.038505875 0.37627357 -0.14182205 0.6972071 -0.6175264 0.8091223 0.36360636 0.3884505 0.3702597 -0.035002366 0.5499778 0.5790402 0.103251785 -1.0256803 -0.1208759 1.0925207 -0.16007183 -0.8116877 0.60568947 -0.16500594 0.6194338 -0.058345024 0.2499233 0.4104218 0.4481899 0.6648356
处罚 -0.1884775 0.1413054 0.059548974 0.105105914 0.112600915 -0.19446765 0.41685587 0.13386722 0.06581036 -0.15736912 0.21429273 0.14776383 -0.16773255 0.32233974 -0.3678035 -0.32229343 0.27914116 0.047034204 0.04848371 -0.1549068 -0.23631224 0.43005162 0.20426877 0.00024741836 -0.36221266 -0.30338758 -0.17689878 0.049170695 -0.017538501 -0.13609233 0.500693 0.26098752 -0.15093742 -0.2772577 0.022573274 0.4323119 -0.26675463 0.04732608 0.034843747 0.2253487 -0.08962582 0.42268458 -0.38494363 0.49973148 0.21957429 0.2356423 0.22685882 -0.034072362 0.33516088 0.35740632 0.062355373 -0.62913984 -0.08490585 0.663509 -0.09866209 -0.5030437 0.36784485 -0.086326815 0.38740072 -0.023269787 0.14628081 0.25464395 0.28647617 0.4213068
构成 -0.23556906 0.18080099 0.079389654 0.15173773 0.12748565 -0.25158316 0.52411056 0.16644447 0.09505453 -0.20465827 0.27603272 0.18021682 -0.22680488 0.41765127 -0.4723233 -0.39745203 0.3553487 0.059313532 0.058701564 -0.20422828 -0.2900593 0.55193394 0.257929 -0.017487431 -0.460501 -0.38967702 -0.24231476 0.06604412 -0.031677432 -0.17603461 0.63594925 0.32699013 -0.18134588 -0.35973617 0.039408322 0.54906005 -0.33728498 0.058227047 0.03119286 0.291618 -0.107626885 0.5596701 -0.48381147 0.6380002 0.2898275 0.30857775 0.28086403 -0.03130485 0.43230224 0.44936928 0.0897485 -0.80866635 -0.101573 0.84796095 -0.1363772 -0.6360804 0.4786578 -0.121209815 0.47988746 -0.045297027 0.19827838 0.32545072 0.36258447 0.5213569
非法 -0.2619269 0.21571466 0.0872846 0.16629374 0.15446268 -0.28333524 0.591774 0.19021471 0.0907243 -0.23466954 0.32283705 0.19771908 -0.2545053 0.47006994 -0.54626924 -0.4448348 0.39190364 0.05672422 0.067880645 -0.22746572 -0.3425697 0.6148186 0.2999962 -0.01446859 -0.50565857 -0.4432723 -0.26365057 0.07830527 -0.025694316 -0.18852156 0.721759 0.37347662 -0.19954588 -0.41107723 0.031151004 0.61636883 -0.39170003 0.07804824 0.030451192 0.32418415 -0.12682928 0.6254049 -0.55266225 0.7303749 0.32237822 0.33939922 0.32037836 -0.03375353 0.49440074 0.5017623 0.09844889 -0.9113338 -0.10141414 0.97383547 -0.14074259 -0.7237231 0.5362222 -0.14407507 0.5345797 -0.04467483 0.21499614 0.3656966 0.40731665 0.6014425
问 -0.26481625 0.19022916 0.08914891 0.14436135 0.15255798 -0.276394 0.5623479 0.1829069 0.07682847 -0.2328937 0.30478916 0.20261626 -0.2586936 0.45942265 -0.5324294 -0.4245549 0.37488213 0.06779919 0.08808315 -0.23174936 -0.32535413 0.6029216 0.29874268 -0.006565409 -0.48831636 -0.44307214 -0.25745118 0.070598744 -0.006190769 -0.18728238 0.68252945 0.36153853 -0.20048514 -0.39953023 0.02721061 0.60102195 -0.3859461 0.08267589 0.013125528 0.32405394 -0.124609925 0.6000925 -0.52058434 0.7084598 0.31291768 0.3386511 0.3267195 -0.020928795 0.47753483 0.49402633 0.099724494 -0.8646685 -0.10452703 0.9493824 -0.13878225 -0.6883491 0.50668937 -0.14657278 0.5187974 -0.0454359 0.20187658 0.34745 0.37054077 0.5823019
判刑 -0.19513975 0.14940627 0.06889364 0.11589355 0.11763771 -0.19851293 0.42320552 0.13137871 0.07836292 -0.15695386 0.22472966 0.14760819 -0.18340307 0.33881 -0.37267995 -0.32019797 0.28537053 0.03895975 0.05506035 -0.16544929 -0.23462677 0.44860312 0.21786498 -0.006420767 -0.36190587 -0.31602484 -0.19391933 0.039180204 -0.016597422 -0.1321728 0.5100722 0.26822042 -0.14606175 -0.29422942 0.029209916 0.4444959 -0.26857764 0.046907555 0.025227124 0.23751332 -0.09195212 0.43916085 -0.39008945 0.5169573 0.23185702 0.2475804 0.2386867 -0.02966511 0.34662446 0.36001965 0.06920685 -0.6411969 -0.07162166 0.6873051 -0.10550647 -0.5138477 0.37770277 -0.096802995 0.3941685 -0.033205584 0.15200147 0.25891146 0.28712678 0.42556566
哪些 -0.23921221 0.17672469 0.077878125 0.15041736 0.12658337 -0.23718832 0.50175077 0.16468109 0.0867971 -0.20497788 0.2793389 0.1596295 -0.2119106 0.40835714 -0.47608477 -0.3939906 0.35205948 0.05491397 0.054451015 -0.19423574 -0.28383088 0.5374235 0.2584798 -0.005114072 -0.44663534 -0.38382322 -0.24201739 0.06214309 -0.030694792 -0.17436293 0.6186518 0.3262482 -0.17040786 -0.36682996 0.034058664 0.5401022 -0.3350822 0.053914823 0.034606334 0.29216793 -0.11313811 0.55103976 -0.47540012 0.6288042 0.28032902 0.30440986 0.2837786 -0.023704646 0.42839655 0.4312006 0.083872244 -0.79294103 -0.087048344 0.84390926 -0.13359758 -0.6363855 0.46178687 -0.11876192 0.46355873 -0.038034003 0.19478345 0.30916137 0.34360787 0.5207093
如何 -0.24422745 0.18855292 0.091006726 0.14857045 0.1282191 -0.2455404 0.5115417 0.16306335 0.08535442 -0.19468133 0.28416717 0.17106241 -0.22511151 0.42077553 -0.46845135 -0.390014 0.3496734 0.05419863 0.054084904 -0.2133837 -0.30478367 0.55708045 0.26966482 -0.006844472 -0.46419385 -0.39849487 -0.23581268 0.054620836 -0.016124263 -0.16864271 0.636617 0.3307385 -0.18196654 -0.36974457 0.0289308 0.53890884 -0.331397 0.06110386 0.04024142 0.29390666 -0.109291255 0.55523336 -0.47988218 0.64913815 0.29797095 0.2996166 0.28904805 -0.030288216 0.42145962 0.45439875 0.08066266 -0.80839384 -0.09771218 0.85598177 -0.13392687 -0.6337425 0.4806098 -0.13083206 0.47691286 -0.044676192 0.19497071 0.32532153 0.3564578 0.5323966
有 -0.23509999 0.18152751 0.076968804 0.14531831 0.1211393 -0.24016614 0.48563513 0.15233451 0.08079702 -0.20244645 0.2790115 0.15634425 -0.21998917 0.39370966 -0.4548062 -0.3717783 0.32967648 0.054142363 0.061913025 -0.18694516 -0.28993785 0.5341188 0.2500773 -0.004131048 -0.42698655 -0.3892463 -0.23243074 0.051256612 -0.02446117 -0.17655736 0.61566275 0.31932977 -0.18378519 -0.34607324 0.022856422 0.52814263 -0.33218962 0.06202589 0.022865243 0.2774224 -0.10775121 0.53170085 -0.4669518 0.61142343 0.27534238 0.2966007 0.27821806 -0.036000136 0.4076369 0.43511572 0.07284117 -0.7742804 -0.09122712 0.8226366 -0.11940247 -0.61335105 0.45254946 -0.12190054 0.4651023 -0.043012477 0.19651014 0.3172911 0.3464309 0.511041
立案 -0.20832103 0.15725663 0.07477547 0.12895952 0.11541196 -0.20438412 0.43933833 0.1342371 0.07999342 -0.1799653 0.24995983 0.1563904 -0.18108492 0.3645454 -0.40764844 -0.33593062 0.30668426 0.04789375 0.04882705 -0.17712753 -0.25879127 0.46920675 0.2268207 -0.010325115 -0.38760546 -0.34520808 -0.1971401 0.04504657 -0.010046948 -0.14603885 0.53609717 0.27382773 -0.15281422 -0.31964973 0.028305663 0.46971464 -0.2891491 0.043227594 0.027311133 0.25835243 -0.09045266 0.46795714 -0.41211197 0.54853964 0.25379798 0.26679355 0.24001266 -0.03168943 0.3638624 0.37967524 0.06804638 -0.68408006 -0.08326369 0.7337343 -0.120441034 -0.55517244 0.40138948 -0.10833879 0.4166846 -0.039836645 0.16876777 0.2842942 0.29504865 0.44540942
判 -0.21469912 0.15644997 0.06668075 0.13438459 0.12641852 -0.21544175 0.46811455 0.15172294 0.0814791 -0.17137557 0.24522144 0.16532435 -0.19614065 0.3619727 -0.42659658 -0.35713458 0.30683511 0.046855457 0.054552693 -0.19358039 -0.25699696 0.4860654 0.23076361 -0.009161172 -0.41090962 -0.3584655 -0.2092761 0.057191614 -0.018418718 -0.15219878 0.5710838 0.28764865 -0.16726278 -0.3327248 0.027920693 0.48887998 -0.3112419 0.044128947 0.029327668 0.257488 -0.09694907 0.49623582 -0.42729765 0.57721364 0.25589386 0.28207842 0.26394978 -0.037447955 0.37457135 0.40457404 0.065798454 -0.71881163 -0.08619164 0.7694421 -0.10960341 -0.5740059 0.42041504 -0.114621535 0.42695835 -0.033145215 0.17096351 0.29630324 0.32891464 0.480385
要件 -0.15262818 0.11834002 0.047425956 0.106292404 0.08844722 -0.15726669 0.34034175 0.1051796 0.04692156 -0.14227836 0.19219357 0.106417395 -0.14711723 0.26775515 -0.31152552 -0.25881153 0.22984216 0.031898033 0.042749222 -0.12995115 -0.19825846 0.359787 0.16186221 -0.0021490972 -0.2871921 -0.26872024 -0.15285394 0.027939137 -0.007761059 -0.109292574 0.41911054 0.21834517 -0.11901798 -0.24591346 0.016021885 0.34834126 -0.21506539 0.04101013 0.013337903 0.18888895 -0.07112336 0.37031895 -0.3169972 0.43036243 0.18574747 0.19985051 0.18072781 -0.024490772 0.2761759 0.29369336 0.06284305 -0.51483136 -0.055135913 0.5711949 -0.08660857 -0.42096516 0.30895036 -0.08598237 0.32301995 -0.019622764 0.12904368 0.20979084 0.2316237 0.3431204
规定 -0.15575153 0.11233747 0.05296158 0.08438566 0.079469204 -0.1477714 0.3156504 0.10473188 0.06336067 -0.13037738 0.17973743 0.10205767 -0.14484467 0.26168326 -0.2985381 -0.25632724 0.22836374 0.025008433 0.030406484 -0.13789214 -0.17802264 0.34861884 0.1625731 0.00043836999 -0.28361034 -0.24162649 -0.14231503 0.027888626 -0.017409643 -0.10519808 0.40116546 0.20983776 -0.12315624 -0.21854937 0.024712615 0.34471563 -0.20309071 0.027090143 0.030165598 0.18102762 -0.07355489 0.33969605 -0.30737445 0.39418006 0.1715532 0.193416 0.1801401 -0.011916993 0.26644814 0.27958986 0.050399125 -0.50943 -0.05660914 0.54245955 -0.08925402 -0.40566185 0.30247167 -0.07123653 0.3102538 -0.031351928 0.11824529 0.19614087 0.22979374 0.3313291
会 -0.24567117 0.19266899 0.09670469 0.15173058 0.15131575 -0.26569942 0.5502891 0.17953071 0.08698743 -0.21384802 0.30305427 0.18881288 -0.24361816 0.4391171 -0.50479114 -0.42417678 0.3656373 0.06509192 0.058389463 -0.21390036 -0.3188882 0.5900381 0.27890283 -0.01685823 -0.4866895 -0.42229298 -0.25591528 0.063232824 -0.012975159 -0.17040345 0.6727814 0.34944534 -0.19739914 -0.37776712 0.033410214 0.5763534 -0.36439773 0.056210253 0.030210793 0.3053084 -0.117934845 0.5745157 -0.5146795 0.67840284 0.31543422 0.3270946 0.30732346 -0.026762893 0.44342694 0.473526 0.09420384 -0.85189 -0.10916906 0.9154942 -0.1348898 -0.6771958 0.50931424 -0.13389035 0.50368184 -0.04842576 0.20722169 0.3434763 0.37914804 0.561409
刑法 -0.21971758 0.16973732 0.07762866 0.1251149 0.11363422 -0.2188764 0.4602901 0.14307882 0.07152871 -0.19188507 0.26026973 0.15284394 -0.19308677 0.3795233 -0.4291779 -0.35848752 0.32241616 0.05465285 0.045509428 -0.19203842 -0.25989118 0.50038856 0.23689455 -0.0065366956 -0.40666524 -0.36372218 -0.21741894 0.054978114 -0.022459581 -0.16123801 0.5769413 0.29490718 -0.16045347 -0.3323518 0.017811518 0.4879577 -0.29574427 0.050364874 0.035755485 0.2602165 -0.099811785 0.4967952 -0.43577626 0.5744562 0.25684986 0.27783376 0.25794008 -0.03625807 0.38751322 0.40095678 0.07870666 -0.71610695 -0.09126181 0.77304435 -0.11070018 -0.5810899 0.43080968 -0.1019702 0.43769518 -0.04443302 0.17737558 0.29075375 0.31702307 0.47411326
被 -0.3124301 0.24042448 0.110619016 0.17991963 0.16660339 -0.3231832 0.6639012 0.2141979 0.10750804 -0.25564563 0.3608003 0.22921182 -0.29457432 0.5210278 -0.60912734 -0.5108029 0.4507779 0.07980048 0.06969719 -0.27518043 -0.3742707 0.6999222 0.33777863 -0.004800254 -0.59080905 -0.49735323 -0.30991644 0.076869965 -0.023727689 -0.21625936 0.81318337 0.41266468 -0.2282775 -0.46711922 0.035406586 0.6937076 -0.42904922 0.083116874 0.041196 0.38165748 -0.14328034 0.6968037 -0.6124275 0.8123729 0.37515295 0.3894322 0.37309068 -0.045641065 0.54277855 0.57732695 0.098203406 -1.0233918 -0.13241544 1.0991254 -0.16586097 -0.81039125 0.5965285 -0.16460106 0.6056202 -0.060885753 0.23853783 0.4100168 0.44603872 0.675257
你好 -0.20095359 0.16518287 0.076128505 0.12438349 0.12080859 -0.20817712 0.458149 0.14399517 0.08079776 -0.1768507 0.24388978 0.16735925 -0.20574452 0.36601752 -0.42174992 -0.3363504 0.2937931 0.056308854 0.053644657 -0.1866448 -0.26654792 0.4751357 0.23333049 -0.011348784 -0.40446174 -0.34309083 -0.20052893 0.052096028 -0.023042247 -0.13951051 0.5608962 0.2791007 -0.1560671 -0.31259453 0.027771426 0.47825786 -0.30721486 0.054175712 0.016460566 0.2630039 -0.092438094 0.47622237 -0.42939723 0.56963193 0.25886947 0.2695568 0.25046298 -0.024943875 0.3790024 0.38229293 0.08215485 -0.69267565 -0.09254527 0.755968 -0.107145414 -0.55252063 0.41201732 -0.10194856 0.42407444 -0.03440069 0.16172987 0.27338633 0.3111537 0.46879888
多久 -0.24351324 0.17955288 0.079676226 0.14288084 0.13604672 -0.24839295 0.5255721 0.16968097 0.07987986 -0.2052178 0.28019518 0.17922136 -0.22961716 0.41662705 -0.48542026 -0.3984302 0.35311526 0.06505321 0.063872114 -0.20493884 -0.29747006 0.55572987 0.27384594 -0.013214749 -0.46261105 -0.40451768 -0.24135512 0.060866784 -0.02359793 -0.16498585 0.63098526 0.3235132 -0.19228643 -0.37082425 0.035123188 0.5539753 -0.336399 0.05156554 0.027153961 0.28807327 -0.10109346 0.56196934 -0.48498335 0.637928 0.29703104 0.30385008 0.29537687 -0.03279373 0.42589214 0.4489582 0.091069 -0.800961 -0.10694057 0.871491 -0.13732338 -0.64843196 0.4801826 -0.12544705 0.47734085 -0.04219441 0.1908076 0.3199707 0.3494102 0.5373303
犯罪 -0.22523636 0.18807499 0.07869278 0.13474116 0.123686105 -0.23893002 0.5006294 0.1564675 0.08666438 -0.20051739 0.2773424 0.17805469 -0.22719815 0.41278768 -0.4624106 -0.38540593 0.34469384 0.052216336 0.04933397 -0.2132623 -0.29350448 0.537563 0.26507774 -0.0010467969 -0.45184758 -0.38912395 -0.2311499 0.0573199 -0.0234905 -0.15967137 0.6186945 0.31527323 -0.18213102 -0.36128047 0.028026996 0.53142047 -0.34135064 0.05396753 0.041556004 0.28581688 -0.09993355 0.54860073 -0.48308823 0.6294844 0.2925679 0.29431018 0.28014547 -0.029136064 0.42994973 0.4498522 0.09257709 -0.7917489 -0.09293805 0.8526836 -0.12220984 -0.6275422 0.4735893 -0.124907926 0.47274506 -0.03275508 0.18787348 0.32689467 0.3545106 0.52439344
了 -0.27157027 0.20567344 0.094698004 0.15888247 0.15275869 -0.28529945 0.5786575 0.17522629 0.09705861 -0.23546782 0.31593958 0.20601413 -0.25023896 0.46198016 -0.53273624 -0.4357744 0.40083325 0.06255029 0.061103147 -0.23827243 -0.33383456 0.61639535 0.2928594 -0.0066290423 -0.50685155 -0.44748914 -0.2740496 0.0679636 -0.025541844 -0.18535803 0.7043251 0.37088025 -0.21556509 -0.3987327 0.03648951 0.6152703 -0.3848048 0.06584555 0.04190828 0.3380226 -0.12393992 0.6073454 -0.5315648 0.7048737 0.3332951 0.33121544 0.32963756 -0.037056115 0.4738473 0.5079487 0.10117971 -0.90035844 -0.10614818 0.96542954 -0.15109254 -0.7169649 0.52520174 -0.14751264 0.5333421 -0.049204156 0.20825963 0.37195238 0.40538532 0.5863987
诈骗 -0.20483135 0.15083377 0.069783434 0.11640594 0.118910246 -0.20418195 0.4349885 0.14204487 0.07955323 -0.17333673 0.23275182 0.1509769 -0.1867758 0.34841454 -0.40271977 -0.3387296 0.29806346 0.039733697 0.057267014 -0.17905493 -0.24497497 0.45683187 0.22092761 -0.015184882 -0.3897043 -0.33567575 -0.1935987 0.04615524 -0.010927106 -0.13386898 0.5292443 0.28132966 -0.15874454 -0.31085664 0.020867923 0.4500069 -0.2924509 0.057938404 0.033798598 0.24370691 -0.093758196 0.4641027 -0.41286603 0.53707564 0.24149133 0.25445092 0.24472448 -0.023607513 0.36345735 0.37107542 0.07804983 -0.67603713 -0.08301423 0.71263224 -0.11411863 -0.5418843 0.4057073 -0.098607 0.40390298 -0.02725395 0.15292707 0.28137758 0.2943522 0.44363335
请问 -0.21243647 0.16289124 0.076960206 0.123712935 0.12636721 -0.2259571 0.46686232 0.15067296 0.08387609 -0.18735543 0.24795052 0.16250873 -0.19881868 0.36875668 -0.42332983 -0.3452463 0.32106903 0.052463524 0.05339896 -0.19241148 -0.2647587 0.4994348 0.23006953 -0.013568161 -0.4153952 -0.3585713 -0.2037806 0.048802547 -0.01433521 -0.1488429 0.57281905 0.28933638 -0.16606967 -0.32889262 0.033896133 0.49410313 -0.30067316 0.048137497 0.021783946 0.26961958 -0.09206967 0.4943752 -0.42864534 0.5670072 0.26136157 0.2707912 0.2565981 -0.022422956 0.38937756 0.40641627 0.069842644 -0.7150618 -0.08660652 0.7764986 -0.11122947 -0.5702902 0.42218995 -0.10281614 0.43244034 -0.03591064 0.17386472 0.28901702 0.31519762 0.46895054
怎样 -0.18928601 0.15610194 0.07192778 0.12251532 0.11212497 -0.19477381 0.4323068 0.13014853 0.076221004 -0.1651059 0.23530202 0.14552784 -0.19125809 0.34717047 -0.39054927 -0.3254174 0.28451413 0.045730606 0.049404167 -0.17434348 -0.24080679 0.446558 0.22189622 -0.013148154 -0.37892815 -0.3264654 -0.19567475 0.054868013 -0.007733445 -0.14424996 0.51227546 0.26806438 -0.14250022 -0.29566693 0.02892425 0.45294926 -0.27688733 0.049949817 0.035865705 0.24632823 -0.09020877 0.4566892 -0.40069437 0.5238205 0.24308346 0.24918434 0.22915389 -0.024931615 0.34763148 0.3601547 0.07673396 -0.65498 -0.0771748 0.70674455 -0.111440346 -0.5277407 0.38584056 -0.09945598 0.39589152 -0.028113995 0.1594951 0.26796868 0.2828003 0.42663768
罪名 -0.18632098 0.16105199 0.06114672 0.12616874 0.110985294 -0.19627175 0.4202151 0.14233577 0.06738612 -0.17573647 0.24222012 0.14523049 -0.17853633 0.35046685 -0.38888875 -0.3207227 0.28313774 0.0422515 0.04376612 -0.17390412 -0.25481007 0.45194495 0.20847112 -0.0031282962 -0.383995 -0.3362719 -0.19413942 0.053687233 -0.018030433 -0.13141224 0.5170831 0.2691226 -0.15813722 -0.30013257 0.019901792 0.45651677 -0.27691096 0.05048508 0.0239012 0.23884767 -0.09302713 0.45077348 -0.39977282 0.5279821 0.24557166 0.24698108 0.24313153 -0.024321355 0.3610041 0.37437043 0.07612324 -0.6670147 -0.08289551 0.70989877 -0.10902775 -0.522661 0.40229732 -0.10208904 0.40305477 -0.022621028 0.16297644 0.26694074 0.29958797 0.42631167
对 -0.19606003 0.14453551 0.07010637 0.120362535 0.11588111 -0.20686199 0.41406825 0.13921846 0.059860058 -0.15982191 0.22514246 0.14889656 -0.18686008 0.3331525 -0.37859347 -0.31888387 0.28744435 0.042558514 0.041899495 -0.173527 -0.23386548 0.44544783 0.22334787 -0.015642092 -0.35740125 -0.31266752 -0.18748623 0.043553602 -0.0076442636 -0.1364573 0.50946826 0.2676697 -0.14863244 -0.2976317 0.019731479 0.43650353 -0.26777297 0.03808457 0.035727717 0.23134068 -0.088023104 0.45088795 -0.38370046 0.51493907 0.23300107 0.25181475 0.22295755 -0.020174248 0.35047683 0.35751048 0.0602825 -0.6384048 -0.07812721 0.6987258 -0.10260786 -0.5170501 0.3827632 -0.08706543 0.3864791 -0.035282426 0.15304816 0.2563473 0.2944252 0.41766787
可以 -0.2150674 0.17115772 0.07650997 0.13226442 0.12141752 -0.21712315 0.47463697 0.1508702 0.07547552 -0.18879934 0.2573779 0.16338068 -0.21314178 0.373768 -0.44273478 -0.35337803 0.31774107 0.055961743 0.05520288 -0.19181351 -0.2637021 0.49821287 0.2357452 -0.0027844082 -0.41974044 -0.3588622 -0.2130398 0.055796694 -0.02208932 -0.1563479 0.5764787 0.3030594 -0.17319493 -0.33389527 0.023796184 0.48827395 -0.31616035 0.051335715 0.027606022 0.2672739 -0.09208144 0.5065024 -0.44547087 0.5881867 0.2662351 0.2843737 0.25954244 -0.023808634 0.39338037 0.40987787 0.07146879 -0.7276136 -0.09475285 0.788518 -0.12102063 -0.58800656 0.42303813 -0.11054188 0.4376216 -0.04374712 0.1774458 0.30150452 0.31745973 0.48234957
多少 -0.285354 0.2030308 0.089240864 0.16222174 0.16117921 -0.2892476 0.5924431 0.20114705 0.09333253 -0.2372386 0.33459845 0.20029539 -0.2615049 0.48192954 -0.56233466 -0.46509618 0.41293404 0.07133588 0.07022118 -0.23763035 -0.35082564 0.6404229 0.31664732 -0.004786436 -0.5318253 -0.46700335 -0.2658075 0.063874565 -0.012811443 -0.1961493 0.74308217 0.3847714 -0.21068874 -0.42528123 0.039746072 0.62393486 -0.39357013 0.06098454 0.04964482 0.33691162 -0.11375301 0.6495475 -0.57138103 0.75256455 0.33078915 0.3643812 0.33785194 -0.03899868 0.50471646 0.5299339 0.09386719 -0.93642837 -0.10915338 0.99379003 -0.14681005 -0.7426084 0.55879915 -0.15375796 0.55068046 -0.044890948 0.22053957 0.389416 0.41470122 0.62149996
您好 -0.18918853 0.13608639 0.06341227 0.114999644 0.11245049 -0.19889966 0.41534737 0.12695742 0.06697781 -0.16334908 0.2300325 0.14816803 -0.179867 0.32434505 -0.38256124 -0.30317974 0.27365944 0.039695233 0.05605675 -0.16316779 -0.2340544 0.42687026 0.20133863 -0.0055635883 -0.3623021 -0.30791098 -0.17978612 0.05523227 -0.018468857 -0.13135882 0.49156722 0.24999744 -0.13977596 -0.28108194 0.022666024 0.43347827 -0.26416042 0.047786493 0.022321489 0.2369705 -0.076987445 0.43688774 -0.38394704 0.499113 0.22977209 0.23861809 0.22645852 -0.016540064 0.3363658 0.34715337 0.064490885 -0.62610835 -0.07150433 0.68078434 -0.10684159 -0.5031786 0.38107184 -0.10377671 0.37821358 -0.031743314 0.15095644 0.26032856 0.27898917 0.41707554
罪有 -0.25545588 0.19023073 0.0949781 0.14452511 0.1326348 -0.26660624 0.53824854 0.1675975 0.09601476 -0.22774705 0.31266147 0.1756254 -0.2428969 0.4333197 -0.5136555 -0.41014284 0.37290493 0.05096935 0.06716461 -0.20896451 -0.32244036 0.5924054 0.28426507 -0.018246494 -0.48722264 -0.4216224 -0.2547408 0.058553215 -0.02599305 -0.19325617 0.6735516 0.33947888 -0.19185731 -0.39682677 0.034626976 0.58659416 -0.36387295 0.075919025 0.022371048 0.30983987 -0.10859622 0.5899628 -0.51832557 0.6891947 0.31379637 0.3196957 0.30364084 -0.02302521 0.45158818 0.46831757 0.0925972 -0.8433649 -0.10079692 0.9158553 -0.13292384 -0.67025536 0.51307964 -0.14068173 0.5206361 -0.05328802 0.21092667 0.34623852 0.37554586 0.56937027
冒昧 -0.14567159 0.10970667 0.04273856 0.083908424 0.080312364 -0.14574099 0.31748262 0.10074309 0.050530747 -0.13199669 0.17537642 0.11498709 -0.14380585 0.25898734 -0.295941 -0.23399419 0.20463547 0.028424682 0.052620016 -0.12423616 -0.18286797 0.33388734 0.16423734 -0.016833488 -0.2786796 -0.24100187 -0.14438346 0.050142363 -0.006030601 -0.1054789 0.3960563 0.20243196 -0.11792497 -0.23005266 0.015848268 0.3188363 -0.21492282 0.04116916 0.0036384035 0.17192869 -0.06730999 0.3361886 -0.29999855 0.40214464 0.16431431 0.1786542 0.17400397 -0.012876475 0.27398145 0.26174268 0.048346493 -0.48734093 -0.064731285 0.52962667 -0.08125578 -0.38085267 0.2784084 -0.085184045 0.29794148 -0.031366866 0.1135016 0.19497934 0.22032435 0.32323873
属于 -0.20343931 0.14634062 0.062044807 0.12190148 0.10203556 -0.19678631 0.4280362 0.14461137 0.06436273 -0.17062272 0.23931153 0.1533024 -0.19152448 0.33830532 -0.39255348 -0.3199199 0.29872203 0.03565993 0.045487635 -0.17900288 -0.2534209 0.4580314 0.22188541 -0.0018237749 -0.37625092 -0.3339281 -0.19871527 0.056486644 -0.013940253 -0.13234204 0.5327371 0.260718 -0.14467643 -0.29297203 0.025651876 0.45523348 -0.2815293 0.04321056 0.03102849 0.24258436 -0.08445393 0.45265025 -0.39740765 0.52875954 0.24418107 0.24077566 0.23335637 -0.021690117 0.34655353 0.37089622 0.072013594 -0.6551481 -0.08193668 0.698367 -0.11259473 -0.517922 0.39216265 -0.095695935 0.40421447 -0.038501993 0.1602455 0.27263337 0.30185497 0.42944196
定罪 -0.1321189 0.10930848 0.043067124 0.077093415 0.07443574 -0.1425335 0.30181715 0.100838326 0.04860176 -0.12089088 0.16881548 0.100477934 -0.13613354 0.23981635 -0.27140847 -0.23603995 0.19957715 0.030214917 0.026598966 -0.12816182 -0.17564408 0.32341388 0.15201965 -0.0017400554 -0.26976946 -0.22933815 -0.13133742 0.041059125 -0.015467823 -0.09533269 0.3745934 0.19539776 -0.10101485 -0.20414716 0.027211748 0.3211981 -0.20139179 0.02791657 0.02195865 0.17619056 -0.057690706 0.31231245 -0.28455138 0.36761236 0.15962347 0.18294062 0.17254162 -0.013595432 0.24556422 0.2650454 0.053056657 -0.47091487 -0.059971485 0.48841372 -0.07893413 -0.3665856 0.28037488 -0.07486707 0.28709874 -0.016154462 0.10960462 0.18436258 0.20531464 0.3064674
销售 -0.16352285 0.11913362 0.06810012 0.10999488 0.10541696 -0.16544756 0.37226012 0.12685205 0.054296214 -0.14644139 0.19838119 0.13253461 -0.15310049 0.29051328 -0.33267096 -0.27972203 0.24355888 0.03728899 0.050708648 -0.1416424 -0.19919235 0.38615912 0.18607607 0.00016504717 -0.31157887 -0.28302684 -0.1615419 0.04633371 -0.00736035 -0.12435402 0.4476352 0.23026004 -0.1326917 -0.25102073 0.014363745 0.39041632 -0.24354188 0.036532022 0.024023943 0.20493062 -0.07883173 0.39105174 -0.3416631 0.4587988 0.19695143 0.21353287 0.20038979 -0.012097651 0.30697897 0.3222223 0.057406507 -0.55472547 -0.060031407 0.6039586 -0.08772858 -0.45287746 0.33290452 -0.082043536 0.34400663 -0.02164349 0.13117646 0.21875344 0.25766194 0.36720607
几年 -0.21276441 0.1731754 0.07282071 0.122300215 0.11887565 -0.22059 0.47410005 0.1506282 0.08364093 -0.18296497 0.26345003 0.16008297 -0.20003605 0.37005284 -0.4323905 -0.36769477 0.3175745 0.059384808 0.054380503 -0.19541429 -0.27832586 0.4980431 0.24253066 -0.0094828755 -0.41053995 -0.36567134 -0.21323301 0.053537443 -0.01534736 -0.16048099 0.5858277 0.30268815 -0.16873793 -0.33197662 0.02299376 0.49284384 -0.30714947 0.057846736 0.023833318 0.26267183 -0.096266694 0.50519276 -0.44558138 0.58035296 0.2548143 0.27853343 0.26426563 -0.027171647 0.3861974 0.41153944 0.079890884 -0.7220445 -0.09642671 0.7810076 -0.110974245 -0.58240175 0.4272085 -0.11090645 0.43779218 -0.031260155 0.16786295 0.2951984 0.32244784 0.4883761
诈骗罪 -0.11907359 0.09128235 0.04085651 0.06860134 0.06597811 -0.11100808 0.2510695 0.075394474 0.043760482 -0.103109114 0.13066685 0.08148498 -0.10343319 0.20745394 -0.22396259 -0.19208314 0.17312454 0.026862178 0.028333005 -0.10296337 -0.1403232 0.2659058 0.13376175 -0.0051114187 -0.20997988 -0.18445171 -0.11751245 0.03033127 -0.010059534 -0.07752305 0.30060804 0.16298303 -0.07984858 -0.16975029 0.023749286 0.2582389 -0.15647224 0.023335524 0.01680256 0.1424883 -0.046450943 0.2671623 -0.23457979 0.3134664 0.13228883 0.1444072 0.14263621 -0.023816306 0.2130218 0.21001847 0.036866724 -0.39040944 -0.054267358 0.4142475 -0.064646855 -0.3159476 0.22804785 -0.05828064 0.22851184 -0.022105731 0.09531045 0.15624836 0.16312641 0.25275275
具体 -0.14488024 0.10925528 0.049154047 0.09710662 0.08210679 -0.1619696 0.33039245 0.11003142 0.05100858 -0.12071062 0.17848638 0.11648311 -0.14557503 0.26665065 -0.30508098 -0.246843 0.23084584 0.038620997 0.03575097 -0.12776569 -0.18849981 0.34640816 0.16376758 -0.0015709023 -0.2795017 -0.2514265 -0.1490828 0.035782773 -0.009706315 -0.10910954 0.4057249 0.21195093 -0.11419629 -0.22587353 0.021917425 0.3440438 -0.21127321 0.03906472 0.027962238 0.17727056 -0.061104674 0.35057482 -0.30218098 0.39846966 0.18833822 0.1882546 0.18382336 -0.025648763 0.26677224 0.2893583 0.050953623 -0.51151556 -0.06649126 0.5314063 -0.08544826 -0.40702865 0.30017325 -0.07060756 0.30289865 -0.030274138 0.12363133 0.20149483 0.22965322 0.3313853
请教 -0.17041546 0.1310167 0.057363577 0.097627565 0.10263607 -0.1882419 0.38282904 0.11841229 0.06319259 -0.1520309 0.21644886 0.13419838 -0.17718829 0.31734794 -0.35828555 -0.28832996 0.25589272 0.03602934 0.042879235 -0.15931575 -0.22440614 0.41423786 0.19329414 -0.017327981 -0.34720886 -0.29896936 -0.17557515 0.054281913 -0.0054081874 -0.13547245 0.4675598 0.24303779 -0.1333442 -0.2768841 0.027427856 0.4011817 -0.2582304 0.05404944 0.015911436 0.22500904 -0.07779883 0.41934052 -0.35841694 0.47887397 0.21760234 0.23491688 0.22178783 -0.019842817 0.33054107 0.33895922 0.06326219 -0.59174937 -0.08202378 0.64154714 -0.0928044 -0.48366088 0.3528345 -0.092465304 0.35567373 -0.035426684 0.14911948 0.24063544 0.25930718 0.40361333
解释 -0.20116475 0.15411536 0.08023132 0.12164927 0.11774925 -0.2119012 0.463378 0.1541742 0.06572087 -0.18952312 0.25471583 0.16946244 -0.204283 0.37394845 -0.42106608 -0.3478702 0.30953264 0.043521296 0.052582785 -0.1899876 -0.25671878 0.48087206 0.23893589 -0.0031274725 -0.4069057 -0.35553104 -0.20080905 0.052247282 -0.009972918 -0.14551379 0.5459758 0.2955854 -0.16907234 -0.3272021 0.036301054 0.48294738 -0.31191093 0.06302598 0.032051582 0.26399353 -0.09681545 0.49090892 -0.43081078 0.56582487 0.25647804 0.26924384 0.24687873 -0.020565342 0.38265547 0.3995125 0.07688878 -0.6951496 -0.093695566 0.7677257 -0.11971669 -0.56387794 0.42613444 -0.112970114 0.4143718 -0.032107208 0.17382088 0.2876024 0.3143217 0.46620825
犯 -0.14971064 0.11794175 0.051907822 0.09980753 0.08516968 -0.16904233 0.34188703 0.10862876 0.05474689 -0.1239786 0.17949322 0.111294806 -0.1509256 0.261556 -0.29852042 -0.24897583 0.22785383 0.039363038 0.041466042 -0.12907813 -0.18507679 0.35296562 0.17974201 -0.004587378 -0.3019421 -0.26056117 -0.15965341 0.04076646 -0.018149288 -0.11432315 0.402132 0.2163037 -0.12590533 -0.23668529 0.018240439 0.34831434 -0.2276273 0.03778593 0.024055965 0.19109568 -0.07829162 0.3537447 -0.30368397 0.41379252 0.18387406 0.1975035 0.18623129 -0.012208795 0.27125382 0.2921674 0.046448525 -0.5208652 -0.060688443 0.56164074 -0.07947408 -0.41373923 0.29767856 -0.082131624 0.31473532 -0.025869219 0.12910727 0.21808809 0.2303352 0.3346821
走私 -0.15893373 0.10877717 0.05734433 0.08946679 0.08115517 -0.15794778 0.3350025 0.11239225 0.048199367 -0.12579212 0.1770362 0.12156269 -0.134514 0.25612655 -0.30568263 -0.24817382 0.22791691 0.034157757 0.040982645 -0.13246363 -0.19686897 0.34049332 0.1666536 -0.014431741 -0.2909259 -0.25493678 -0.14927195 0.03378677 -0.016932666 -0.106819525 0.3952981 0.20479012 -0.10781374 -0.22490956 0.020465951 0.35214263 -0.21978715 0.041096736 0.021074077 0.19357336 -0.063743904 0.34523103 -0.31246674 0.41119692 0.17524193 0.19452123 0.18864062 -0.021359438 0.27696836 0.29231456 0.04706428 -0.50211805 -0.054495215 0.55255175 -0.07648529 -0.39681908 0.297227 -0.069900244 0.31114236 -0.033651013 0.12504077 0.20772123 0.22432666 0.3405119
一般 -0.14238404 0.106883526 0.05393225 0.07818272 0.079274595 -0.14020355 0.30656192 0.098159194 0.048996683 -0.11764784 0.16977008 0.09839131 -0.12942792 0.2410561 -0.26857963 -0.22746333 0.20746583 0.032530796 0.02634907 -0.12786429 -0.16778013 0.32097906 0.14970472 -0.012775147 -0.25642216 -0.23035792 -0.13998054 0.032178245 -0.0060386523 -0.09220031 0.36088184 0.18383469 -0.0984141 -0.20562656 0.022889048 0.31716442 -0.20337081 0.026040254 0.027255308 0.16850953 -0.061354935 0.31814092 -0.27872846 0.3745734 0.168626 0.17752379 0.1628059 -0.017763834 0.2551176 0.26406428 0.049108263 -0.46068564 -0.055905037 0.5014725 -0.067854896 -0.3653799 0.28181094 -0.06564418 0.2778045 -0.014801001 0.10622453 0.19337825 0.21015549 0.30662167
打扰 -0.11830788 0.10104913 0.04708765 0.076818846 0.07494286 -0.13441062 0.26274502 0.07687448 0.045873627 -0.114721574 0.14413758 0.09393497 -0.11902963 0.22393243 -0.24440502 -0.19277285 0.17629229 0.025861891 0.04439491 -0.11313397 -0.15697345 0.28894287 0.13168512 -0.016080504 -0.22893584 -0.19999178 -0.11534942 0.035730653 0.00082187884 -0.083070464 0.32957283 0.1739051 -0.09943469 -0.18876795 0.019962316 0.2692736 -0.17499869 0.04275417 8.489625e-05 0.15919349 -0.054861907 0.2852809 -0.25754455 0.33764815 0.14472985 0.15954988 0.15992239 -0.01951969 0.23407291 0.22682595 0.045366075 -0.41936186 -0.061007176 0.44126403 -0.06545681 -0.33145544 0.23765145 -0.07160521 0.24669859 -0.028273158 0.10203843 0.17516503 0.1833775 0.2708896
特征 -0.1371167 0.105872445 0.045558516 0.08139108 0.07617553 -0.13754669 0.28294647 0.100268774 0.041876636 -0.12375546 0.15182887 0.08665571 -0.12063991 0.23922667 -0.2734041 -0.22136219 0.1922644 0.03981841 0.027413111 -0.1169292 -0.15806447 0.3027913 0.13858987 -0.009622423 -0.24712545 -0.23148681 -0.139777 0.030854184 -0.020026602 -0.10425871 0.34557503 0.19090268 -0.10363731 -0.20554009 0.022038158 0.31221446 -0.19474448 0.029087277 0.014348866 0.15953289 -0.052047424 0.31578383 -0.26355094 0.36497995 0.15862039 0.16923445 0.15480462 -0.0076648933 0.24001932 0.25437564 0.052534584 -0.45448726 -0.05067471 0.4863997 -0.07309335 -0.36062396 0.2670992 -0.07072518 0.26665342 -0.027555563 0.11000189 0.17876112 0.19276088 0.28879175
不 -0.24400873 0.19586577 0.09295636 0.15389544 0.14619312 -0.2514987 0.5338701 0.16808121 0.09661339 -0.21713278 0.2960077 0.17891215 -0.22723289 0.43155667 -0.49220383 -0.4018769 0.3623894 0.059090864 0.06464806 -0.22427897 -0.30777305 0.5778358 0.2676819 -0.014894023 -0.4794963 -0.41198418 -0.24171509 0.05315315 -0.017951626 -0.18006891 0.6584688 0.33147863 -0.19123104 -0.384953 0.039566774 0.57269335 -0.34728277 0.06928272 0.034743372 0.30287945 -0.10725726 0.5718378 -0.5059025 0.66538936 0.30169684 0.31547776 0.30814984 -0.03495052 0.43862697 0.4650637 0.09419519 -0.84038305 -0.110364385 0.89741004 -0.14389029 -0.6706988 0.4950875 -0.13621782 0.5042329 -0.045244098 0.19499649 0.34283507 0.37015206 0.5509459
法院 -0.15880889 0.12603834 0.06343907 0.087852485 0.10054306 -0.1636886 0.36229113 0.120905325 0.06159922 -0.12970912 0.18983161 0.12616074 -0.15621059 0.28094214 -0.31645045 -0.27639583 0.24423462 0.045178555 0.039020624 -0.13991228 -0.2100759 0.3733154 0.18678427 -0.013724923 -0.30790418 -0.26985416 -0.1616808 0.03874541 -0.012623267 -0.12167826 0.42663407 0.23012884 -0.12848394 -0.23746078 0.026690697 0.3654653 -0.22698714 0.03852776 0.020737778 0.20552796 -0.070410445 0.376993 -0.32977104 0.43885973 0.19032775 0.20025828 0.2027932 -0.022939403 0.29534864 0.30527812 0.054041564 -0.54712427 -0.0752091 0.57569784 -0.08582075 -0.44158497 0.3199662 -0.08318817 0.32112628 -0.031548925 0.13552593 0.22205122 0.24308197 0.3690602
生产 -0.15472732 0.11661557 0.059092473 0.095850065 0.084451064 -0.15712167 0.3383931 0.10985367 0.05186471 -0.13895266 0.17887667 0.121157795 -0.15114436 0.27494985 -0.31613293 -0.26574767 0.23785892 0.040862046 0.0373239 -0.13094892 -0.1914636 0.35597196 0.16853957 -0.004621636 -0.3001556 -0.26144156 -0.1498147 0.03403338 -0.015683942 -0.120854266 0.41858447 0.22135141 -0.11874389 -0.23210366 0.019213146 0.35942647 -0.21456426 0.037049245 0.011757149 0.18874379 -0.06490582 0.36073422 -0.3173733 0.41888872 0.19567552 0.19707523 0.18355617 -0.009510079 0.2760217 0.29747263 0.051685687 -0.5170634 -0.066349335 0.5603193 -0.08770649 -0.42101613 0.31730422 -0.0801583 0.31647477 -0.026155377 0.11616628 0.21878684 0.23817015 0.3482616
类型 -0.10801184 0.09910116 0.048138108 0.06969869 0.06179393 -0.11980569 0.25022912 0.0826919 0.03847086 -0.093747094 0.14505024 0.096099615 -0.11903649 0.21307768 -0.22942048 -0.20211765 0.17917037 0.02313615 0.022107195 -0.10677887 -0.14085266 0.26152152 0.12616433 -0.012609886 -0.22303638 -0.20658903 -0.12337713 0.03485005 -0.008439499 -0.08837779 0.30916643 0.15741111 -0.09483858 -0.18477264 0.016557233 0.27742735 -0.1675381 0.04025304 0.022715932 0.14189085 -0.05550751 0.27084452 -0.24534756 0.31775838 0.1386709 0.14044465 0.14190301 -0.010732262 0.21045072 0.22586484 0.04334669 -0.4026257 -0.052575756 0.4163527 -0.061197795 -0.30628946 0.2364472 -0.06065868 0.24500275 -0.00858447 0.10027124 0.16780707 0.1736687 0.26715216
缓刑 -0.20744376 0.15695031 0.07371319 0.123590514 0.112890854 -0.2026333 0.4282755 0.13254815 0.06554744 -0.16508588 0.2318347 0.14049575 -0.19742265 0.35408404 -0.40969962 -0.32393143 0.2946007 0.03986546 0.04429138 -0.17681576 -0.25848427 0.4722926 0.22274704 -0.016322747 -0.38864455 -0.32849872 -0.19465508 0.04752835 -0.015853914 -0.14752138 0.53750986 0.27220473 -0.16207103 -0.30916873 0.03263309 0.4550186 -0.28796393 0.04265199 0.035175253 0.2499307 -0.08920106 0.46837807 -0.40571272 0.5367326 0.25169945 0.26466987 0.24416783 -0.027642518 0.35667044 0.3845099 0.064263254 -0.67634445 -0.085117005 0.71857953 -0.110915884 -0.54450095 0.40611386 -0.10936492 0.40491515 -0.0343959 0.16809738 0.28309083 0.29930604 0.44319284
法律 -0.19113325 0.1398373 0.057657678 0.10580532 0.10145811 -0.19412251 0.398277 0.1245841 0.060770545 -0.16075164 0.21024749 0.14558516 -0.16593805 0.32720333 -0.36151388 -0.3153109 0.26630956 0.043364093 0.038055632 -0.1505201 -0.22426474 0.42269865 0.21301267 -0.009823089 -0.3518023 -0.3107496 -0.18190815 0.049254835 -0.02570508 -0.13303459 0.5000767 0.24780646 -0.15132122 -0.27163035 0.014827294 0.42060512 -0.26378357 0.04817659 0.018114602 0.22545859 -0.081740335 0.4207973 -0.37625593 0.50466067 0.21508005 0.22524028 0.22730987 -0.030036198 0.32889608 0.34737912 0.076467834 -0.61438924 -0.07282683 0.6672375 -0.100771636 -0.49802932 0.37222645 -0.087788366 0.37020826 -0.035386305 0.14372021 0.24769473 0.27988887 0.4155893
刑事责任 -0.12160632 0.10327872 0.048888337 0.065817304 0.064689495 -0.12407485 0.268432 0.08598295 0.05140597 -0.10264757 0.14995675 0.08521297 -0.1114017 0.21433121 -0.24191889 -0.20573881 0.17536105 0.023339953 0.036785703 -0.11316513 -0.15336122 0.2971399 0.14574839 -0.006431421 -0.24070829 -0.2151421 -0.1169964 0.032857332 -0.010157062 -0.095638886 0.3350799 0.17184274 -0.0995359 -0.19763926 0.022556216 0.28805876 -0.17263201 0.039761215 0.025051624 0.151507 -0.04760752 0.2910267 -0.2472797 0.3431003 0.1520406 0.15824653 0.14320147 -0.010639718 0.2267166 0.24078257 0.044553567 -0.42804477 -0.053532135 0.44947153 -0.064625666 -0.34375367 0.25992787 -0.07206827 0.25293082 -0.021548552 0.09111778 0.17194095 0.1824349 0.28553823
我 -0.19604011 0.15426867 0.064837925 0.11814303 0.105077475 -0.20916377 0.42844224 0.13912581 0.077384405 -0.17863277 0.23272806 0.14935173 -0.18501738 0.3412194 -0.40366212 -0.33014813 0.29708427 0.052134983 0.052110706 -0.1777799 -0.23905613 0.46092317 0.2249788 -0.015650941 -0.38776907 -0.32394207 -0.1912448 0.0521502 -0.018389685 -0.13372353 0.5362334 0.2711687 -0.1548482 -0.30059573 0.03313555 0.45245555 -0.27830952 0.046572316 0.01681558 0.2412229 -0.0844927 0.455143 -0.41158637 0.5383362 0.24308914 0.24997872 0.246082 -0.027631233 0.36088508 0.3782523 0.08050596 -0.66015327 -0.091831625 0.7203338 -0.11639063 -0.5266418 0.4007748 -0.10500697 0.4043442 -0.03198673 0.1570203 0.27142572 0.29305175 0.43309227
盗窃 -0.15659203 0.12455792 0.058845527 0.093401946 0.08652263 -0.16026817 0.33147138 0.10852709 0.053212103 -0.12386309 0.17883769 0.10445994 -0.14253488 0.26749107 -0.3047496 -0.25394806 0.22002158 0.02995905 0.043982323 -0.13655631 -0.19044797 0.3551808 0.16665237 -0.004003471 -0.2818715 -0.25298122 -0.1438666 0.032786887 -0.015724156 -0.10990089 0.40836465 0.20913664 -0.11089768 -0.22867905 0.020497344 0.34456232 -0.21010572 0.041382954 0.018488487 0.19173984 -0.07292091 0.34812453 -0.3074618 0.40308073 0.19095653 0.18928446 0.17725524 -0.023643557 0.27749136 0.28797108 0.058048412 -0.50351226 -0.05632998 0.5426742 -0.080468684 -0.40973324 0.30503473 -0.07661752 0.30361637 -0.03244155 0.12075145 0.2023467 0.22046092 0.34054363
条件 -0.15178438 0.107020564 0.053940434 0.09720131 0.088132955 -0.15643394 0.3101559 0.10138615 0.0476799 -0.13148764 0.16843043 0.10081975 -0.12970997 0.25395128 -0.28482613 -0.2372633 0.21471304 0.036995664 0.031432923 -0.11812313 -0.1780365 0.32790053 0.15268435 -0.0049496116 -0.2678645 -0.24374884 -0.14354677 0.03454743 -0.019636728 -0.11091159 0.3913029 0.19350533 -0.11057253 -0.21592239 0.024292186 0.3231296 -0.20625167 0.043358125 0.012932671 0.17723905 -0.06650837 0.34109488 -0.29614565 0.38515383 0.16864876 0.18105611 0.18050158 -0.011320874 0.25116712 0.2795894 0.044651162 -0.48743212 -0.05252559 0.52445555 -0.07627382 -0.38178065 0.29176685 -0.08278386 0.28862324 -0.031996056 0.11372233 0.19798917 0.21715413 0.31605718
介绍 -0.15386336 0.11581926 0.058251455 0.09203262 0.09321533 -0.16761336 0.35191312 0.10717606 0.050312143 -0.13788237 0.19895066 0.11706708 -0.15105134 0.27871913 -0.32460868 -0.2701035 0.23378122 0.041838612 0.044059034 -0.14900671 -0.19913325 0.36266384 0.175378 -0.013278412 -0.3140996 -0.26324996 -0.1594443 0.049855497 -0.004496041 -0.123016834 0.42419076 0.22768958 -0.1298576 -0.25082415 0.029195175 0.35899273 -0.2323466 0.03452041 0.014506765 0.19155279 -0.06567613 0.3788716 -0.32169765 0.44004378 0.18605776 0.21141075 0.19757296 -0.013424057 0.29755542 0.2951448 0.051768493 -0.533721 -0.0672015 0.5857021 -0.087859824 -0.4325782 0.3172456 -0.08820427 0.32628345 -0.027538052 0.12301957 0.22130279 0.2301183 0.35551062
麻烦 -0.13638353 0.102208406 0.037194543 0.06781931 0.07161447 -0.1385596 0.2760284 0.07641358 0.04833532 -0.11184872 0.14610842 0.10887274 -0.112299524 0.2148811 -0.2567156 -0.21187653 0.17396352 0.026406063 0.042778168 -0.11249851 -0.15059204 0.2874713 0.15288807 -0.01394693 -0.24492103 -0.21429488 -0.1320459 0.045320008 -0.014287325 -0.10120687 0.3304423 0.18097915 -0.10355096 -0.20175342 0.025449855 0.27975404 -0.18193641 0.048783876 0.009791714 0.15809986 -0.06375237 0.2848845 -0.25425705 0.34800598 0.14950337 0.15628938 0.15532136 -0.021762349 0.23604889 0.22552228 0.05523305 -0.41601577 -0.057518963 0.4504842 -0.06535327 -0.32760683 0.25236544 -0.07762933 0.24834882 -0.020175537 0.104843624 0.1721942 0.18164329 0.28833538
醉驾 -0.15857 0.13508254 0.063485734 0.106669396 0.08842215 -0.16483246 0.3575614 0.11390521 0.06717082 -0.13303904 0.19490586 0.12230137 -0.15867408 0.28240958 -0.3347702 -0.27293524 0.24576992 0.041482847 0.045658026 -0.14563328 -0.21258315 0.37798885 0.1818413 -0.009573123 -0.30749664 -0.26792935 -0.1702714 0.042934086 -0.013482364 -0.10940087 0.44449338 0.2325333 -0.118782416 -0.25661403 0.019028855 0.37740278 -0.23261067 0.03389849 0.025695054 0.20495565 -0.08030892 0.3804416 -0.33708364 0.43427795 0.20749363 0.20693065 0.20792465 -0.014380874 0.29308867 0.30742395 0.050769888 -0.5503579 -0.07417404 0.59788203 -0.084743336 -0.44274226 0.32992667 -0.09288791 0.33276153 -0.025897877 0.13795994 0.22167538 0.23857261 0.3605481
中国 -0.09872549 0.07564814 0.041849315 0.054315645 0.055238534 -0.11466282 0.23038699 0.071730494 0.034358595 -0.09410395 0.117454536 0.06985798 -0.09248799 0.18001744 -0.203852 -0.17670554 0.14533815 0.024121314 0.031941414 -0.08974218 -0.12960255 0.23896724 0.119259804 -0.004748301 -0.18856186 -0.17032214 -0.100003265 0.03390594 -0.015100226 -0.0733362 0.27987966 0.13905 -0.07428047 -0.1566771 0.0054565817 0.23478052 -0.14677627 0.026686095 0.010082982 0.1285498 -0.039945036 0.23988126 -0.21351905 0.26615813 0.12497766 0.13754664 0.1222994 -0.019146353 0.18548074 0.18334803 0.028263407 -0.3351972 -0.049581483 0.35863605 -0.06352179 -0.27931765 0.20915486 -0.04835423 0.20440127 -0.012317237 0.08470136 0.13994016 0.16185069 0.23220342
组织 -0.18793023 0.1441507 0.06913451 0.109548695 0.10696728 -0.19611484 0.39448377 0.12504469 0.06038785 -0.14959177 0.21446182 0.13512503 -0.17910026 0.31924656 -0.35902 -0.3040001 0.26915148 0.04488537 0.05255435 -0.16253349 -0.22826996 0.41967785 0.2016888 -0.0058369706 -0.34706587 -0.3077771 -0.18007447 0.052205127 -0.012552694 -0.13769959 0.49081975 0.25220275 -0.14033283 -0.28190574 0.023787392 0.41081458 -0.2608823 0.044305496 0.022084368 0.22672415 -0.077575155 0.4242574 -0.37152147 0.4830763 0.22276592 0.22872634 0.21599916 -0.026029816 0.32991904 0.33495545 0.07207069 -0.6106649 -0.08346632 0.6482694 -0.10196127 -0.49569204 0.3680902 -0.093060434 0.36143768 -0.024667678 0.15434155 0.24983694 0.26364315 0.395862
伪造 -0.14476304 0.1219621 0.04649578 0.08377129 0.08998076 -0.16388816 0.32887954 0.099286385 0.057537455 -0.12691545 0.17719683 0.12075139 -0.14698695 0.26072103 -0.30502042 -0.2436774 0.22554874 0.03522952 0.035773244 -0.12767558 -0.18751206 0.35214144 0.1679966 -0.0064943824 -0.28162393 -0.24707937 -0.15432157 0.041507877 -0.010041467 -0.1088531 0.39549607 0.2068952 -0.122606516 -0.23250462 0.018721573 0.349362 -0.21137072 0.035683405 0.016447019 0.1783902 -0.07038722 0.35070434 -0.3088306 0.4035798 0.1761399 0.1880632 0.18361956 -0.020673651 0.28082523 0.28375039 0.05737833 -0.5028444 -0.06939587 0.5456237 -0.07856738 -0.40408853 0.2988851 -0.07372133 0.30634153 -0.023648512 0.112035766 0.21063969 0.23312958 0.33211055
认定 -0.13082196 0.09715371 0.044502325 0.08032163 0.07019377 -0.12758909 0.28538448 0.09312083 0.04996922 -0.10641923 0.14616151 0.099477544 -0.11639064 0.21843888 -0.26119074 -0.212228 0.19734557 0.037560698 0.02808912 -0.11790649 -0.15997195 0.3037474 0.14020342 -0.002967116 -0.25432253 -0.20844242 -0.123687625 0.025932712 -0.013130071 -0.08834043 0.3415783 0.17630245 -0.1052061 -0.19415449 0.019484026 0.29698554 -0.18634425 0.02839615 0.015217251 0.15472366 -0.052383836 0.30213118 -0.26405624 0.3476525 0.15943086 0.15736179 0.16190031 -0.019797826 0.23934954 0.23963915 0.04278843 -0.43379876 -0.04981974 0.46103492 -0.07697218 -0.34997246 0.2627748 -0.061219268 0.26859188 -0.01849443 0.09626295 0.18162803 0.19167247 0.28268078
过失 -0.119106695 0.094412304 0.05043561 0.0827378 0.074774146 -0.14319244 0.2865807 0.083782375 0.046391614 -0.11264326 0.15965696 0.09572093 -0.12228374 0.21628335 -0.26386687 -0.2189251 0.19104147 0.035085067 0.026298897 -0.11978323 -0.15747704 0.3018003 0.15164754 -0.0030056706 -0.24379408 -0.21815674 -0.12573479 0.02583733 -0.003088765 -0.08854932 0.33764714 0.17713669 -0.106497355 -0.20084229 0.016867504 0.30001232 -0.18776892 0.038965225 0.018738113 0.15393881 -0.054403853 0.29518628 -0.25880033 0.3511385 0.15018982 0.17082588 0.15532225 -0.017148402 0.23890921 0.23636645 0.042537548 -0.4337532 -0.053282008 0.46850312 -0.06618106 -0.3468489 0.25276613 -0.07309816 0.25806108 -0.01631414 0.09588254 0.17336707 0.19043924 0.285469
最新 -0.095444135 0.06896133 0.031168813 0.06011245 0.06160715 -0.10389494 0.20340225 0.073741965 0.027846303 -0.08674522 0.10684812 0.07602739 -0.089206785 0.17647909 -0.19008802 -0.16394521 0.13495867 0.01816066 0.017165612 -0.09044943 -0.1265694 0.22811595 0.112971544 0.0019400328 -0.18915878 -0.16458988 -0.09181547 0.028747512 -0.0049544815 -0.07640741 0.2600897 0.12728849 -0.07774532 -0.14771305 0.009622887 0.21912761 -0.12945262 0.024693888 0.019463975 0.12203714 -0.040340938 0.22521588 -0.18649752 0.26290554 0.115066774 0.1275907 0.116355255 -0.018332899 0.17446937 0.18841757 0.033927538 -0.32812276 -0.03802047 0.3374397 -0.050883804 -0.2628315 0.19607937 -0.041728493 0.20087413 -0.022017116 0.08206715 0.12537758 0.14521666 0.21325073
国家 -0.15759462 0.123151965 0.05827048 0.08331321 0.08994176 -0.16655397 0.3292692 0.09770604 0.058549784 -0.13578215 0.17874277 0.11225587 -0.14994574 0.26010174 -0.30936408 -0.24811804 0.22773285 0.037309542 0.03837159 -0.1312378 -0.18864295 0.35301498 0.17700838 -0.014915331 -0.29599985 -0.25837174 -0.15467262 0.041119576 -0.0065104645 -0.102191 0.40239435 0.20624691 -0.1108333 -0.23309158 0.027906068 0.3545196 -0.22306186 0.034961816 0.014897473 0.19460866 -0.07318067 0.36121157 -0.3050164 0.4133929 0.182058 0.1936305 0.1859752 -0.021745559 0.2839182 0.27992293 0.04733823 -0.5142608 -0.06425504 0.55640036 -0.0874798 -0.40753648 0.29917437 -0.085476905 0.31040883 -0.02505045 0.12721094 0.2024855 0.22801323 0.34000972
故意 -0.17514226 0.13580854 0.058554254 0.10614617 0.10224161 -0.17763454 0.36599055 0.112267524 0.067698464 -0.14902034 0.19577177 0.13644305 -0.16881149 0.30084512 -0.3398405 -0.28356913 0.2547195 0.04102711 0.047233917 -0.14582889 -0.21421221 0.3963075 0.19098076 -0.008487406 -0.32009402 -0.27903363 -0.16371077 0.04339022 -0.017620333 -0.12661316 0.46324697 0.24137242 -0.13429408 -0.26598877 0.016597299 0.39838296 -0.24005616 0.04966168 0.015248932 0.21764368 -0.074339725 0.4015324 -0.34286952 0.46501097 0.2090055 0.2211552 0.21233377 -0.016378196 0.30466825 0.32916877 0.06405961 -0.5700741 -0.07310728 0.61187506 -0.09070208 -0.4660746 0.3439698 -0.096903 0.34963626 -0.022520443 0.14464441 0.23386006 0.25412938 0.38427034
破坏 -0.15682316 0.11827317 0.04776918 0.09388707 0.08905843 -0.16262904 0.34270048 0.09961402 0.051194623 -0.13447323 0.18122794 0.12042087 -0.15209244 0.26237035 -0.31333524 -0.26310897 0.2351949 0.042937107 0.045872718 -0.14069083 -0.19656622 0.3650197 0.18197645 -0.009425705 -0.29254642 -0.2518647 -0.15720731 0.04680203 -0.006789364 -0.11124749 0.40652895 0.22242929 -0.11943191 -0.24394286 0.019552577 0.35503998 -0.22220744 0.04006723 0.014968175 0.19144726 -0.0634239 0.35496822 -0.31980407 0.4209704 0.19047318 0.20329718 0.19297457 -0.026008872 0.2906072 0.286565 0.059011545 -0.516877 -0.07211946 0.55779874 -0.07675278 -0.41358274 0.31159106 -0.09003966 0.31078202 -0.02801416 0.12616786 0.212807 0.23421578 0.33961752
危险 -0.1220585 0.106227726 0.04025263 0.06767971 0.0642897 -0.13675946 0.28248334 0.09268861 0.05595821 -0.11528802 0.14684482 0.091552876 -0.12213 0.21644665 -0.25260922 -0.20467067 0.19363001 0.02124241 0.032739673 -0.10206994 -0.15701775 0.29378465 0.14374116 0.0019622815 -0.24098738 -0.21215485 -0.12730697 0.03193188 -0.0094969785 -0.0996685 0.33648887 0.16738047 -0.10069694 -0.19978152 0.024221227 0.2957914 -0.17106621 0.0302034 0.015182809 0.1520228 -0.051881205 0.289617 -0.2593169 0.33593774 0.14397654 0.16054265 0.15292305 -0.023707023 0.23537722 0.23281956 0.043184984 -0.42456257 -0.04815251 0.44958863 -0.07681932 -0.33463773 0.2483391 -0.065413706 0.26163554 -0.029299527 0.10470246 0.16397503 0.19621678 0.27148658
概念 -0.10148555 0.08169174 0.027894666 0.06693056 0.05493779 -0.10574598 0.2252269 0.07151849 0.03961735 -0.086970426 0.12603688 0.07870593 -0.102144055 0.17152533 -0.19501615 -0.16806456 0.15365002 0.022438293 0.018564261 -0.08697956 -0.12792507 0.23987238 0.10553849 -0.00715927 -0.19123033 -0.17157756 -0.09996643 0.028325306 -0.0115832025 -0.06909367 0.26045194 0.14023757 -0.08362334 -0.15960135 0.007147539 0.23037027 -0.15062286 0.03395726 0.010752935 0.13114919 -0.047105987 0.23255423 -0.19856308 0.26456138 0.11308828 0.12244586 0.12506865 -0.009675302 0.18643494 0.1883411 0.038195223 -0.33801734 -0.04199869 0.3580058 -0.055456277 -0.26599884 0.20765893 -0.049780592 0.20927355 -0.009497595 0.08248758 0.13744868 0.14941685 0.22238144
枪支罪 -0.064443514 0.06327037 0.024903486 0.0422063 0.038857218 -0.07263318 0.15992345 0.057043176 0.03375786 -0.059259996 0.09375753 0.051165618 -0.06709953 0.13078432 -0.14367856 -0.1246503 0.099966 0.015632894 0.017067488 -0.067842506 -0.084429555 0.16982329 0.073672995 -0.0065675764 -0.14176515 -0.11660468 -0.0680422 0.010768681 -0.005454953 -0.04515512 0.20246229 0.09177343 -0.05161675 -0.11238707 0.0018615102 0.1723078 -0.10717384 0.014666954 0.01641791 0.09793352 -0.025146302 0.17085059 -0.15034328 0.19599189 0.08745387 0.10172182 0.09091981 -0.0048866197 0.12622194 0.1450015 0.018776795 -0.2526052 -0.031440843 0.2649925 -0.041015666 -0.19741723 0.14972906 -0.0341067 0.15081362 -0.01615997 0.06260364 0.1039964 0.10447431 0.16982806
武器装备 -0.080148965 0.07089439 0.02144815 0.0414335 0.056111652 -0.09411816 0.18813162 0.06782557 0.035928663 -0.06931255 0.10160133 0.06662177 -0.08595421 0.14417785 -0.16106327 -0.14197205 0.11582266 0.012344013 0.028089192 -0.07437127 -0.1071273 0.20025279 0.09318449 -0.009018417 -0.15698062 -0.13014412 -0.08424559 0.012451253 -0.00072076556 -0.06411428 0.22412764 0.118318826 -0.06715391 -0.13341673 0.007196602 0.19902332 -0.12408217 0.019234458 0.0144629665 0.11026627 -0.02992548 0.19322991 -0.17030348 0.21700384 0.105144225 0.106823504 0.09487269 -0.004441558 0.14380153 0.15091237 0.034573477 -0.28253242 -0.029803438 0.30332884 -0.04163781 -0.22087319 0.16172843 -0.035865214 0.16393432 -0.015841473 0.07368512 0.11421506 0.13312824 0.18229607
年 -0.122801445 0.09809007 0.049441658 0.081290506 0.06533 -0.12922546 0.28235906 0.08698943 0.041416354 -0.10065749 0.15209377 0.09710917 -0.11930834 0.21456566 -0.2583003 -0.20185629 0.19329783 0.024945498 0.027766092 -0.112513945 -0.15354854 0.29984185 0.14662991 -0.0018878168 -0.23281595 -0.2124604 -0.12635155 0.027841084 -0.010743315 -0.087925375 0.3403888 0.17843322 -0.10158241 -0.1998226 0.023376942 0.28693938 -0.17070358 0.02772871 0.02208127 0.15022591 -0.046603788 0.29655975 -0.25951883 0.3400547 0.16037042 0.15337038 0.15298808 -0.024236746 0.22903848 0.22868039 0.03731341 -0.42201266 -0.056379963 0.449787 -0.07244246 -0.34366918 0.24053091 -0.06924587 0.2465572 -0.024351425 0.09356032 0.17709619 0.19412905 0.28232607
能 -0.18194008 0.13761704 0.06815103 0.10735741 0.10847802 -0.18610333 0.3909742 0.115690894 0.061066087 -0.14389907 0.21274708 0.13410951 -0.17535391 0.31076735 -0.35691628 -0.2932758 0.26543128 0.04238321 0.039400958 -0.1555173 -0.21810512 0.40476757 0.20388661 -0.0117901545 -0.3439791 -0.28628406 -0.17921478 0.040078998 -0.013957463 -0.12412825 0.4666768 0.2435472 -0.13190728 -0.2678817 0.028495677 0.39943784 -0.24566992 0.036032025 0.029130276 0.21693137 -0.074414276 0.4016406 -0.36325985 0.47610596 0.2225604 0.23305151 0.21325304 -0.02867417 0.3251387 0.32827923 0.062526 -0.58994025 -0.07323199 0.6314845 -0.09927215 -0.48154223 0.35132864 -0.09842616 0.35712707 -0.030409072 0.14064218 0.24664447 0.2693245 0.39263508
意思 -0.108849816 0.09159038 0.033792377 0.07187576 0.05341101 -0.12054989 0.23199417 0.07421419 0.038327295 -0.09723986 0.13875453 0.07395363 -0.102422126 0.194007 -0.21066964 -0.18396537 0.16586459 0.025011813 0.033551205 -0.09087734 -0.13506997 0.24950728 0.113875456 -0.010858779 -0.2114857 -0.17650606 -0.10565888 0.03378707 -0.0072124526 -0.072341084 0.29346517 0.1428032 -0.07917001 -0.1721072 0.019700699 0.24749713 -0.16418464 0.03221939 0.017297547 0.12905316 -0.040895507 0.25960386 -0.22837426 0.29027694 0.13429937 0.1393361 0.12526935 -0.015063418 0.1946706 0.20561628 0.040796787 -0.36475378 -0.05036741 0.39789617 -0.06332015 -0.2986355 0.21774173 -0.053041518 0.21814026 -0.010460397 0.081315935 0.14608791 0.162989 0.23503987
国家机关 -0.12377048 0.082800865 0.0362063 0.07215652 0.06623251 -0.12450127 0.24813376 0.09072049 0.049843572 -0.09925584 0.13453077 0.08559717 -0.103826374 0.20126823 -0.22226772 -0.19611053 0.17861025 0.022725683 0.033777416 -0.09648798 -0.13493514 0.27391255 0.12867686 0.0010068957 -0.22603153 -0.19826262 -0.1044168 0.017749287 -0.016382748 -0.0897214 0.30840614 0.16586818 -0.088318 -0.16613743 0.010676066 0.2718055 -0.1595807 0.021142969 0.024810705 0.144722 -0.049875338 0.26050663 -0.2408457 0.30472714 0.13866162 0.1527475 0.13814025 -0.014918714 0.21540329 0.22313398 0.04193987 -0.38350934 -0.042920467 0.4158496 -0.07224683 -0.3175623 0.23089305 -0.06458956 0.23738985 -0.011207693 0.08771012 0.16317007 0.17285222 0.2596435
抢夺 -0.114525765 0.08253528 0.0375942 0.05628666 0.062040318 -0.11140932 0.23920038 0.0678038 0.042356886 -0.0841602 0.1339658 0.08646692 -0.102117196 0.19051534 -0.20628548 -0.1797949 0.16002539 0.030809144 0.02619421 -0.08747161 -0.13881694 0.23870395 0.12725684 1.1598762e-05 -0.20868473 -0.17591743 -0.10481022 0.028471861 -0.007242407 -0.084113635 0.27779606 0.15359691 -0.07792802 -0.16222735 0.012197373 0.23786776 -0.15033305 0.022046864 0.012058716 0.13542613 -0.05275098 0.2483577 -0.21838865 0.28777444 0.13459691 0.14329033 0.13617101 -0.021137185 0.18578617 0.20631059 0.03557951 -0.3535442 -0.050891295 0.38049132 -0.05969573 -0.29309785 0.21777664 -0.059538677 0.22120072 -0.014559093 0.090364784 0.14470345 0.15537263 0.24269018
出售 -0.1356078 0.10365761 0.050782755 0.08612871 0.069503345 -0.14198336 0.30123162 0.090037495 0.052195728 -0.12255801 0.16686495 0.10479114 -0.12099337 0.23430592 -0.2705344 -0.23108967 0.19862269 0.028488094 0.03810613 -0.11583314 -0.17821482 0.3145418 0.14764343 -0.008485877 -0.25575864 -0.22219838 -0.13163103 0.030911025 -0.018358938 -0.08930464 0.35454413 0.17915024 -0.10291428 -0.20910293 0.0114098415 0.3129981 -0.20257773 0.04219955 0.020666622 0.16004229 -0.05810626 0.3197109 -0.27713907 0.37422687 0.16298868 0.16895546 0.15969022 -0.018398957 0.25501508 0.24946181 0.048382033 -0.4517218 -0.060231127 0.492212 -0.07067318 -0.35716367 0.2719689 -0.073035315 0.27817205 -0.030542579 0.10523022 0.18872645 0.20329532 0.30046907
买卖 -0.11565603 0.08741159 0.034918644 0.06727837 0.070207335 -0.10909482 0.24537101 0.081620455 0.035969302 -0.087326184 0.13363494 0.08855286 -0.10621886 0.18760206 -0.21600579 -0.17929935 0.16818684 0.019530712 0.029428292 -0.09304222 -0.13878304 0.250224 0.1301557 -0.0031578618 -0.20200177 -0.18534705 -0.10597408 0.020021923 -0.01679148 -0.07495912 0.2955094 0.1535065 -0.08727103 -0.16601183 0.011330955 0.24925251 -0.15219022 0.0238715 0.011766067 0.13454002 -0.05112426 0.24838252 -0.22851388 0.2969124 0.13492274 0.13963312 0.13990751 -0.011953137 0.19900763 0.20928775 0.0381519 -0.36698377 -0.03672132 0.399679 -0.05342295 -0.29830053 0.20976247 -0.048385274 0.22784759 -0.011329197 0.092063345 0.14491174 0.16031167 0.24317093
他人 -0.13161844 0.10731993 0.04412948 0.08304886 0.08490599 -0.14883922 0.2999795 0.09280647 0.045583487 -0.10818363 0.1618654 0.102040306 -0.1281781 0.24155946 -0.27456364 -0.22571658 0.19315772 0.033718932 0.03187975 -0.11876444 -0.17116053 0.31709158 0.14847083 -0.01097146 -0.26652583 -0.23272747 -0.14259669 0.032435294 -0.010223419 -0.10212322 0.36843187 0.18326733 -0.099231064 -0.20094618 0.009601307 0.30781475 -0.19516976 0.033282485 0.019436182 0.16101867 -0.05946038 0.3151467 -0.27204436 0.36658874 0.16579051 0.17161636 0.17235774 -0.02379596 0.2514704 0.26169497 0.052747793 -0.46330184 -0.05821525 0.49438262 -0.07527822 -0.35924852 0.26965815 -0.07297846 0.27639365 -0.019069578 0.11458276 0.18870012 0.21010423 0.302591
需要 -0.16634524 0.1373512 0.058215164 0.09758677 0.09565562 -0.1730092 0.36067227 0.11064663 0.05541217 -0.14637716 0.2045132 0.12931913 -0.16571411 0.2849466 -0.3281078 -0.27564406 0.25001335 0.03991994 0.04394516 -0.15041569 -0.21148974 0.38501853 0.17931062 -0.002518759 -0.32645705 -0.27914712 -0.16694963 0.048169035 -0.014072899 -0.124272875 0.44166997 0.22355194 -0.12792858 -0.26367906 0.019226115 0.38864362 -0.24693638 0.036350023 0.024982978 0.20271496 -0.079456225 0.3851762 -0.34866354 0.4565637 0.19726267 0.22217639 0.19765642 -0.01568779 0.2968753 0.31643084 0.060951013 -0.56994534 -0.0698012 0.6062553 -0.097585976 -0.4591857 0.33980146 -0.0923866 0.33500478 -0.02373319 0.12922764 0.2295342 0.25229135 0.367444
驾驶 -0.13651638 0.09922443 0.04359196 0.07978298 0.07054694 -0.14512601 0.3049889 0.102159746 0.046823274 -0.118159816 0.16196173 0.10516394 -0.13018842 0.23385432 -0.26809204 -0.23666637 0.2110632 0.029373497 0.03397421 -0.12387795 -0.1670089 0.31038865 0.15197794 -0.012250933 -0.2708361 -0.22668058 -0.13070185 0.03222289 -0.0074310107 -0.090655334 0.37340352 0.19088975 -0.10476967 -0.2072033 0.011573063 0.308493 -0.20113797 0.034302764 0.026157372 0.1708239 -0.05876897 0.31785125 -0.27293608 0.36758566 0.1589513 0.17674226 0.17279413 -0.012470127 0.2522715 0.25815317 0.053339977 -0.46631902 -0.049829684 0.50489503 -0.068013415 -0.372277 0.27815714 -0.06594826 0.2851176 -0.029318731 0.11378567 0.19112644 0.2034513 0.29979482
会判 -0.11585708 0.093774416 0.043527566 0.07851296 0.06772948 -0.11587841 0.25177827 0.08735428 0.04718237 -0.09671039 0.12924595 0.08639743 -0.10584471 0.20004372 -0.23927258 -0.19359204 0.1723229 0.031633582 0.02695515 -0.09967691 -0.14949201 0.27034238 0.13348031 -0.005679343 -0.21799186 -0.18942681 -0.11156391 0.02686463 -0.009831603 -0.07832275 0.3171655 0.16887803 -0.08618816 -0.18446068 0.018286794 0.27449173 -0.16170622 0.02629203 0.025000816 0.14176802 -0.045703996 0.26699027 -0.24433166 0.31128675 0.14106137 0.14265016 0.1391091 -0.019125436 0.2045499 0.21872495 0.04930695 -0.4009578 -0.0447577 0.4259078 -0.06760019 -0.31554726 0.22977698 -0.05175609 0.23567781 -0.024786087 0.09639263 0.15785941 0.1752978 0.26518124
盗窃罪 -0.103329636 0.084950075 0.04591395 0.065949626 0.06401645 -0.10439679 0.23027141 0.076273255 0.043777864 -0.08916594 0.13152987 0.07861774 -0.09954328 0.18874545 -0.21311346 -0.18421488 0.1629468 0.019850042 0.022060717 -0.09085276 -0.13604106 0.24194191 0.12074132 0.0015309701 -0.19884734 -0.18132567 -0.11353824 0.02770106 -0.0062770867 -0.08097713 0.2915522 0.14581826 -0.08182352 -0.1570942 0.01897367 0.2436697 -0.14557959 0.025757708 0.017737273 0.13204923 -0.053034857 0.24192801 -0.21439381 0.28208104 0.13672642 0.14474499 0.12216825 -0.018070584 0.18899995 0.19671525 0.030679405 -0.36224705 -0.046567153 0.38254148 -0.056302577 -0.2821043 0.21403916 -0.051928505 0.21304117 -0.024694176 0.08422165 0.14643694 0.16503455 0.23909976
能否 -0.13658288 0.10191246 0.04949563 0.07912056 0.06985814 -0.14428636 0.29744327 0.096262544 0.042957902 -0.11779893 0.15280464 0.103271395 -0.1297657 0.23072596 -0.2747209 -0.21796909 0.18781777 0.038660906 0.04045968 -0.1097482 -0.16803601 0.31030712 0.14507504 -0.00870393 -0.2535432 -0.22979756 -0.13393708 0.041708767 -0.01200867 -0.10117086 0.3628558 0.18673158 -0.10424458 -0.20480426 0.021943774 0.30921987 -0.18818484 0.04333853 0.008824488 0.16810621 -0.0642583 0.30528072 -0.26856762 0.3624309 0.15824303 0.16706705 0.17143081 -0.008189216 0.23906559 0.2537117 0.048478648 -0.4501119 -0.06036611 0.49150732 -0.07909687 -0.35649773 0.2684208 -0.077089064 0.2620782 -0.028704204 0.10611321 0.18916495 0.19445007 0.29571062
行贿罪 -0.05395538 0.051573336 0.019424934 0.04039287 0.028731404 -0.05800271 0.12913804 0.04223472 0.018554278 -0.04227891 0.06085329 0.03597071 -0.059177764 0.09600568 -0.114971876 -0.1019997 0.08684684 0.006252205 0.015718365 -0.051182933 -0.075170554 0.12798615 0.061327197 0.0054082433 -0.11140408 -0.100882515 -0.061163515 0.018214963 -0.0032756985 -0.037547313 0.15478761 0.08137202 -0.052078098 -0.08826521 0.001256914 0.13903362 -0.0820993 0.017832464 0.0036613226 0.062697515 -0.023969186 0.12699243 -0.12411076 0.16308282 0.06997596 0.070348665 0.07458794 -0.007963223 0.10977491 0.105917625 0.013883634 -0.19386481 -0.022422763 0.21251327 -0.036971975 -0.15752135 0.12206114 -0.027690813 0.12469449 -0.0042091017 0.05319198 0.0760727 0.09319394 0.12282471
刑事 -0.12398803 0.08161105 0.045300588 0.06786729 0.063185215 -0.1241898 0.25217143 0.088401 0.04500025 -0.0922814 0.14275162 0.079042636 -0.11654114 0.1965339 -0.22962315 -0.18554074 0.16646591 0.02694051 0.0344755 -0.1091238 -0.15236866 0.27688408 0.12407852 0.003203913 -0.22386074 -0.19981232 -0.12084014 0.022175163 -0.0048766225 -0.07645519 0.30917686 0.15701035 -0.09556177 -0.17596565 0.015615747 0.262026 -0.16577673 0.025192264 0.012198591 0.14656298 -0.050931115 0.26842898 -0.23158865 0.31797105 0.14472686 0.14859122 0.14261618 -0.009960369 0.21576518 0.22683989 0.042346112 -0.39318416 -0.04947823 0.42770153 -0.06885042 -0.3168367 0.2351489 -0.061521728 0.23421355 -0.01962892 0.097397454 0.1604053 0.17650826 0.25843886
妨害 -0.11525505 0.09398779 0.047347393 0.07000865 0.06625942 -0.12223197 0.24533905 0.077155404 0.04195809 -0.10553559 0.14288557 0.07862766 -0.101951845 0.20626158 -0.22916865 -0.19028698 0.17673074 0.025809933 0.025484756 -0.095099054 -0.144914 0.272415 0.12125518 -0.008303213 -0.2153941 -0.18976605 -0.12054466 0.034936648 -0.012562366 -0.0781007 0.3032268 0.1651422 -0.08382457 -0.18399963 0.017607829 0.26388046 -0.16100836 0.022129279 0.013749896 0.1408328 -0.05069259 0.26691654 -0.23019144 0.30820173 0.13872887 0.15556628 0.1397163 -0.021454759 0.20482701 0.22600092 0.04956847 -0.39607066 -0.049433235 0.41703534 -0.06124013 -0.31544426 0.23074694 -0.053119984 0.22880653 -0.018334152 0.10060604 0.16309977 0.1762498 0.25235957
定义 -0.116388954 0.085048884 0.03155669 0.06509585 0.06347405 -0.12104895 0.23916057 0.07538571 0.043965735 -0.09701175 0.13954908 0.07916647 -0.11016791 0.19009717 -0.22033942 -0.18054663 0.1704889 0.026938891 0.028209977 -0.10481768 -0.14529094 0.26302034 0.11899496 -0.0061527826 -0.2083326 -0.19552168 -0.11831203 0.021906033 -0.016993752 -0.080574006 0.29769436 0.15347777 -0.08619613 -0.17083023 0.021516046 0.26461542 -0.16727762 0.029097546 0.012938984 0.14637646 -0.050027337 0.26227593 -0.23035103 0.3014423 0.13558678 0.14997938 0.13015498 -0.018632054 0.19774128 0.20958412 0.043899883 -0.38530526 -0.04818065 0.41507524 -0.06152096 -0.29786286 0.22118466 -0.054139443 0.22715455 -0.02055209 0.08926813 0.15926726 0.16158421 0.24909133
伪劣 -0.07141354 0.05991031 0.018465668 0.052752674 0.047992498 -0.089390315 0.17462069 0.05629166 0.028741758 -0.0693655 0.099843435 0.060828052 -0.07419853 0.13174577 -0.16348067 -0.123541646 0.12130599 0.019129042 0.023152526 -0.0731311 -0.091323726 0.18032281 0.08129583 0.004266348 -0.14861783 -0.124046765 -0.06671773 0.011055258 -0.00808424 -0.050793815 0.20138559 0.110229045 -0.060117226 -0.1103677 0.006080568 0.18002109 -0.10740062 0.013985589 0.006151968 0.087821454 -0.044074755 0.18950444 -0.15367208 0.2093937 0.094612494 0.10631362 0.09236942 9.981474e-05 0.1373282 0.13949168 0.031814717 -0.25682428 -0.027327085 0.28161514 -0.034690984 -0.20568517 0.1507354 -0.043633725 0.1626198 -0.010658477 0.057570085 0.09660691 0.12328388 0.17677552
变造 -0.116055146 0.07797523 0.033610888 0.06432478 0.058702216 -0.11246183 0.22981298 0.081380665 0.034025338 -0.100642815 0.122902945 0.08789818 -0.09734414 0.19179247 -0.21008216 -0.17781805 0.16459943 0.031037748 0.02456938 -0.08789564 -0.14050789 0.25470722 0.116027504 -0.009050775 -0.20764583 -0.18753915 -0.104914084 0.023819264 -0.007555397 -0.08241615 0.29033512 0.14305633 -0.0928113 -0.15713929 0.020103456 0.24499123 -0.15571068 0.01891981 0.016957497 0.12916529 -0.053804606 0.25834793 -0.22549473 0.28592935 0.12472326 0.13928854 0.12713209 -0.010309678 0.200603 0.20625216 0.035707075 -0.35824302 -0.043348726 0.3986884 -0.062906735 -0.29543534 0.21333209 -0.05069138 0.22350873 -0.02373022 0.086343504 0.15340565 0.16447449 0.2484323
犯罪构成 -0.098381266 0.06679295 0.03513146 0.06386711 0.053646736 -0.09285512 0.20950913 0.06635417 0.042191997 -0.07631827 0.1093453 0.06475513 -0.08911816 0.16922419 -0.19391222 -0.15955323 0.13952702 0.014653619 0.021634279 -0.08665945 -0.12431652 0.22747147 0.09983032 -0.0014647776 -0.18614316 -0.16596481 -0.09642007 0.015104174 -0.015577234 -0.07834619 0.2586468 0.13159846 -0.06960078 -0.14710733 0.014195174 0.22377287 -0.13138136 0.018471863 0.018282741 0.11775377 -0.04723397 0.22479929 -0.20298909 0.26651785 0.11864081 0.11462795 0.12045772 -0.017351955 0.17992766 0.18048342 0.030848157 -0.31713957 -0.03422832 0.35088712 -0.047796536 -0.2642901 0.19667482 -0.0538629 0.19023833 -0.0127678355 0.072006434 0.13274999 0.14117348 0.20794988
制造 -0.091565534 0.07491421 0.035455488 0.059608355 0.048731215 -0.10159654 0.20904417 0.06312637 0.027038645 -0.073325425 0.117947936 0.07669174 -0.0807561 0.15518984 -0.19064254 -0.14987145 0.12884328 0.017648758 0.027791502 -0.07974721 -0.12334555 0.22356912 0.11033603 8.956954e-05 -0.17085287 -0.15629537 -0.09456896 0.028482458 -0.013856517 -0.06119737 0.25685173 0.13259852 -0.073738776 -0.13904877 0.012529233 0.2055692 -0.13112618 0.01768811 0.017558027 0.11805244 -0.03737815 0.21776296 -0.18631488 0.26075596 0.10621741 0.12670103 0.11547709 -0.013363894 0.17130351 0.18413024 0.02832751 -0.31643432 -0.032026693 0.34195006 -0.056330204 -0.259946 0.18241374 -0.0454561 0.18518966 -0.017802985 0.07994635 0.12324072 0.14769538 0.2091695
细分 -0.061743107 0.047238134 0.017351571 0.039262373 0.031186923 -0.067314826 0.13174617 0.047402654 0.01923135 -0.042348493 0.07510328 0.038515203 -0.05027371 0.11031185 -0.12629895 -0.108422145 0.08577208 0.01658366 0.011326019 -0.045877848 -0.07053062 0.14662401 0.071348965 -0.010109601 -0.10871848 -0.09759113 -0.054254454 0.015752802 0.00062624 -0.040669676 0.15738082 0.07736934 -0.05093007 -0.08413748 0.013768545 0.14024472 -0.08735243 0.014232233 0.004919331 0.07565654 -0.032630812 0.13247988 -0.12782112 0.16615652 0.07371262 0.08237496 0.07765342 -0.005987785 0.10586966 0.11150824 0.019896876 -0.1991787 -0.027271615 0.21678683 -0.031143054 -0.15495726 0.113692425 -0.024187475 0.12533392 -0.0109004285 0.042574443 0.088080905 0.08706851 0.13123047
卖淫罪 -0.089438416 0.06618285 0.030117156 0.050876573 0.057158872 -0.09229672 0.19025265 0.056269713 0.03420728 -0.07613019 0.10814718 0.069236174 -0.08071127 0.15726976 -0.17600384 -0.13707359 0.12525193 0.014953898 0.017606486 -0.08001893 -0.114419006 0.20188983 0.09936769 -0.0053277067 -0.16867286 -0.14772104 -0.08672394 0.018466076 -0.0040469207 -0.054690875 0.22817293 0.11557662 -0.07242246 -0.13515632 0.014077276 0.20651796 -0.13220292 0.027933555 0.019949332 0.10133471 -0.04140315 0.19742344 -0.17144407 0.22375658 0.104378894 0.10950289 0.10752236 -0.015701646 0.14958586 0.16004519 0.02575149 -0.2899025 -0.038725216 0.31481513 -0.05157837 -0.24099189 0.18056779 -0.03743503 0.17469175 -0.021722192 0.06528506 0.11132523 0.13710639 0.19941337
未遂 -0.11420561 0.08661929 0.041924972 0.07200873 0.065993905 -0.108669765 0.2416674 0.08273614 0.034039207 -0.08621208 0.12899779 0.073374145 -0.10982409 0.1969341 -0.22001332 -0.17992638 0.15585358 0.031130373 0.028887281 -0.09010773 -0.1363305 0.25834724 0.1272119 -0.005365811 -0.21409127 -0.17549881 -0.10155078 0.02304903 -0.00031510452 -0.06964207 0.2867803 0.14649428 -0.08009415 -0.16324787 0.00797515 0.2542036 -0.14921284 0.022924352 0.015515171 0.13687256 -0.054611478 0.24726264 -0.22586605 0.29633206 0.13265048 0.13573827 0.13380006 -0.0066001597 0.18918653 0.20620649 0.042094212 -0.37008962 -0.040469285 0.38210514 -0.053014737 -0.28900653 0.22056517 -0.059247375 0.21996991 -0.020771854 0.09303374 0.14602181 0.16702779 0.23439579
网络 -0.08342543 0.05321535 0.022841081 0.049291126 0.036609735 -0.08616726 0.16207704 0.048724603 0.02819876 -0.065237075 0.09440607 0.0625768 -0.075632334 0.13452062 -0.15234742 -0.11808261 0.11778031 0.023525586 0.017372034 -0.060758386 -0.09402973 0.1813849 0.08285289 -0.010190808 -0.14793053 -0.13396281 -0.07646328 0.014793399 -0.0029768706 -0.045983154 0.20596123 0.098222815 -0.06626526 -0.11919399 0.004246151 0.17204371 -0.11257342 0.022291336 0.016684808 0.10187789 -0.030721288 0.18183792 -0.15732966 0.2092289 0.08682204 0.106996454 0.096473806 -0.0077359295 0.1382596 0.15317293 0.02815377 -0.25527024 -0.03856261 0.28678077 -0.034887653 -0.21144424 0.14900368 -0.0387044 0.16018863 -0.0070733507 0.06988498 0.10483485 0.111457504 0.17488538
发票 -0.093392484 0.07823579 0.03983495 0.060887106 0.05901079 -0.09760279 0.22167177 0.07268725 0.030415818 -0.08069733 0.11308402 0.07640455 -0.08392204 0.17493688 -0.1915046 -0.15388244 0.14404453 0.027752018 0.03205014 -0.07708185 -0.13170105 0.23278902 0.11137642 -0.007067585 -0.19348885 -0.15988506 -0.0977345 0.031481985 -0.0065997583 -0.073709354 0.260187 0.13142031 -0.06752444 -0.14783534 0.016265854 0.23124298 -0.13328652 0.033764277 0.0071455473 0.12247705 -0.038461275 0.23154116 -0.20278946 0.25894424 0.110733554 0.12475114 0.11909592 -0.008246016 0.17544137 0.1894255 0.031849347 -0.33511835 -0.043377522 0.361992 -0.053225443 -0.25809735 0.19372013 -0.05627741 0.19257551 -0.008831288 0.07657456 0.124995686 0.1425754 0.21824056
罪判 -0.16147403 0.12936305 0.04939001 0.09294119 0.098043434 -0.17245543 0.35149664 0.12061019 0.06550933 -0.13785125 0.19727714 0.12845972 -0.15288636 0.27892298 -0.32367092 -0.26313764 0.23238751 0.036165398 0.047931734 -0.13428019 -0.20115504 0.37793952 0.18175745 -0.0035595705 -0.30511424 -0.26730147 -0.15543191 0.03215171 -0.013192168 -0.12131946 0.43320772 0.22018367 -0.11737517 -0.2556593 0.0140138725 0.3767464 -0.23435766 0.047862075 0.02464134 0.19758388 -0.07550848 0.37896857 -0.3358362 0.43645397 0.20146686 0.20158266 0.19944519 -0.01600893 0.29388404 0.30202666 0.056832958 -0.55368894 -0.061954264 0.5814682 -0.09001606 -0.4276442 0.3275842 -0.0786407 0.32635033 -0.027540524 0.12404628 0.22330974 0.24594827 0.3635315
弹药罪 -0.060596697 0.052467994 0.018208228 0.033974584 0.039223842 -0.074205205 0.1520004 0.04569092 0.026084676 -0.058824055 0.087098636 0.05670044 -0.059724636 0.10921393 -0.12862864 -0.11102539 0.10207099 0.013546733 0.016236212 -0.05704119 -0.07883618 0.16044177 0.08122833 -0.0040052994 -0.12486938 -0.103823744 -0.058561403 0.017237559 -0.008658782 -0.046701867 0.18814956 0.08920379 -0.04903466 -0.0940345 0.0130330855 0.15417404 -0.10257692 0.023914475 0.005575085 0.09001304 -0.026618596 0.15668057 -0.13016969 0.17764097 0.08043907 0.09432784 0.07949022 -0.01531275 0.12680322 0.124310955 0.021270892 -0.22375564 -0.02131434 0.2421517 -0.040626466 -0.18328509 0.13527098 -0.041320473 0.13208385 -0.017298756 0.04977521 0.09092129 0.108499534 0.15174302
毒品 -0.09958555 0.07843467 0.035821736 0.060054217 0.060925316 -0.106870085 0.22976117 0.0716288 0.033090714 -0.08476446 0.13278872 0.08058688 -0.10583438 0.18131487 -0.20984744 -0.1710885 0.15166432 0.0254968 0.030311666 -0.094573 -0.1403423 0.2496707 0.12617977 0.0021426643 -0.19570094 -0.16946761 -0.10267848 0.033814773 -0.009801375 -0.0717478 0.2874788 0.13894106 -0.08511423 -0.16504563 0.010425998 0.25000715 -0.16106531 0.03419697 0.02174044 0.13930357 -0.05330716 0.24351455 -0.21595427 0.28562966 0.12015764 0.14349782 0.13394435 -0.015682982 0.19605233 0.19441368 0.041823164 -0.36772892 -0.043481097 0.3788265 -0.05142862 -0.2852947 0.21740331 -0.051188264 0.2212917 -0.01739789 0.08767374 0.14569026 0.16118664 0.23634055
假币 -0.07546053 0.053592052 0.031931885 0.03867463 0.047464762 -0.08176271 0.16733278 0.054477323 0.034435518 -0.060541227 0.08945785 0.065572776 -0.07757522 0.1285741 -0.15918753 -0.12541868 0.12091592 0.01805799 0.023928193 -0.06370092 -0.0948425 0.1767574 0.08865939 -0.0012614316 -0.14848848 -0.13337366 -0.07853684 0.026525734 -0.0063151577 -0.049799122 0.20750931 0.10587787 -0.05912219 -0.111483 0.016439168 0.18825795 -0.112224415 0.01931052 0.008898116 0.09345437 -0.039475277 0.1733507 -0.16101322 0.21750572 0.09431625 0.095218316 0.10039795 -0.012595194 0.14404988 0.14860903 0.032776088 -0.26671326 -0.034922797 0.28590345 -0.039013393 -0.21518698 0.14902377 -0.04769798 0.16607125 -0.008663001 0.06051405 0.10991783 0.11287682 0.17786697
持有 -0.073290996 0.06547133 0.018589191 0.048129395 0.05096838 -0.081268616 0.16799824 0.052245557 0.019788364 -0.07159598 0.09082616 0.058939293 -0.0676202 0.12895 -0.15567891 -0.12358476 0.10749429 0.018578589 0.014322564 -0.06967981 -0.09311502 0.17203349 0.09518395 -0.0049825152 -0.14443849 -0.12885205 -0.07973037 0.025580654 -0.014404316 -0.04896285 0.20975459 0.10367903 -0.05199275 -0.11371543 0.0057190713 0.17974934 -0.11090194 0.021227242 0.0063395035 0.10048334 -0.030132847 0.18291557 -0.14922836 0.20956188 0.099072985 0.10448059 0.09983474 -0.014320559 0.13781562 0.14299658 0.018954214 -0.25742406 -0.02944104 0.2754109 -0.036489855 -0.21322973 0.16039631 -0.04279413 0.16458778 -0.015009011 0.064434625 0.10776005 0.116222344 0.1737288
聚众斗殴 -0.068462946 0.06334346 0.026242921 0.047029924 0.044769593 -0.08463703 0.15683192 0.053832144 0.02876877 -0.06382617 0.089061 0.05064596 -0.076761745 0.12274837 -0.15084387 -0.12758946 0.1140233 0.01208178 0.025747929 -0.06638932 -0.09338852 0.17411533 0.0811354 0.0025155277 -0.14666869 -0.12436378 -0.08053647 0.015621699 0.00018730073 -0.051634513 0.20069766 0.100475065 -0.060523797 -0.11192947 0.005127253 0.17835228 -0.10104738 0.022409549 0.01139559 0.09834312 -0.033916038 0.18013985 -0.15498194 0.20432043 0.0953703 0.10387484 0.089929506 -0.0113573335 0.13255459 0.14173241 0.030863281 -0.26051086 -0.027383415 0.2661113 -0.035821307 -0.20912948 0.15162931 -0.03536184 0.15530238 -0.01934358 0.058966927 0.09530894 0.11740318 0.16888419
徇私舞弊 -0.10849345 0.08645951 0.031552866 0.058675967 0.06091306 -0.111672185 0.24105623 0.072583206 0.03768025 -0.08658737 0.13146849 0.078624845 -0.10009453 0.19307023 -0.22280173 -0.17673856 0.15886623 0.020283561 0.03494271 -0.09950819 -0.14248365 0.24791844 0.12834835 -0.009335864 -0.21361187 -0.17370155 -0.10524157 0.02864848 -0.0067873807 -0.080379516 0.28192076 0.14898336 -0.0854703 -0.15575276 0.0072449283 0.24952365 -0.15464073 0.032702107 0.015370053 0.13994503 -0.05118908 0.24770613 -0.2179941 0.29664287 0.13312867 0.14493982 0.1226845 -0.014028253 0.19400342 0.20507537 0.046245694 -0.3680857 -0.042459156 0.39111584 -0.055925407 -0.29145738 0.21096471 -0.05755418 0.22194543 -0.024888735 0.0787803 0.14128126 0.15711895 0.2459938
哪种 -0.10737708 0.0878887 0.029246379 0.05605617 0.051056992 -0.099339776 0.22904742 0.074736014 0.039856635 -0.093408346 0.13148087 0.08418105 -0.09224851 0.18523489 -0.21365455 -0.18047631 0.16371565 0.029430564 0.016174467 -0.09442235 -0.13774869 0.2401841 0.11608757 -0.0033399472 -0.20646903 -0.1752492 -0.112602614 0.035066877 -0.010472048 -0.067218535 0.28099415 0.14895758 -0.07492109 -0.15843727 0.016071511 0.25039512 -0.15264927 0.030970767 0.020428305 0.13587183 -0.05055392 0.2449026 -0.21093002 0.27965695 0.1277784 0.13935684 0.1234573 -0.011882081 0.19156435 0.1988251 0.04779402 -0.35568494 -0.04862185 0.3838016 -0.051295508 -0.273458 0.21531628 -0.0567384 0.20809723 -0.007344701 0.08754033 0.14637554 0.16233157 0.23060226
对应 -0.10965467 0.07724446 0.03658144 0.07459165 0.069416255 -0.11879713 0.24531178 0.069332644 0.03927058 -0.09895596 0.14285187 0.07945499 -0.105312325 0.20353778 -0.23148447 -0.18746538 0.17326842 0.02843516 0.02757401 -0.09430772 -0.14560547 0.2621042 0.119887486 0.00015768831 -0.21484987 -0.18593399 -0.12025051 0.020314392 -0.009982464 -0.08414287 0.2983488 0.1572502 -0.090514116 -0.16441022 0.0083064325 0.26474494 -0.16416907 0.024220008 0.009914072 0.14000763 -0.045560256 0.2609073 -0.22950351 0.30898136 0.13979472 0.15071173 0.13156809 -0.007265934 0.20652688 0.20793088 0.032035995 -0.37312755 -0.04034009 0.40505373 -0.05340133 -0.3097337 0.21718527 -0.06676543 0.22571476 -0.021954017 0.08695281 0.15246248 0.16731271 0.24757504
骗 -0.12484764 0.08604697 0.04059113 0.07635209 0.07439188 -0.13037816 0.2579815 0.08558565 0.04246682 -0.099990994 0.13567026 0.08978784 -0.11832463 0.21307413 -0.24156596 -0.19254605 0.16800864 0.02542921 0.038943503 -0.104427956 -0.15325436 0.27132618 0.12421901 0.0020792703 -0.23446196 -0.19653523 -0.1137567 0.022093238 -0.010333262 -0.08861357 0.3203482 0.15818474 -0.08752766 -0.18570547 0.015782718 0.26338634 -0.16556844 0.03600533 0.023753885 0.15095198 -0.05441774 0.26488093 -0.24718791 0.31844002 0.14913428 0.14345233 0.13693216 -0.0056662587 0.20499666 0.21889307 0.038056675 -0.39681512 -0.046372544 0.42213762 -0.06935926 -0.3096189 0.23299351 -0.05445925 0.23937924 -0.026455369 0.08705296 0.1544868 0.16868511 0.25372854
想 -0.120324984 0.09638669 0.04233905 0.069843434 0.06261426 -0.12224097 0.27109602 0.08617441 0.042590406 -0.10598697 0.13768569 0.09943549 -0.11478121 0.2054221 -0.24605756 -0.20650034 0.18181676 0.025267268 0.027119162 -0.112313226 -0.16005614 0.2730275 0.14303268 -0.0043076887 -0.23152125 -0.20511347 -0.12387848 0.026286103 -0.004450482 -0.078508876 0.31702662 0.17562118 -0.0949107 -0.1891561 0.011474804 0.27910432 -0.16770732 0.042327687 0.0065133455 0.15172409 -0.046494644 0.28540972 -0.2518876 0.33017635 0.15687898 0.15561324 0.15162736 -0.008322859 0.22987077 0.22252908 0.038590536 -0.4175227 -0.05378803 0.44154486 -0.05869257 -0.32604247 0.25200936 -0.057733417 0.24390227 -0.02324384 0.094007276 0.17160597 0.17906106 0.2645877
提供 -0.0992528 0.08560752 0.029593604 0.066187136 0.060848266 -0.10578655 0.23399444 0.0715656 0.038596928 -0.08874431 0.120068714 0.08532782 -0.10609111 0.19223617 -0.2132551 -0.1689915 0.15910828 0.01709169 0.030796513 -0.09727009 -0.13543843 0.25288188 0.120201014 -0.0068683433 -0.20482105 -0.17350872 -0.113587976 0.02408134 -0.0053796507 -0.08490958 0.2768267 0.15024546 -0.076526955 -0.16892135 0.018511588 0.23600139 -0.15840599 0.02944343 0.011336054 0.13264145 -0.042963892 0.2477008 -0.21735382 0.29171333 0.12087453 0.13770263 0.1318848 -0.010717675 0.19802187 0.2031929 0.035155628 -0.36587223 -0.038891237 0.39016926 -0.062050253 -0.28547743 0.2070672 -0.063122116 0.21267056 -0.01784624 0.08578397 0.1378002 0.1593354 0.24116439
是否 -0.14939827 0.11948963 0.05359009 0.09612325 0.07687393 -0.1517494 0.32268232 0.09964693 0.053046834 -0.12969501 0.1768025 0.115125075 -0.13785395 0.24787533 -0.2909649 -0.24703236 0.22454244 0.039458472 0.042198583 -0.12082438 -0.18982507 0.34320268 0.1686282 -0.0089198435 -0.27882192 -0.23530564 -0.144883 0.029480955 -0.011681876 -0.09909639 0.3955788 0.20195648 -0.11929591 -0.22026905 0.016389119 0.33491054 -0.20943962 0.039245144 0.018596273 0.17248726 -0.069365166 0.34617907 -0.29494706 0.38839757 0.17703664 0.18285449 0.1721391 -0.013858679 0.26106355 0.27058834 0.05473314 -0.48815885 -0.06344609 0.53085315 -0.07641492 -0.39196807 0.29784694 -0.07776856 0.29716375 -0.020783022 0.11618529 0.19977166 0.22380818 0.33125457
公司 -0.14881566 0.10943896 0.05555743 0.09291577 0.087102585 -0.15168223 0.31877363 0.10170539 0.05393164 -0.12816836 0.16387707 0.10039196 -0.13168555 0.24799635 -0.28593042 -0.24064714 0.21865942 0.03284865 0.04113267 -0.12107111 -0.17515329 0.34148753 0.1593015 -0.010889947 -0.26974276 -0.23593038 -0.14919406 0.02698621 -0.008603707 -0.09929438 0.38938236 0.18990402 -0.11582027 -0.22047435 0.026825193 0.33297977 -0.204255 0.029285792 0.014795107 0.18414837 -0.064419284 0.33794597 -0.2874039 0.390301 0.17293221 0.19174244 0.16734132 -0.017211195 0.26006377 0.2786032 0.05203913 -0.4858863 -0.064427495 0.5174235 -0.087292366 -0.39402887 0.28564385 -0.07699771 0.29144737 -0.021975184 0.1081908 0.19947644 0.21835764 0.3287803
虚假 -0.09135487 0.06959674 0.027261103 0.04581498 0.053984668 -0.08932067 0.18971565 0.06507011 0.03297753 -0.07348463 0.10601094 0.06451517 -0.08608959 0.16231781 -0.17568776 -0.15162063 0.12969463 0.023402868 0.017710673 -0.077909246 -0.113765 0.20055336 0.09627269 -0.00056069356 -0.1659052 -0.14245668 -0.09745562 0.027048957 -0.008053199 -0.06877046 0.2464064 0.11900059 -0.06902741 -0.14035165 0.00768632 0.21030657 -0.12367756 0.019727228 0.016637638 0.10381308 -0.045616817 0.20106556 -0.1913244 0.24107327 0.10733955 0.117383085 0.10585384 -0.015215146 0.1653217 0.16855061 0.038614932 -0.30343786 -0.030462824 0.3262831 -0.044501703 -0.24723855 0.17938423 -0.05098834 0.18553236 -0.0144888265 0.06790585 0.12726803 0.13451102 0.20749754
致人 -0.09422565 0.07125416 0.03040317 0.069547564 0.06690947 -0.114515886 0.21748216 0.06563676 0.038475905 -0.0852599 0.12336096 0.085632585 -0.10134614 0.17769438 -0.20033589 -0.16471657 0.1536687 0.017094672 0.028044743 -0.08818365 -0.12719159 0.2423129 0.10681644 0.0012416951 -0.18826279 -0.16620335 -0.10752409 0.020692728 -0.011043428 -0.07296722 0.27239877 0.14703012 -0.07615979 -0.15881887 0.009267361 0.23483577 -0.15230988 0.018377682 0.02273413 0.123924285 -0.05335411 0.23690486 -0.20324466 0.2828517 0.11883308 0.1334831 0.11757632 -0.019386059 0.17630471 0.18940951 0.040010743 -0.34743974 -0.04129565 0.37117785 -0.0628222 -0.27690434 0.19896312 -0.05559828 0.20096484 -0.020116765 0.07916318 0.13172758 0.15550748 0.22241198
条文 -0.054196652 0.040567476 0.022275954 0.03906489 0.024431698 -0.0648624 0.11544352 0.041624293 0.014862534 -0.05248664 0.05779428 0.032585666 -0.046908718 0.10277209 -0.11732607 -0.094182715 0.08296869 0.0151020745 0.018206526 -0.04166044 -0.0721666 0.12286818 0.061908927 0.0029583375 -0.100335725 -0.088256285 -0.06400449 0.015101242 -0.008475805 -0.0470736 0.15496182 0.08205105 -0.04263976 -0.08493005 -0.00090892566 0.13505875 -0.07190634 0.019718068 -0.00039531058 0.060333174 -0.025190022 0.12660111 -0.11768746 0.15620066 0.06337021 0.06758407 0.07334656 -0.01310324 0.10640226 0.10210942 0.018378394 -0.19076987 -0.02772467 0.20776457 -0.03739019 -0.15335153 0.117352165 -0.033588775 0.11425189 -0.0070502413 0.04291644 0.07489074 0.08508605 0.13026167
要 -0.13713682 0.107244246 0.0435023 0.081555344 0.07209216 -0.12832426 0.28481343 0.08423919 0.047792774 -0.10598503 0.15282097 0.09706366 -0.12491216 0.2227557 -0.2566677 -0.22086596 0.1967218 0.033253815 0.037571907 -0.112057574 -0.16328914 0.30587614 0.1450034 -7.1404975e-05 -0.250002 -0.21122426 -0.13735461 0.03656247 -0.008932871 -0.09011244 0.35263205 0.18498705 -0.1035881 -0.2038717 0.011976044 0.2949331 -0.19305481 0.025130272 0.01890295 0.1611689 -0.05927607 0.30748934 -0.263814 0.34916914 0.16176493 0.17117745 0.15928516 -0.02045214 0.2368757 0.24759172 0.05120079 -0.44127196 -0.04690693 0.46462783 -0.07356581 -0.3490557 0.25647593 -0.07105183 0.26211935 -0.021568354 0.10520863 0.18227203 0.19118157 0.29386625
运输 -0.1098707 0.083426505 0.032830574 0.05863605 0.05871121 -0.10601436 0.22220162 0.079627216 0.044107385 -0.08298293 0.122371085 0.0730049 -0.10248181 0.18602206 -0.19974911 -0.1640786 0.15403561 0.023384882 0.02262126 -0.08439675 -0.12761153 0.23306908 0.11548793 -0.010585441 -0.18966454 -0.16712429 -0.10375741 0.029912094 -0.011080925 -0.068076715 0.2812646 0.13773197 -0.074452 -0.16246799 0.014049823 0.24056903 -0.15591432 0.021329716 0.023376923 0.12993018 -0.040375873 0.23546329 -0.20939972 0.28455698 0.12454477 0.14009368 0.12325439 -0.016656686 0.1946197 0.19783595 0.029354569 -0.34966114 -0.040662497 0.37456787 -0.060435057 -0.27861235 0.20089175 -0.052081797 0.21442711 -0.013716441 0.08837192 0.1415003 0.15060675 0.2254669
多长时间 -0.11621009 0.09979669 0.049194075 0.07109384 0.06360805 -0.13155815 0.2709021 0.08213625 0.035729878 -0.10925756 0.13970627 0.09812408 -0.110656954 0.21488135 -0.2456622 -0.19936995 0.18096851 0.031214695 0.027554475 -0.10702928 -0.15358216 0.28371054 0.13086371 -0.010219734 -0.23049086 -0.2093488 -0.12154417 0.022670228 -0.013840726 -0.09360835 0.32114422 0.16309685 -0.099784486 -0.18931346 0.018623184 0.2717392 -0.170338 0.033395708 0.009167527 0.15675035 -0.061967976 0.28780448 -0.24590558 0.33508363 0.14969155 0.15916722 0.14087488 -0.02172472 0.21628764 0.23007062 0.04180629 -0.4054705 -0.047639962 0.44153482 -0.065352164 -0.33135504 0.23520784 -0.06527565 0.24034068 -0.015679002 0.09953288 0.17266089 0.18374042 0.26988086
法律依据 -0.08291262 0.0588349 0.023898117 0.053039074 0.047146674 -0.08398757 0.17785533 0.061939742 0.026026968 -0.07016666 0.09109597 0.05831821 -0.07503817 0.1466858 -0.16067952 -0.14089982 0.115956105 0.019309074 0.02043126 -0.06858799 -0.10095722 0.18102853 0.093757875 -0.010402413 -0.15664157 -0.1433164 -0.08939424 0.013141071 -0.001862886 -0.064411454 0.219545 0.11949014 -0.0666875 -0.12154156 0.003952765 0.19202489 -0.11488188 0.02241111 0.008299216 0.093509056 -0.042151757 0.18545997 -0.16934997 0.22599804 0.090908684 0.101645425 0.10359359 -0.006963223 0.14276446 0.14544104 0.036629662 -0.27316383 -0.031254616 0.2929329 -0.037986204 -0.21264167 0.17082645 -0.045398284 0.1695424 -0.008490947 0.067724615 0.10590228 0.12679373 0.17719883
肇事罪 -0.07038246 0.062065348 0.029442437 0.051762637 0.034003794 -0.07587786 0.16296926 0.052873276 0.024440577 -0.058260735 0.08494663 0.04639042 -0.06633596 0.13307847 -0.14318545 -0.12864041 0.100434974 0.0123522915 0.013073149 -0.059103 -0.094676554 0.17509183 0.082767025 -0.0053612264 -0.1396057 -0.11340355 -0.07546461 0.019857794 -0.007095904 -0.04952173 0.19253655 0.1006529 -0.0503432 -0.108537585 0.002189876 0.16980462 -0.09759609 0.017045606 0.015105096 0.08851964 -0.03601089 0.16447459 -0.1409877 0.19291493 0.09235562 0.089778915 0.08511646 -0.016146522 0.13035537 0.14252861 0.032395754 -0.25239587 -0.025205683 0.26111773 -0.0489902 -0.20231056 0.14211181 -0.0398028 0.14569613 -0.007054075 0.061508548 0.102608405 0.10420984 0.16680849
追究 -0.07568087 0.064618014 0.028418826 0.04085393 0.047985572 -0.07988291 0.1549959 0.051696993 0.03375088 -0.07238373 0.09502841 0.057716366 -0.067891695 0.13431136 -0.1518855 -0.1322219 0.104148656 0.01940375 0.021926446 -0.06434253 -0.090670116 0.17908452 0.078874834 -0.0054646353 -0.13885741 -0.11600113 -0.07470552 0.010705276 -0.0077668466 -0.05166573 0.19833815 0.095927626 -0.059926268 -0.11178075 0.0055532 0.17873038 -0.10681377 0.0117299445 0.00756303 0.095561445 -0.04115906 0.18243548 -0.16004926 0.20200875 0.09806679 0.09987451 0.08327565 -0.0009216185 0.13131724 0.14431769 0.031085819 -0.25165573 -0.03591037 0.27428517 -0.04179728 -0.20624076 0.14421634 -0.029403675 0.15078695 -0.01952026 0.052790754 0.10990886 0.110022105 0.17255731
怎么办 -0.10892495 0.08082506 0.046091404 0.07610277 0.05932018 -0.11216674 0.254094 0.07352701 0.041908007 -0.094628565 0.13013117 0.0814485 -0.10288152 0.19935738 -0.23616289 -0.18486834 0.17632835 0.023697978 0.03582524 -0.10458274 -0.13969795 0.26305798 0.1276627 -0.0017187684 -0.2183273 -0.18310641 -0.107948594 0.021904455 -0.007186653 -0.07814246 0.30033848 0.16216183 -0.08445239 -0.17146541 0.017926324 0.2589794 -0.17084526 0.033410884 0.010440812 0.14455879 -0.048998035 0.25950813 -0.23869194 0.30814224 0.14097764 0.1402371 0.13944547 -0.012245276 0.2048311 0.21218653 0.03649839 -0.38833117 -0.044610422 0.41343603 -0.0580181 -0.3069225 0.22200082 -0.052124143 0.238043 -0.024635436 0.08875318 0.15008703 0.16361442 0.2503119
物质 -0.06462809 0.054344844 0.013510966 0.04082592 0.025362622 -0.05544955 0.13692753 0.0461384 0.022437107 -0.044934954 0.067962535 0.04968091 -0.04945888 0.096387126 -0.12008 -0.1046543 0.0919447 0.005084303 0.0106436005 -0.059501298 -0.07312662 0.13316394 0.06607904 -0.006268207 -0.111302786 -0.10702956 -0.055231854 0.009955863 -0.0045701764 -0.035045154 0.16987026 0.08900318 -0.041605998 -0.09885142 -0.000548004 0.14031708 -0.08699434 0.018170109 0.005726534 0.081947476 -0.032178532 0.13694052 -0.112947285 0.15537754 0.073028654 0.08092466 0.07859109 -0.011251915 0.11313823 0.1066835 0.030273592 -0.19370483 -0.014594352 0.21637413 -0.03887158 -0.16541952 0.116667606 -0.023450758 0.12676919 -0.008196805 0.053206246 0.086645536 0.09664769 0.124860995
财产 -0.11660145 0.09440931 0.05006419 0.07935956 0.059501104 -0.12274081 0.26184028 0.07671098 0.034993082 -0.10248324 0.14180337 0.08091416 -0.11298933 0.20541742 -0.24252346 -0.2015867 0.1717102 0.020290192 0.029456357 -0.09976827 -0.15572993 0.28095746 0.1281999 -0.0011826014 -0.227366 -0.1951197 -0.117252365 0.03555815 -0.0055499924 -0.08596553 0.31624848 0.16570373 -0.084065266 -0.18667126 0.019063829 0.27210593 -0.16212799 0.027122142 0.017095137 0.15446493 -0.051258177 0.28109697 -0.24153233 0.32659188 0.14172645 0.14665698 0.1499785 -0.016453853 0.21843073 0.22037518 0.038133983 -0.39748532 -0.04305892 0.42539144 -0.064604394 -0.32510975 0.2342393 -0.061925776 0.23330918 -0.027276533 0.10354502 0.16450581 0.17292647 0.27071294
后 -0.14086913 0.10586679 0.04044805 0.076060034 0.080561936 -0.13933875 0.293264 0.08410025 0.050334092 -0.117774084 0.15806027 0.09142979 -0.12327018 0.22443241 -0.27074948 -0.21219245 0.19573098 0.033923313 0.031242937 -0.121192314 -0.1733262 0.31471673 0.14789641 -0.010380985 -0.2502547 -0.22067249 -0.13286814 0.026035393 -0.0064221625 -0.0930283 0.35313597 0.1770131 -0.10486537 -0.19771467 0.018265039 0.29550403 -0.19591215 0.03686701 0.023896273 0.15683772 -0.05223465 0.3134037 -0.27239546 0.3514672 0.1592445 0.16363119 0.15936776 -0.019089414 0.23912771 0.25577185 0.03941684 -0.44330153 -0.053758625 0.48214826 -0.07554636 -0.3557863 0.26587874 -0.07028997 0.26653525 -0.019708173 0.107342474 0.18097062 0.2044133 0.29693082
钱 -0.12768784 0.09708291 0.05008562 0.06919509 0.067116395 -0.13187656 0.2597326 0.08569512 0.03984955 -0.105496354 0.13903137 0.089153536 -0.12006747 0.2090794 -0.25028932 -0.20816804 0.17588224 0.03596911 0.03603385 -0.11267774 -0.15175451 0.28086543 0.14182775 -0.0071048522 -0.22959754 -0.19528133 -0.11860792 0.026598375 -0.0104483925 -0.08293215 0.31675813 0.16950972 -0.09670557 -0.18600085 0.023093278 0.2766961 -0.17599103 0.0337663 0.02230321 0.14736874 -0.049954932 0.2796832 -0.2413745 0.33525994 0.14624116 0.15972245 0.15515845 -0.0114255985 0.223166 0.23099475 0.03748973 -0.40587005 -0.05515961 0.44540635 -0.062421724 -0.32247484 0.23724641 -0.055829637 0.24522115 -0.027598621 0.09308789 0.16925655 0.17908165 0.26493263
人 -0.13810204 0.11107753 0.05458882 0.075071335 0.08083376 -0.13538635 0.29579046 0.099323615 0.053000387 -0.11777903 0.16153951 0.097701855 -0.12368212 0.24073714 -0.2651903 -0.22517808 0.20192339 0.034387212 0.03471917 -0.110093825 -0.16101778 0.3152871 0.15138936 0.0011068032 -0.25044888 -0.2177122 -0.13415642 0.029518876 -0.011996156 -0.08783003 0.36411333 0.17985131 -0.10435012 -0.1971334 0.01994149 0.3120089 -0.1836838 0.026414346 0.02058775 0.15761793 -0.0572439 0.30256096 -0.2787241 0.35379884 0.16273734 0.17921461 0.15690672 -0.02178605 0.24249925 0.25571156 0.043710053 -0.45471713 -0.050163154 0.48769927 -0.06835617 -0.36249977 0.27212524 -0.06591428 0.27888775 -0.022466408 0.11122218 0.18738265 0.19420247 0.29345325
文物 -0.061218288 0.05353577 0.02763781 0.0370567 0.042625435 -0.06160826 0.14260325 0.048955146 0.016732836 -0.049214453 0.08164989 0.046289686 -0.05820389 0.104650356 -0.11883838 -0.104491085 0.090010986 0.014106004 0.02178151 -0.055043023 -0.078527026 0.14247341 0.067133404 0.0032897145 -0.11468803 -0.10516334 -0.058100414 0.023225538 -0.0029532684 -0.041255735 0.1625571 0.08570875 -0.04534407 -0.102392316 0.008306212 0.14083377 -0.09334197 0.022163214 0.014023978 0.08491101 -0.024858246 0.14197591 -0.13204767 0.17277795 0.07407814 0.07929277 0.082176045 -0.0010334625 0.11621589 0.116901554 0.014576643 -0.21468587 -0.02874137 0.23163158 -0.036332954 -0.17586084 0.12438125 -0.024729565 0.124816015 -0.018049778 0.04866765 0.08948993 0.09849743 0.144231
