2299 64
罪 0.64336544 0.20376627 -1.0241569 0.5898001 0.40425828 0.4148464 -0.76276094 -0.2562387 -0.6688883 -0.42266032 0.3626488 0.6400687 -0.11843655 -0.07486933 0.45042223 0.8012982 0.41140532 -0.7532158 -1.0158987 -0.16325848 -0.2506537 -0.088871434 -0.7959729 -0.46523073 -0.077746645 0.16687365 -0.78360873 0.831911 -0.53689104 0.8196496 0.36670482 -0.15485518 0.058825288 -0.17540105 0.19139749 0.5358213 0.2358247 0.5500985 0.07789822 0.30295193 0.35571837 -0.6343542 0.6033865 0.096968144 -0.15378067 -0.04020445 -0.06937351 -0.14037204 0.27357417 -0.45725778 0.57325333 0.82715285 0.24017525 -0.6539101 -0.5188159 -0.75693727 -0.45624396 0.321508 -0.09808352 -0.30183315 -0.717821 -0.28154787 -0.091558404 0.5181181
的 0.58381444 0.1846217 -0.9137197 0.5273398 0.3732206 0.35752293 -0.68175817 -0.23044224 -0.5994318 -0.37013552 0.32048368 0.581637 -0.117114745 -0.08006906 0.4024246 0.72735196 0.35475594 -0.66741157 -0.9125182 -0.15275511 -0.24272683 -0.06846544 -0.71298486 -0.41269433 -0.08128395 0.13548717 -0.7077627 0.7390908 -0.49004737 0.7270404 0.33541706 -0.14035973 0.040360745 -0.15356763 0.17526981 0.47744966 0.20477378 0.48502046 0.061382625 0.27773467 0.3337587 -0.57206994 0.52741766 0.09573875 -0.13692366 -0.03147044 -0.06641496 -0.121252455 0.25026283 -0.41304934 0.5143529 0.75062287 0.21423207 -0.5799804 -0.46350718 -0.666388 -0.39763784 0.29508004 -0.0886639 -0.27193058 -0.6447027 -0.25489268 -0.07410001 0.47500628
是 0.45789278 0.1527309 -0.72555584 0.42744607 0.30128327 0.28318265 -0.53965986 -0.17353816 -0.47160432 -0.299096 0.2610015 0.4544717 -0.084156774 -0.055843998 0.3218517 0.57159036 0.2963913 -0.53955793 -0.7300537 -0.11369236 -0.19364426 -0.056733657 -0.5675019 -0.32624635 -0.052711785 0.109749295 -0.55966175 0.59723306 -0.38496256 0.5819939 0.27218753 -0.11304122 0.034347158 -0.115003526 0.13728338 0.39400968 0.1746231 0.3821813 0.04676156 0.21742363 0.2663649 -0.45667973 0.42664468 0.07272185 -0.10996179 -0.03519648 -0.054249853 -0.10427008 0.2043863 -0.33380947 0.4115447 0.595446 0.16810828 -0.47546118 -0.3563605 -0.5297025 -0.3313279 0.2373403 -0.0639565 -0.2208108 -0.5049038 -0.19305007 -0.05889824 0.3685822
什么 0.5126669 0.15821025 -0.81579 0.46948582 0.33055538 0.3201776 -0.5932861 -0.2044419 -0.5292304 -0.34131816 0.2830312 0.51484674 -0.10304958 -0.071652725 0.35727704 0.6368191 0.3147896 -0.59937245 -0.8058386 -0.1435488 -0.20171922 -0.06874381 -0.63664 -0.35373384 -0.075656824 0.1228355 -0.62033653 0.65984774 -0.42832237 0.6316345 0.2946241 -0.11869083 0.030679489 -0.123121925 0.15556394 0.42639816 0.18995415 0.43674397 0.05511103 0.24947742 0.29491752 -0.50251234 0.4763532 0.08025929 -0.12817298 -0.018160133 -0.062049605 -0.10136319 0.23215796 -0.37488347 0.44169575 0.66027075 0.18507922 -0.52352375 -0.40078008 -0.59564334 -0.35493657 0.26272872 -0.08759455 -0.22771153 -0.56815803 -0.23013946 -0.07520337 0.4171755
怎么 0.5408433 0.1744724 -0.87973994 0.49920845 0.34986928 0.35639024 -0.64602363 -0.21806227 -0.5666795 -0.36080825 0.30770245 0.5399883 -0.10768112 -0.06341957 0.38870993 0.6949896 0.3430659 -0.6492958 -0.8666226 -0.14505792 -0.22780408 -0.07165563 -0.6798408 -0.3873696 -0.08005277 0.12984757 -0.680795 0.71998507 -0.464476 0.7040566 0.31110692 -0.1223578 0.041805897 -0.14353627 0.14956735 0.44814783 0.19599803 0.46197414 0.06448803 0.25938392 0.30775577 -0.54640263 0.51165384 0.07927558 -0.13208675 -0.036577784 -0.05367903 -0.12193216 0.24370483 -0.4011724 0.49073145 0.7032235 0.19730972 -0.5614666 -0.43310294 -0.65154743 -0.39240333 0.28086078 -0.093732186 -0.2444676 -0.6081185 -0.2483778 -0.07602495 0.45488232
吗 0.7279137 0.22476983 -1.1573457 0.66611105 0.4612954 0.4685254 -0.86966604 -0.28277266 -0.7592205 -0.4651885 0.40429536 0.7237778 -0.13104607 -0.09652439 0.4977414 0.92286783 0.46748266 -0.85220045 -1.1452892 -0.1945677 -0.29668412 -0.10474454 -0.9132074 -0.52790356 -0.11131685 0.1747538 -0.89693344 0.94514155 -0.6148231 0.92955047 0.43190718 -0.16502587 0.04990794 -0.18808454 0.22068158 0.6053193 0.2600211 0.61567974 0.09309489 0.34184083 0.41244546 -0.7240449 0.6850074 0.12719928 -0.1796144 -0.035625186 -0.072132796 -0.15519504 0.33550313 -0.51284003 0.6536246 0.94195616 0.26939842 -0.75161296 -0.5896557 -0.8496847 -0.51419795 0.36574924 -0.113829 -0.34516877 -0.81870115 -0.31638962 -0.08927261 0.5975663
标准 0.33101016 0.09762862 -0.53204644 0.3002008 0.2137019 0.22032674 -0.3943103 -0.12587307 -0.34783477 -0.22689073 0.18290275 0.33616486 -0.057706147 -0.04981263 0.2467375 0.41518784 0.21985832 -0.39351583 -0.5391065 -0.08699205 -0.14281973 -0.038617212 -0.4193384 -0.24456221 -0.04432753 0.08527619 -0.42086583 0.43854845 -0.28570154 0.44052324 0.20498963 -0.08670924 0.034953516 -0.08849432 0.09868085 0.28904808 0.115637556 0.29066882 0.045089494 0.15763558 0.18297158 -0.33391976 0.3223522 0.05938211 -0.0796214 -0.023611804 -0.0433127 -0.076611504 0.14345163 -0.24566357 0.30867654 0.44315523 0.11261251 -0.3455742 -0.2785531 -0.40472624 -0.24237505 0.18022959 -0.059768375 -0.15982448 -0.3855195 -0.15138525 -0.047396358 0.26467454
一下 0.61283106 0.16633905 -0.97388816 0.55775046 0.37674302 0.37896174 -0.72290665 -0.24714333 -0.6217338 -0.39936835 0.31619614 0.6161295 -0.1006849 -0.08168997 0.4065739 0.7747376 0.38332644 -0.69406384 -0.9477312 -0.1555324 -0.22710498 -0.07852661 -0.75793463 -0.43662128 -0.09533944 0.15207809 -0.7422636 0.77285093 -0.5168109 0.752964 0.38137618 -0.12838097 0.030844402 -0.16687018 0.18978842 0.50184935 0.22644825 0.5122536 0.08213075 0.2915602 0.36609602 -0.6032409 0.5596459 0.09036623 -0.17019789 -0.013185121 -0.083930746 -0.1191924 0.2697218 -0.41697195 0.5371334 0.76135266 0.22477965 -0.60894465 -0.4849996 -0.7026547 -0.3934695 0.28764457 -0.11409541 -0.29127246 -0.672657 -0.2715457 -0.08660581 0.5164177
量刑 0.35778725 0.118548684 -0.5671919 0.31984764 0.2279292 0.22775261 -0.40961713 -0.12856446 -0.37070936 -0.22492723 0.19701031 0.35346627 -0.067912824 -0.05377875 0.24020968 0.44437993 0.23229 -0.4062257 -0.5556133 -0.08104399 -0.13617341 -0.045657028 -0.4428638 -0.26148948 -0.050348558 0.095361 -0.43667 0.4555475 -0.30351368 0.44795388 0.20379604 -0.08100663 0.032792572 -0.09863036 0.09750428 0.29685274 0.13119347 0.30610055 0.043157272 0.17642753 0.20075406 -0.34050915 0.32648167 0.04897639 -0.08356259 -0.018389557 -0.03278934 -0.0815335 0.15809198 -0.25893658 0.3118878 0.456267 0.13039972 -0.35491213 -0.2856612 -0.40548193 -0.2574576 0.16731223 -0.06412206 -0.1681096 -0.39906844 -0.1617924 -0.055288795 0.27552348
既 0.3357664 0.11657276 -0.55292976 0.32743797 0.21106137 0.20950454 -0.41373602 -0.12360117 -0.35854906 -0.22719382 0.20440158 0.33484638 -0.08120038 -0.04310532 0.2589134 0.4363682 0.22876337 -0.4034127 -0.5379925 -0.07848191 -0.1496813 -0.051435255 -0.44027683 -0.25141218 -0.050661832 0.08397067 -0.41979736 0.4632589 -0.30389002 0.44784677 0.20144299 -0.074528806 0.04586823 -0.102393076 0.08698502 0.29500532 0.12060102 0.28454196 0.037737444 0.17503482 0.2046256 -0.3332441 0.32683998 0.04624256 -0.091672964 -0.028476005 -0.039730087 -0.08121118 0.13705389 -0.25309682 0.31688455 0.46440426 0.13316858 -0.35267264 -0.28293365 -0.41786 -0.24988885 0.17874782 -0.055851884 -0.15879874 -0.38466933 -0.1594172 -0.04173995 0.2687713
遂 0.2900609 0.09941097 -0.46662968 0.2682846 0.17729814 0.1887278 -0.35259804 -0.103641145 -0.3012479 -0.18089749 0.15858743 0.2789765 -0.06175699 -0.030408882 0.20763716 0.37062258 0.17831682 -0.33193427 -0.46358752 -0.06331439 -0.11212845 -0.035547588 -0.36641365 -0.19932784 -0.02904777 0.07786688 -0.35806495 0.38580078 -0.25134602 0.380704 0.15852654 -0.07552379 0.029330643 -0.086242646 0.07785174 0.23237546 0.09612196 0.24047995 0.022978853 0.1362456 0.15505305 -0.2783935 0.27029872 0.03942222 -0.057463095 -0.017700221 -0.028625477 -0.059833653 0.118289545 -0.21529043 0.26075214 0.37918144 0.10821692 -0.2930009 -0.23888868 -0.34979764 -0.21247737 0.13717149 -0.045679945 -0.13393264 -0.31249985 -0.11802864 -0.04344527 0.2234618
处罚 0.35314897 0.10979497 -0.56373405 0.32809183 0.22878021 0.21883677 -0.42766732 -0.14263603 -0.3707055 -0.23623691 0.19401687 0.35961676 -0.06705403 -0.046809603 0.25245172 0.4532456 0.23767337 -0.41077718 -0.5630256 -0.08839062 -0.14231697 -0.052568268 -0.44528806 -0.26402205 -0.053857606 0.09319008 -0.44775873 0.46934858 -0.3067373 0.46095416 0.20816742 -0.08631179 0.035248432 -0.0917546 0.102752864 0.30239624 0.13839507 0.30407014 0.038611148 0.17059056 0.1947534 -0.34988752 0.33191553 0.05122452 -0.08208181 -0.020289125 -0.04215577 -0.07020144 0.15289773 -0.2517986 0.3259965 0.46992436 0.12739319 -0.37279233 -0.28741205 -0.41906995 -0.25381023 0.16932836 -0.06536233 -0.1657028 -0.4037932 -0.1537089 -0.04496449 0.29184878
构成 0.44012734 0.1446058 -0.6887194 0.40279326 0.27176252 0.27979806 -0.5048157 -0.16504169 -0.46105787 -0.28201884 0.23902673 0.43554172 -0.08470355 -0.05333061 0.30775586 0.5495624 0.26844653 -0.51995635 -0.68946487 -0.12225299 -0.16829953 -0.0617849 -0.545784 -0.31723717 -0.064339384 0.114511654 -0.5322112 0.5577845 -0.36527303 0.5537075 0.25184074 -0.096393496 0.041159544 -0.10979445 0.12090477 0.36085737 0.1583398 0.3693165 0.049043786 0.20443392 0.25049582 -0.43771085 0.4041196 0.07373074 -0.111847825 -0.015596156 -0.047624495 -0.0875203 0.19581352 -0.31318954 0.39238268 0.57239085 0.16667019 -0.4456195 -0.34449583 -0.5049473 -0.3029222 0.21274269 -0.06793809 -0.20472254 -0.4879065 -0.18162401 -0.061477028 0.35429433
判刑 0.41327727 0.13102248 -0.6545701 0.36847147 0.2577345 0.24815434 -0.48881888 -0.15158492 -0.42073426 -0.2574664 0.22270136 0.3979185 -0.07125117 -0.06211825 0.28529307 0.51086193 0.25739333 -0.4748313 -0.63353664 -0.10392032 -0.15906237 -0.047459442 -0.51865536 -0.29772645 -0.0635016 0.10396566 -0.5056637 0.5325372 -0.35150555 0.52575696 0.2387966 -0.090346925 0.03855218 -0.102165096 0.108285286 0.34807765 0.14211968 0.35250637 0.043517485 0.19407229 0.23037085 -0.39843506 0.38121933 0.06888313 -0.10080473 -0.016476655 -0.048194278 -0.079377934 0.1817159 -0.284357 0.35878056 0.5359283 0.15095004 -0.42688242 -0.32233766 -0.47811455 -0.29312077 0.1943535 -0.0741173 -0.18429323 -0.45661503 -0.18005328 -0.047116626 0.3423484
非法 0.5705352 0.1749174 -0.9122423 0.52006876 0.3485781 0.37029624 -0.66513604 -0.22547585 -0.5969423 -0.36164403 0.3141266 0.5651891 -0.095587015 -0.08095202 0.38900143 0.7089529 0.3540597 -0.670295 -0.8984654 -0.14315055 -0.22387832 -0.06959251 -0.7141666 -0.4184442 -0.084434174 0.14070293 -0.7030207 0.73421705 -0.4767099 0.7194886 0.3334941 -0.12790127 0.048804786 -0.15342686 0.17537858 0.46109238 0.2025617 0.4799535 0.072244465 0.26510143 0.33121312 -0.56115174 0.522682 0.089816935 -0.13426577 -0.036717016 -0.064523034 -0.11154777 0.24583316 -0.39993867 0.507069 0.7333759 0.2196042 -0.57015765 -0.4569562 -0.6518787 -0.381168 0.28107747 -0.09413199 -0.26021996 -0.6372488 -0.25688693 -0.074001774 0.4744339
问 0.5073971 0.13949752 -0.79744714 0.46731886 0.30486527 0.31040448 -0.5966266 -0.20087157 -0.51905155 -0.34040022 0.25708404 0.5077059 -0.082699314 -0.049343187 0.33636054 0.6397589 0.30979866 -0.58121675 -0.7854252 -0.1234614 -0.20781286 -0.06063963 -0.61849 -0.37300456 -0.086338826 0.10848841 -0.60815734 0.65144324 -0.424547 0.6259518 0.31567562 -0.10381972 0.042206734 -0.12923609 0.14956596 0.41055682 0.18322752 0.41391256 0.050072998 0.24998961 0.2998433 -0.5075236 0.45331398 0.06974813 -0.13727348 -0.010170083 -0.06536092 -0.10198812 0.2315384 -0.35341868 0.45150098 0.62125176 0.200184 -0.51303107 -0.3994988 -0.56640255 -0.31763247 0.2479533 -0.097318254 -0.2435695 -0.5543051 -0.22575563 -0.07800161 0.42203447
如何 0.4441571 0.12884504 -0.6968633 0.40643936 0.27006057 0.27952778 -0.51535124 -0.1682561 -0.4639542 -0.2875236 0.23901626 0.43914798 -0.08215349 -0.06312319 0.3036446 0.5560517 0.28601325 -0.50935686 -0.6956088 -0.11562246 -0.1818574 -0.0551578 -0.5433981 -0.32285684 -0.06596361 0.11457458 -0.53240883 0.56925476 -0.37800667 0.5498701 0.26541328 -0.10060257 0.03231875 -0.108995706 0.13200162 0.36550817 0.16315052 0.37855297 0.046415877 0.20861244 0.2534006 -0.4300794 0.41272536 0.075404026 -0.10762444 -0.024242632 -0.046577137 -0.09065162 0.19050485 -0.3063125 0.3946611 0.57085264 0.16984555 -0.4414694 -0.3461807 -0.51877904 -0.30493242 0.21666056 -0.0735638 -0.19394848 -0.48124132 -0.1908502 -0.055173032 0.360249
哪些 0.46325755 0.14921236 -0.71602184 0.42537814 0.2998807 0.28369766 -0.5413635 -0.18787867 -0.47459793 -0.30055147 0.24776345 0.46061802 -0.09469846 -0.06374815 0.31279507 0.5820903 0.28132328 -0.54334724 -0.72177917 -0.11356769 -0.17794724 -0.057041153 -0.57075274 -0.32239997 -0.06345218 0.111825034 -0.56128293 0.59104747 -0.37484547 0.5725294 0.26214743 -0.10188854 0.03731674 -0.110686004 0.13155763 0.3790675 0.16801049 0.39415213 0.05158729 0.20894027 0.26100957 -0.44779804 0.43081242 0.07824669 -0.111386865 -0.018749593 -0.040204342 -0.09493652 0.20384589 -0.3317254 0.40991956 0.5941969 0.18172005 -0.47476757 -0.35959777 -0.53676426 -0.31962937 0.23014212 -0.07313732 -0.21192724 -0.50426435 -0.1903845 -0.064981416 0.37722448
有 0.4686274 0.13645372 -0.73030853 0.42795482 0.29582694 0.2957434 -0.5375813 -0.18726462 -0.4821183 -0.3013306 0.24989349 0.46621242 -0.08786379 -0.06487573 0.3173789 0.56997216 0.29557642 -0.52530223 -0.715654 -0.12823333 -0.17817155 -0.06529757 -0.56276965 -0.3378647 -0.065781884 0.11603374 -0.55918175 0.5938843 -0.38549182 0.5731767 0.27125695 -0.10624269 0.03845653 -0.12687571 0.13329479 0.37451145 0.1797167 0.3745349 0.05893312 0.22138539 0.26588115 -0.4559014 0.4162154 0.07206796 -0.110062264 -0.022592366 -0.056985594 -0.08821737 0.20645307 -0.32765937 0.41557962 0.57912576 0.17461655 -0.4656965 -0.36901227 -0.536566 -0.3212248 0.21839063 -0.06778258 -0.21731836 -0.5177693 -0.18891287 -0.061347842 0.37719753
立案 0.335572 0.11241659 -0.5375077 0.31811774 0.21933211 0.2100503 -0.39684469 -0.13180809 -0.3591322 -0.21052918 0.18508159 0.33312207 -0.05691841 -0.044915482 0.24465646 0.42535686 0.22418232 -0.39105603 -0.54115623 -0.093203425 -0.14789492 -0.041932408 -0.43284124 -0.2502668 -0.04870051 0.091246 -0.40955514 0.43793964 -0.28119782 0.42390808 0.20027485 -0.07248544 0.022036705 -0.09481646 0.100996345 0.2939436 0.1307829 0.29566637 0.037248325 0.16031103 0.18760371 -0.33152923 0.31985503 0.04741836 -0.08798613 -0.02851626 -0.027030032 -0.06980779 0.16150269 -0.24613714 0.3036787 0.44818592 0.12162887 -0.35095835 -0.2715431 -0.39407113 -0.24643977 0.17162418 -0.053321227 -0.1596282 -0.3804109 -0.14561328 -0.04040079 0.27757648
被 0.6212642 0.1868553 -0.9915327 0.56428945 0.38994434 0.38362253 -0.7345365 -0.24753919 -0.64126694 -0.40203917 0.33870408 0.62398696 -0.10129637 -0.074277766 0.42768115 0.7703864 0.393244 -0.7207045 -0.96178395 -0.16885224 -0.24588239 -0.08185281 -0.7782752 -0.4557231 -0.08452101 0.14978105 -0.7534251 0.79620826 -0.5135461 0.7845666 0.3588021 -0.14353858 0.04161423 -0.1578592 0.17805216 0.5106457 0.23338622 0.51332337 0.071803205 0.28408465 0.35381275 -0.6204047 0.5700403 0.10580041 -0.14905296 -0.024056628 -0.069832 -0.13278191 0.28193775 -0.43928537 0.55668384 0.79387206 0.22246303 -0.6234953 -0.4964156 -0.7220162 -0.42365745 0.30302414 -0.10775549 -0.2883734 -0.67970544 -0.27513438 -0.06843317 0.51721716
要件 0.26404104 0.08253816 -0.4152064 0.24468409 0.17415681 0.159703 -0.30388623 -0.099796444 -0.26782113 -0.16185148 0.13950534 0.26627684 -0.060148485 -0.04201751 0.17832609 0.32867983 0.16843385 -0.3091211 -0.41289735 -0.078672096 -0.10679903 -0.033057723 -0.32237732 -0.17664744 -0.040425535 0.06737414 -0.31690806 0.3388145 -0.21756065 0.33120427 0.14877267 -0.061300028 0.011662064 -0.070664465 0.06699651 0.21923788 0.10109048 0.21949656 0.028685119 0.122402504 0.1441365 -0.25219068 0.23093528 0.047560263 -0.066866465 -0.006625507 -0.030808324 -0.05801528 0.12194414 -0.19209833 0.22210161 0.34122095 0.09865807 -0.26374918 -0.21379188 -0.2941831 -0.17816618 0.12622374 -0.037827335 -0.121704295 -0.28690037 -0.11815241 -0.033650536 0.21825133
判 0.4472101 0.14781892 -0.71568704 0.41541767 0.27345473 0.2871387 -0.53077394 -0.17666343 -0.47678497 -0.28687775 0.24432248 0.44456184 -0.07903619 -0.064839624 0.31937575 0.5719449 0.27962777 -0.5366335 -0.699146 -0.11399109 -0.17203271 -0.05584926 -0.55686015 -0.32723075 -0.06522929 0.098772764 -0.5520187 0.58745503 -0.37105566 0.57233465 0.25708807 -0.11073804 0.0397191 -0.121708795 0.13170141 0.37035805 0.172366 0.3743844 0.06090074 0.20289412 0.2622851 -0.45177034 0.42170563 0.07798983 -0.113029964 -0.026249822 -0.05382154 -0.087225616 0.20679949 -0.31288898 0.40295228 0.58047426 0.16705933 -0.45516974 -0.35380492 -0.53205377 -0.3198177 0.21790127 -0.08288186 -0.19946894 -0.49970263 -0.1926049 -0.051345646 0.37097222
规定 0.30940863 0.10358878 -0.485053 0.2757725 0.20154792 0.19238505 -0.36323413 -0.11487736 -0.31165856 -0.1976242 0.17474936 0.30830762 -0.05081434 -0.04792929 0.21199998 0.38369325 0.18733159 -0.35705006 -0.4799909 -0.08508895 -0.12937641 -0.047814425 -0.39054036 -0.2152299 -0.047482055 0.07808609 -0.37638605 0.40444255 -0.26576978 0.38643277 0.1722572 -0.077174395 0.023642158 -0.080082506 0.08091618 0.26202202 0.11989413 0.25287157 0.042192083 0.13660395 0.1667131 -0.31202865 0.28983122 0.04135851 -0.064877175 -0.010339284 -0.025132077 -0.067168355 0.12803258 -0.22501853 0.2669292 0.39309588 0.11703357 -0.30867848 -0.253832 -0.36354887 -0.20856935 0.16056298 -0.04767121 -0.13766997 -0.34950238 -0.12988146 -0.040114027 0.24144435
会 0.47640598 0.15324777 -0.76368415 0.44042933 0.302007 0.31251878 -0.56761837 -0.18876305 -0.50643843 -0.3139925 0.2701007 0.47839555 -0.09234417 -0.06354927 0.33168197 0.59950995 0.29848304 -0.56148803 -0.75516003 -0.12342328 -0.19694106 -0.07108209 -0.5978941 -0.33923897 -0.065324426 0.12423024 -0.5921245 0.62088627 -0.40764144 0.60901827 0.28788874 -0.1172778 0.039545745 -0.12650307 0.14415185 0.389701 0.17359912 0.4015832 0.06597905 0.22544503 0.28154886 -0.4835676 0.45443448 0.078422055 -0.112225935 -0.02940582 -0.04631616 -0.09875125 0.21872413 -0.34605795 0.42668852 0.6212116 0.17511566 -0.48839244 -0.3846702 -0.5534206 -0.33377424 0.24269593 -0.087145 -0.21585101 -0.5354562 -0.20346254 -0.057675973 0.40246153
了 0.5664241 0.17883508 -0.89428014 0.5185671 0.3510477 0.35381272 -0.6680242 -0.22734156 -0.5803276 -0.3710238 0.30796224 0.5584785 -0.0880737 -0.08188983 0.3977607 0.7031434 0.36686257 -0.6608195 -0.8723789 -0.15369384 -0.22747949 -0.08341892 -0.7029266 -0.41724142 -0.076815896 0.14133494 -0.69896054 0.73243153 -0.46207494 0.70700574 0.33880082 -0.1316906 0.033689566 -0.15688156 0.1554281 0.4592448 0.20989989 0.4689893 0.075411364 0.26457867 0.32058552 -0.568325 0.52496946 0.08977745 -0.1362373 -0.024516331 -0.060474202 -0.10642967 0.2538858 -0.40867797 0.50488466 0.7319562 0.21723367 -0.5743266 -0.45059955 -0.64874804 -0.39365095 0.2786516 -0.0952854 -0.24825464 -0.6312613 -0.23994268 -0.06766762 0.46713352
你好 0.45211872 0.12780371 -0.7034344 0.40933913 0.2755423 0.28840193 -0.5229382 -0.17259844 -0.45393136 -0.29762596 0.24634372 0.43739152 -0.0684022 -0.046224114 0.29482895 0.5692772 0.278997 -0.51125187 -0.6892137 -0.12279757 -0.1783382 -0.05761721 -0.55691653 -0.31764692 -0.071634196 0.1053541 -0.53772676 0.5620644 -0.37855068 0.56135064 0.26607582 -0.100966446 0.032346435 -0.12345877 0.13953324 0.36779594 0.16741921 0.3712884 0.05920037 0.21983363 0.25600603 -0.44261515 0.40958813 0.06847483 -0.120686255 -0.009185413 -0.054554883 -0.08334714 0.20732018 -0.31999528 0.40202937 0.5614839 0.17200607 -0.44968054 -0.35262305 -0.5115705 -0.28824568 0.22182892 -0.080058865 -0.20292842 -0.49099532 -0.19875209 -0.06363246 0.37123293
刑法 0.46150035 0.15317488 -0.72366595 0.41386455 0.2802474 0.2854197 -0.52517676 -0.17257044 -0.4797246 -0.2897284 0.24091089 0.45040068 -0.08607316 -0.0642128 0.31600317 0.56716025 0.2859368 -0.5371266 -0.71572924 -0.11464871 -0.18857594 -0.05885359 -0.57363635 -0.33069327 -0.05554278 0.1138894 -0.558504 0.5866846 -0.38294855 0.5854664 0.25700077 -0.109126754 0.037543394 -0.111416884 0.12776168 0.3762014 0.16170852 0.3815148 0.061890725 0.21055113 0.2478393 -0.45223397 0.42005613 0.07788968 -0.11221356 -0.018256472 -0.0490165 -0.08804508 0.20704563 -0.33072653 0.39708576 0.5958138 0.17330521 -0.45930797 -0.36970323 -0.53465873 -0.32298312 0.21891367 -0.07247499 -0.21074812 -0.50062335 -0.20432627 -0.06407355 0.3616773
多久 0.48361257 0.15830795 -0.7849477 0.44969973 0.3083614 0.31782967 -0.5757702 -0.1986854 -0.50924355 -0.31729737 0.26551068 0.4923915 -0.08568273 -0.067075655 0.33608133 0.61487657 0.3148387 -0.5651637 -0.7735242 -0.124846324 -0.18740416 -0.06929231 -0.6125625 -0.35018852 -0.064294524 0.110240534 -0.604401 0.6231943 -0.41489714 0.6122503 0.29532012 -0.11941115 0.03835516 -0.12112871 0.14715342 0.4043966 0.18238513 0.40764183 0.05810203 0.23496185 0.28653252 -0.48673862 0.45855707 0.080394536 -0.12030415 -0.024773592 -0.04622381 -0.106676325 0.21488862 -0.34900928 0.43583533 0.622467 0.1849886 -0.49350604 -0.39094865 -0.560752 -0.33395055 0.25054684 -0.088494614 -0.21843565 -0.5485584 -0.22060472 -0.06090389 0.39896134
可以 0.53830296 0.17467058 -0.8614706 0.49533075 0.3285215 0.34927982 -0.63396376 -0.2087886 -0.55415267 -0.34105486 0.29122576 0.5369896 -0.09759451 -0.07484326 0.36414748 0.6743385 0.33628267 -0.6250809 -0.8434788 -0.14376362 -0.20748635 -0.06860713 -0.6779771 -0.38788182 -0.07774401 0.1265667 -0.660048 0.693354 -0.44820443 0.67715913 0.32131112 -0.1237332 0.043321025 -0.14925107 0.16309774 0.44287136 0.18859877 0.4531805 0.070561 0.26009485 0.30941656 -0.5388665 0.49903676 0.0835849 -0.12799801 -0.018535534 -0.06811966 -0.118131645 0.24436674 -0.37322965 0.47894225 0.6930614 0.19802804 -0.55158615 -0.43421492 -0.6324889 -0.37090608 0.27481848 -0.09372348 -0.2456997 -0.59804875 -0.23314992 -0.07483626 0.4550889
犯罪 0.4970544 0.1479943 -0.7769735 0.44502202 0.3055177 0.3182003 -0.5787646 -0.1944972 -0.49876958 -0.32344058 0.26552767 0.49227226 -0.09627803 -0.06615087 0.34398252 0.61737484 0.31641105 -0.5752897 -0.75686455 -0.119470984 -0.19175403 -0.058433373 -0.6112654 -0.34380195 -0.06155189 0.11220334 -0.6058901 0.62240785 -0.40319464 0.6129647 0.2876233 -0.11626891 0.03155548 -0.12831461 0.14290795 0.3985098 0.17706704 0.41478118 0.06120607 0.23809732 0.28260243 -0.4932255 0.45053455 0.084972784 -0.12715608 -0.02548959 -0.05250436 -0.10326186 0.22565718 -0.35107145 0.42532548 0.63290334 0.17511652 -0.4952913 -0.38104758 -0.57570213 -0.33426037 0.2492041 -0.07188658 -0.23367773 -0.54004484 -0.2099159 -0.056218572 0.40968373
诈骗 0.39776534 0.13085125 -0.64219654 0.36634094 0.24979126 0.26252478 -0.47185817 -0.16866377 -0.42706537 -0.25432837 0.21201885 0.4114304 -0.060563225 -0.051456116 0.27776483 0.5099476 0.26429546 -0.47771764 -0.64155465 -0.11613746 -0.1674996 -0.06260986 -0.4989809 -0.29680228 -0.06763244 0.090914465 -0.49252218 0.5247982 -0.33812347 0.5192045 0.23700102 -0.10156657 0.02244451 -0.11093955 0.12355251 0.34701532 0.14494346 0.34889713 0.05449758 0.1838097 0.23818871 -0.4096655 0.38446492 0.074033536 -0.108761735 -0.02586648 -0.04725371 -0.07936076 0.17936261 -0.2863143 0.36719567 0.527279 0.14082593 -0.41991335 -0.31721026 -0.4779202 -0.28610075 0.20469864 -0.0655291 -0.18716551 -0.44431585 -0.1708884 -0.056715354 0.3443714
请问 0.43195158 0.13726594 -0.6883769 0.38873035 0.2715955 0.27742735 -0.5010339 -0.16736548 -0.44976386 -0.27219978 0.23080201 0.4248905 -0.07229659 -0.05036569 0.30640173 0.53422064 0.27810892 -0.49953786 -0.67622143 -0.113404565 -0.17660706 -0.053015396 -0.53936785 -0.3033177 -0.053844232 0.10096672 -0.5367849 0.55554014 -0.3600967 0.54591936 0.25995865 -0.09622903 0.03345154 -0.112502776 0.12146862 0.3633059 0.15207097 0.36383528 0.05722435 0.20479774 0.24308696 -0.43696684 0.39591482 0.07296659 -0.113515444 -0.015969478 -0.044080757 -0.0932621 0.18893568 -0.3090256 0.38169363 0.55859935 0.16236304 -0.44537446 -0.3380397 -0.4986105 -0.28929615 0.21044824 -0.07235776 -0.19224764 -0.480534 -0.1954466 -0.055053703 0.36101884
怎样 0.42623714 0.13254021 -0.669477 0.3861106 0.26328388 0.26252928 -0.5021987 -0.17138112 -0.43966985 -0.2682293 0.2289669 0.42766613 -0.06838503 -0.047086697 0.2957287 0.52990735 0.27249807 -0.4974244 -0.667236 -0.11748289 -0.1717811 -0.059113152 -0.5175271 -0.30265293 -0.057987742 0.105425455 -0.51834637 0.54184145 -0.34795928 0.53813684 0.25623477 -0.09828161 0.037497275 -0.10198527 0.11589002 0.34963226 0.1537611 0.35906872 0.049831044 0.20469494 0.23610294 -0.42303252 0.38428378 0.06344818 -0.11147844 -0.01700068 -0.04193108 -0.09513212 0.18184486 -0.2974059 0.3721688 0.53569883 0.14945279 -0.42993808 -0.33157966 -0.4953284 -0.29064965 0.21488427 -0.06399163 -0.18578324 -0.46334615 -0.18470429 -0.047225557 0.3513458
对 0.35440126 0.12174968 -0.5679524 0.3271841 0.22774784 0.23450217 -0.42080715 -0.13742611 -0.37240714 -0.23234324 0.1993853 0.35574538 -0.061578438 -0.04972691 0.24662842 0.4622812 0.23765676 -0.41541004 -0.57266754 -0.08355644 -0.13742362 -0.048862472 -0.44503772 -0.25326416 -0.04268229 0.0870936 -0.4518214 0.47777903 -0.2943715 0.46072972 0.22066061 -0.0759572 0.037954394 -0.08808125 0.10735429 0.30606204 0.13809983 0.30381945 0.03628723 0.18148674 0.20905137 -0.3560185 0.34140322 0.061067607 -0.09158262 -0.020431297 -0.039783143 -0.07672489 0.16391076 -0.25091037 0.31988364 0.46277913 0.14155279 -0.35881865 -0.29197308 -0.42471868 -0.24364464 0.18470061 -0.061110284 -0.16517612 -0.40509105 -0.15832503 -0.04462026 0.29546443
我 0.495129 0.14008337 -0.7859443 0.44367832 0.313096 0.31086358 -0.575742 -0.19375062 -0.5176141 -0.31628412 0.26368216 0.4945617 -0.07686902 -0.06621375 0.33663827 0.62154317 0.31884825 -0.5725972 -0.7711047 -0.1336812 -0.19597982 -0.060404528 -0.61706305 -0.36399633 -0.06373714 0.11295837 -0.60336107 0.62854785 -0.402212 0.62342113 0.30283684 -0.1009975 0.030857442 -0.13343616 0.1491228 0.40311846 0.17217003 0.41078645 0.06692073 0.23154086 0.29289013 -0.48604363 0.45169854 0.08633256 -0.12340521 -0.014342104 -0.066183016 -0.112512276 0.22608022 -0.35002223 0.43382284 0.6321321 0.18653904 -0.4999238 -0.38835666 -0.5653026 -0.34011707 0.24844927 -0.07822047 -0.22289047 -0.5366406 -0.20806046 -0.07109132 0.40667078
属于 0.41128153 0.12265955 -0.6551079 0.37343746 0.26279598 0.26252854 -0.48526657 -0.15444799 -0.43173334 -0.27511737 0.2292878 0.4173412 -0.082955346 -0.04576684 0.28535083 0.5292798 0.2690616 -0.48750523 -0.65497565 -0.10439901 -0.15845591 -0.04808285 -0.52997935 -0.2984356 -0.058485415 0.10222672 -0.50230646 0.5336043 -0.34353772 0.5231385 0.24896488 -0.10573482 0.023946654 -0.11488964 0.116734475 0.34037396 0.14427517 0.34817243 0.044967663 0.19652227 0.24232551 -0.4196255 0.38631046 0.061376143 -0.10557848 -0.028577138 -0.048057396 -0.09310053 0.18040489 -0.29872847 0.36590058 0.5447406 0.16431239 -0.41632393 -0.33540043 -0.47791773 -0.28653792 0.2039927 -0.07065269 -0.19015235 -0.46990752 -0.18030962 -0.059108146 0.35578176
罪名 0.37945196 0.11693814 -0.61369693 0.35429105 0.23836921 0.25706568 -0.44792855 -0.15805379 -0.39509654 -0.24913032 0.21588737 0.3887441 -0.08033821 -0.051564567 0.26788127 0.47898924 0.24282421 -0.45963693 -0.60462826 -0.10139939 -0.1575915 -0.05479148 -0.48958066 -0.2707017 -0.052245643 0.083652794 -0.47476453 0.5022397 -0.3188827 0.4910212 0.22743057 -0.08676565 0.019383488 -0.09348995 0.1157801 0.31972963 0.14283384 0.33254892 0.047472533 0.18916944 0.23194249 -0.39092556 0.35337952 0.056935843 -0.09583964 -0.02806575 -0.04491864 -0.08500235 0.18178883 -0.27427825 0.3491763 0.501918 0.13970482 -0.38686594 -0.31561077 -0.45001122 -0.25862393 0.19934916 -0.059981644 -0.18382439 -0.43018937 -0.17217928 -0.0532057 0.32664576
多少 0.4943155 0.16271038 -0.8069617 0.46447137 0.31757462 0.32217675 -0.5858477 -0.20366977 -0.53750736 -0.32555664 0.27126804 0.50461084 -0.096447766 -0.071480446 0.34798136 0.64248735 0.32041755 -0.60276717 -0.8024609 -0.1321653 -0.19524094 -0.07937812 -0.6367328 -0.36103943 -0.06829392 0.111556426 -0.6271171 0.663349 -0.4338862 0.63403565 0.31194225 -0.12767279 0.04321855 -0.13557906 0.13541822 0.41280317 0.17532784 0.42172498 0.054227106 0.2305075 0.29968682 -0.50974154 0.46317688 0.07660921 -0.11580957 -0.032027774 -0.05367173 -0.09405561 0.22621344 -0.35724247 0.44780424 0.6426308 0.17712769 -0.52273506 -0.39993823 -0.58766705 -0.35503584 0.26107866 -0.087518364 -0.2322731 -0.55289114 -0.22344822 -0.06400322 0.42001143
您好 0.36726922 0.107583284 -0.57180136 0.33569545 0.22872356 0.23426422 -0.42898944 -0.14555128 -0.3783344 -0.23009972 0.19547006 0.36459523 -0.06981591 -0.03978073 0.2552249 0.44751802 0.2347498 -0.41123843 -0.56638324 -0.0865369 -0.14892268 -0.05244993 -0.44061637 -0.25410387 -0.05596973 0.08548436 -0.4371239 0.4702144 -0.29832354 0.4462672 0.20921634 -0.08607208 0.020996816 -0.08693858 0.10263884 0.2981169 0.13108689 0.2937718 0.035292808 0.16771035 0.19910274 -0.35834134 0.33339515 0.061551582 -0.08747553 -0.020753307 -0.04619073 -0.06860313 0.15811293 -0.25972685 0.32539994 0.45512074 0.12961815 -0.36808208 -0.28917545 -0.4212462 -0.23694167 0.17115168 -0.05383167 -0.1597375 -0.39640653 -0.15340164 -0.04201741 0.2953187
罪有 0.5259812 0.15431803 -0.83760995 0.48408818 0.33365068 0.33605993 -0.623341 -0.21983786 -0.553548 -0.35132587 0.287989 0.53290844 -0.088733785 -0.06599037 0.35866883 0.66154057 0.3366001 -0.61517876 -0.8356344 -0.14838314 -0.21073245 -0.06631537 -0.65998304 -0.3801266 -0.07813654 0.12030755 -0.64765626 0.6886633 -0.45180312 0.6729175 0.30670378 -0.12328641 0.04712497 -0.13564923 0.16150267 0.43640858 0.20279069 0.44787973 0.06847296 0.2520622 0.30460036 -0.53033966 0.47950226 0.094647385 -0.12672013 -0.035034668 -0.0672566 -0.10412145 0.22637612 -0.36992905 0.4718917 0.6767714 0.20493539 -0.5405893 -0.413424 -0.61955357 -0.3706557 0.26965156 -0.0795718 -0.2547657 -0.5839692 -0.22071257 -0.07376388 0.44134834
定罪 0.3153139 0.10207578 -0.50089765 0.2939871 0.20287794 0.20022716 -0.3725197 -0.12201946 -0.32864982 -0.20244336 0.17626484 0.31218442 -0.06260283 -0.034574285 0.212852 0.39454594 0.2070588 -0.36722466 -0.4991033 -0.085688345 -0.13005477 -0.037059344 -0.3928159 -0.231943 -0.038882345 0.07691269 -0.3932377 0.40220806 -0.2657627 0.40780014 0.18180047 -0.07710861 0.027555253 -0.08951941 0.08542036 0.2642288 0.11283479 0.270289 0.040149372 0.1541598 0.1775159 -0.30513313 0.2887836 0.05548757 -0.079481706 -0.026792176 -0.03164961 -0.06086593 0.14066398 -0.22183962 0.2725015 0.4143643 0.116909705 -0.3230584 -0.25486976 -0.37332916 -0.22311763 0.14774545 -0.05346376 -0.14044143 -0.3418171 -0.12871946 -0.04146378 0.25689507
不 0.5370971 0.1683186 -0.8442749 0.47737896 0.32882208 0.33477464 -0.63296527 -0.21706505 -0.5459265 -0.33593273 0.28332192 0.5227735 -0.092716 -0.071152434 0.3677779 0.66785246 0.32999128 -0.62706 -0.82832575 -0.14192694 -0.21344271 -0.068455264 -0.6695553 -0.38504723 -0.081382155 0.121906444 -0.65551007 0.6890259 -0.44919655 0.6722265 0.3065463 -0.11618892 0.042829297 -0.1328514 0.14915481 0.4464492 0.19058987 0.4453168 0.054418847 0.2587056 0.3086132 -0.53280467 0.49146932 0.09206176 -0.12399992 -0.033139255 -0.053085856 -0.11812868 0.23393404 -0.37760413 0.47466758 0.68485683 0.19483902 -0.5459285 -0.42979997 -0.61888164 -0.35808823 0.25920734 -0.081096135 -0.25034595 -0.59540385 -0.22378212 -0.06759124 0.4371917
一般 0.29490176 0.096896656 -0.4731923 0.27114153 0.1829079 0.20021416 -0.3602841 -0.110820144 -0.3196279 -0.18676104 0.16587019 0.29590684 -0.052255023 -0.045223113 0.21284625 0.38531208 0.19221087 -0.36183733 -0.47501314 -0.07468391 -0.11593796 -0.037510104 -0.3722916 -0.20985894 -0.036224358 0.068055384 -0.36452723 0.39583305 -0.24748021 0.39217678 0.17582776 -0.07353223 0.023551097 -0.086127706 0.07842828 0.24977143 0.10776713 0.25399706 0.030108877 0.14591454 0.16546246 -0.29850623 0.28221124 0.048701834 -0.07306801 -0.016628018 -0.037243523 -0.0626249 0.1299038 -0.2203068 0.2629579 0.397684 0.11726587 -0.31307298 -0.2460549 -0.35834414 -0.21474813 0.14279963 -0.058165677 -0.14199306 -0.32645288 -0.13041721 -0.04039011 0.2517167
具体 0.26789835 0.07628684 -0.42233723 0.24227186 0.17698257 0.16212034 -0.30943266 -0.096826464 -0.27831933 -0.16945311 0.1471337 0.26998183 -0.05596235 -0.033114195 0.19046262 0.33680066 0.16522455 -0.30966684 -0.41778713 -0.070120186 -0.11415599 -0.032524187 -0.3336457 -0.2005618 -0.033941194 0.065929614 -0.31634068 0.35086158 -0.22660182 0.33062932 0.1559651 -0.06807011 0.024445226 -0.071524784 0.068085246 0.21946217 0.09176321 0.22645268 0.026279023 0.11790434 0.14552234 -0.26258132 0.245616 0.046750505 -0.0722195 -0.01575518 -0.031602155 -0.054800805 0.10979695 -0.18925105 0.24070199 0.34170464 0.10464445 -0.2788682 -0.20587651 -0.31056824 -0.18913603 0.13748243 -0.03497047 -0.11465511 -0.30319545 -0.113268144 -0.028441783 0.209573
冒昧 0.30716565 0.08836355 -0.47584477 0.2754653 0.17399867 0.19795269 -0.35314187 -0.12644999 -0.31165424 -0.20310946 0.15836255 0.30073464 -0.054182753 -0.034437254 0.19411194 0.36795446 0.18714572 -0.34262505 -0.4674983 -0.08387725 -0.10562898 -0.045234557 -0.37190282 -0.21480265 -0.048484582 0.07427866 -0.35665888 0.37067908 -0.24220338 0.3626339 0.18828934 -0.06900152 0.016452417 -0.08588361 0.08909624 0.24779487 0.10415683 0.25223425 0.03390449 0.13540551 0.17707701 -0.29891568 0.27512687 0.044477057 -0.07997341 -0.0033428606 -0.030534888 -0.05945267 0.13263324 -0.20567799 0.25561818 0.3776788 0.1127751 -0.29804903 -0.238576 -0.34764108 -0.19024931 0.15439972 -0.053573117 -0.14390464 -0.32706514 -0.12723254 -0.03910377 0.24535984
销售 0.32269576 0.10814622 -0.5094521 0.2933333 0.19738589 0.20296723 -0.37733024 -0.12041368 -0.34574965 -0.2080205 0.1839341 0.32000428 -0.052963 -0.038551427 0.23291525 0.40578938 0.20221399 -0.36711094 -0.5027993 -0.0905212 -0.11928481 -0.048968032 -0.39419264 -0.24163108 -0.0414674 0.08165527 -0.3957041 0.417092 -0.26497716 0.41912273 0.18853053 -0.068306126 0.03413298 -0.09160333 0.08579079 0.271584 0.1200674 0.26231733 0.04721671 0.15778089 0.19193876 -0.32901546 0.2965336 0.0473238 -0.08035823 -0.027561119 -0.030111477 -0.06916517 0.1444226 -0.2285086 0.2855417 0.4259886 0.1285158 -0.33244616 -0.26469555 -0.37395033 -0.21898197 0.15557648 -0.053230003 -0.1472516 -0.36001313 -0.14712785 -0.04100062 0.27487984
诈骗罪 0.21171099 0.06785139 -0.34023234 0.19333959 0.13944042 0.13242838 -0.26013666 -0.08737868 -0.21759112 -0.13054661 0.11794745 0.20748112 -0.03793071 -0.020824898 0.1418831 0.2676601 0.12803683 -0.2457082 -0.33104944 -0.050286163 -0.09441553 -0.0360558 -0.26893336 -0.16074726 -0.028924508 0.06039176 -0.26137725 0.27868742 -0.17531274 0.27698907 0.13298182 -0.05846996 0.018214155 -0.048117638 0.058303755 0.17823185 0.07603705 0.17857566 0.018197553 0.10351639 0.12554176 -0.20465517 0.2004639 0.029469414 -0.045271605 -0.013964779 -0.026925573 -0.04800799 0.10269968 -0.14276387 0.18467578 0.282627 0.07736689 -0.21998245 -0.16858244 -0.23998512 -0.15371402 0.11226993 -0.027582 -0.09879457 -0.24258111 -0.10107504 -0.029360011 0.1763825
请教 0.3110239 0.09197648 -0.48072213 0.27927092 0.18750432 0.20142755 -0.37013084 -0.12140519 -0.3204318 -0.20653473 0.17143467 0.3016707 -0.055220637 -0.04046479 0.2156467 0.38301954 0.1992534 -0.3608986 -0.47839385 -0.08279711 -0.1258948 -0.041820217 -0.38775793 -0.2140824 -0.052427962 0.07672591 -0.38372076 0.39379692 -0.25138766 0.38290083 0.18762483 -0.06262765 0.021075627 -0.087701164 0.08721089 0.25960666 0.11241991 0.26442847 0.037767347 0.14705996 0.1810357 -0.30541825 0.28059754 0.043775383 -0.07260991 -0.021368332 -0.035179954 -0.060725603 0.14177935 -0.22622997 0.27804372 0.39149225 0.12117406 -0.31601486 -0.24686924 -0.35989973 -0.20345758 0.16134144 -0.04618127 -0.1499158 -0.33851272 -0.14367263 -0.040794205 0.26031345
特征 0.25351393 0.08903559 -0.40501562 0.23434617 0.16784048 0.16449529 -0.29890954 -0.10755348 -0.26292998 -0.17375728 0.13228026 0.25831088 -0.049597424 -0.038447198 0.16941099 0.32227254 0.16041313 -0.30084094 -0.39352706 -0.06281412 -0.10429191 -0.037091702 -0.3223566 -0.1795523 -0.039947223 0.06599521 -0.31362712 0.32770014 -0.20861998 0.31190562 0.15117416 -0.055109344 0.009446229 -0.05669613 0.07433767 0.20679104 0.09145962 0.21074201 0.024158994 0.12073576 0.14445966 -0.25814754 0.22399625 0.044864796 -0.057682317 -0.0031122086 -0.029231822 -0.049701214 0.121418945 -0.18521605 0.23198503 0.32217982 0.10093324 -0.25724798 -0.19551429 -0.29956582 -0.1785495 0.122859046 -0.030647455 -0.11213974 -0.28778085 -0.10738133 -0.032266248 0.21845944
解释 0.4285185 0.11725271 -0.65052134 0.38712236 0.2657298 0.2733361 -0.4837215 -0.17514206 -0.44082803 -0.28249964 0.21983474 0.4082759 -0.062498 -0.045399904 0.2894846 0.5153536 0.2723615 -0.4825001 -0.6634417 -0.10692686 -0.16113417 -0.06717153 -0.5094422 -0.29837462 -0.050645117 0.09626373 -0.51274496 0.53455245 -0.35609725 0.5280864 0.26085111 -0.08965877 0.019950246 -0.10117196 0.12255513 0.3400588 0.15426053 0.34633914 0.05389815 0.19357656 0.23490311 -0.41885772 0.3762139 0.06984489 -0.11167492 -0.015781911 -0.058216795 -0.08641199 0.19505365 -0.30186716 0.3598574 0.5330417 0.15580283 -0.41445154 -0.32530913 -0.4876612 -0.28706747 0.20027593 -0.081034414 -0.19553027 -0.47375137 -0.18849 -0.052161034 0.35145873
缓刑 0.40667018 0.13274321 -0.66617906 0.37805894 0.25938198 0.27112046 -0.49307144 -0.15797167 -0.43743268 -0.26776916 0.2276396 0.4167598 -0.0699903 -0.06279607 0.29542643 0.51584244 0.26877052 -0.49232534 -0.65623856 -0.10909811 -0.17251606 -0.056251537 -0.52349555 -0.30188018 -0.06664714 0.09258944 -0.50580776 0.52991015 -0.3490417 0.5313057 0.25135553 -0.103148274 0.0393038 -0.106663376 0.11466186 0.3397236 0.16056633 0.3474206 0.053015977 0.19109528 0.24494831 -0.41803023 0.38733488 0.0601911 -0.09596882 -0.025603719 -0.042991545 -0.08845981 0.19317512 -0.29335582 0.3699797 0.5323188 0.14619936 -0.41906142 -0.33298606 -0.48299438 -0.27930048 0.19650951 -0.072624005 -0.19759606 -0.46321282 -0.17118965 -0.04542572 0.34434956
法院 0.35084987 0.113160804 -0.57190055 0.33100522 0.22200638 0.22659756 -0.4215144 -0.13634898 -0.37042764 -0.23054923 0.19371183 0.35024017 -0.07280964 -0.04033862 0.2397462 0.4483567 0.21694386 -0.40664428 -0.5510189 -0.08275431 -0.13931304 -0.044307873 -0.44383326 -0.2567644 -0.047010437 0.07964495 -0.4377134 0.46121782 -0.3051843 0.45706257 0.20255275 -0.08548534 0.025160357 -0.099498145 0.10466732 0.30115432 0.12136038 0.30276158 0.041201454 0.17448436 0.20640604 -0.3495102 0.32720095 0.059349563 -0.088625714 -0.019450484 -0.038797043 -0.07308335 0.1503948 -0.25800136 0.30864683 0.46465784 0.1385576 -0.36613235 -0.29239175 -0.412535 -0.24456856 0.17803179 -0.05521492 -0.15329194 -0.38696986 -0.16378483 -0.050785698 0.28723586
几年 0.44372886 0.13778922 -0.7091013 0.40403682 0.28038153 0.27590385 -0.5219604 -0.16854411 -0.45524028 -0.2889344 0.23490809 0.43870544 -0.08315991 -0.06542465 0.3068957 0.5571533 0.2742786 -0.5251866 -0.7007856 -0.11528014 -0.1769909 -0.061109737 -0.55054235 -0.31151855 -0.06709342 0.09988741 -0.54173994 0.5662512 -0.36986297 0.5633638 0.2550026 -0.09619789 0.035142757 -0.12097128 0.13040832 0.3606855 0.163058 0.370909 0.0515071 0.210907 0.2530801 -0.4445046 0.40807727 0.07250533 -0.11278629 -0.026923086 -0.051618647 -0.085768566 0.20073423 -0.3146704 0.3860385 0.5693848 0.17172574 -0.45951137 -0.3506054 -0.51839566 -0.31076452 0.22051135 -0.07779994 -0.1998102 -0.4841181 -0.19732133 -0.047960136 0.36054274
犯 0.2999302 0.09779761 -0.4800625 0.27761534 0.19497839 0.1965127 -0.35387316 -0.11321264 -0.30599627 -0.1968042 0.1519721 0.29158053 -0.043034777 -0.03230634 0.21706744 0.37075558 0.19597797 -0.3500148 -0.47536436 -0.07198239 -0.12296478 -0.031190215 -0.36765498 -0.20923585 -0.040388342 0.07135107 -0.37578335 0.38225412 -0.24363007 0.38211495 0.17043242 -0.07186004 0.0217382 -0.08379869 0.07880488 0.25540814 0.110094346 0.24209145 0.044686705 0.14812383 0.16909803 -0.29111052 0.2770569 0.04062226 -0.0736017 -0.01976994 -0.030329308 -0.055043843 0.1327869 -0.22037496 0.26729864 0.3809688 0.1124631 -0.3117335 -0.23655063 -0.35561112 -0.20818108 0.15106285 -0.048149545 -0.1448258 -0.33042246 -0.12715958 -0.03682241 0.25359672
走私 0.29821956 0.0986038 -0.46958396 0.2596768 0.18694395 0.18091606 -0.34641555 -0.11180336 -0.29979673 -0.19584607 0.15589055 0.2982759 -0.0585451 -0.04102898 0.205842 0.37304825 0.18237238 -0.34423295 -0.46344694 -0.077696316 -0.10718451 -0.029207049 -0.37131807 -0.20296742 -0.047608756 0.070941575 -0.34728912 0.37848532 -0.24462537 0.37269297 0.17619228 -0.06086525 0.022524962 -0.08093326 0.09156629 0.24045673 0.11448741 0.24244073 0.0359011 0.13645643 0.16093726 -0.28992438 0.26316586 0.04843307 -0.078610964 -0.010689081 -0.04195892 -0.052061588 0.12773147 -0.2111178 0.24879652 0.3805491 0.11707863 -0.29624835 -0.22777072 -0.33349448 -0.19757722 0.14818591 -0.03985431 -0.12900248 -0.3322853 -0.12938538 -0.03749908 0.23022877
能 0.4671605 0.15651563 -0.7588811 0.43518087 0.29248974 0.2949212 -0.5665023 -0.18084055 -0.49036106 -0.3027411 0.25597435 0.47015345 -0.08101553 -0.055799045 0.3312476 0.6022292 0.31028354 -0.55872583 -0.74351776 -0.13335341 -0.19382337 -0.060897533 -0.5996799 -0.34817427 -0.07235683 0.1117891 -0.5822838 0.6076181 -0.39691916 0.597067 0.28558308 -0.10947737 0.039964218 -0.1217925 0.1382318 0.3944293 0.17547122 0.39963323 0.05541723 0.22033527 0.2790126 -0.46726885 0.44404614 0.086316474 -0.11444479 -0.0298323 -0.048457343 -0.09313102 0.21326539 -0.33957234 0.41551945 0.6113097 0.1673579 -0.48698586 -0.38658288 -0.5573473 -0.32658005 0.23302159 -0.07760017 -0.21797791 -0.53234226 -0.20042238 -0.056789186 0.3950415
生产 0.29830885 0.096857324 -0.4712227 0.27492967 0.1797027 0.18252933 -0.351284 -0.11583452 -0.30106282 -0.1844332 0.16793583 0.2893425 -0.05090876 -0.04589455 0.19735378 0.37907463 0.17869286 -0.33688372 -0.4709481 -0.073306754 -0.10699651 -0.036675386 -0.36003166 -0.20628633 -0.03474763 0.0646708 -0.35653532 0.37277892 -0.24171323 0.38282296 0.1785035 -0.059610203 0.03303457 -0.07394969 0.07982524 0.24255201 0.11037154 0.24767964 0.040315118 0.14594065 0.1662475 -0.2897113 0.26596016 0.05382928 -0.08166623 -0.019186918 -0.03351442 -0.0665295 0.13703677 -0.20768233 0.26710203 0.38039234 0.11095586 -0.30133316 -0.23963717 -0.34665257 -0.2030026 0.14327694 -0.044766095 -0.13086623 -0.33074418 -0.1334466 -0.033544987 0.25154018
法律 0.34273472 0.09901528 -0.52406996 0.30886993 0.21644229 0.20878069 -0.4019906 -0.13048957 -0.3541291 -0.22514829 0.18952759 0.34041274 -0.054074638 -0.053902715 0.23029837 0.4193353 0.21291009 -0.39823973 -0.51597285 -0.08378806 -0.13334888 -0.039432455 -0.41667897 -0.2338658 -0.048092373 0.08512369 -0.4027977 0.44041622 -0.2801329 0.4155865 0.19435559 -0.085822895 0.019425614 -0.086065955 0.089187324 0.28321624 0.1296479 0.27981135 0.04633514 0.15057509 0.19719395 -0.3240858 0.30155468 0.044828966 -0.07902083 -0.025207099 -0.038873047 -0.070406154 0.14961256 -0.2491865 0.3064485 0.4384599 0.12606195 -0.3425692 -0.25835004 -0.38597158 -0.22723487 0.15678963 -0.04160867 -0.1505083 -0.36566287 -0.15022029 -0.05036765 0.2768043
类型 0.24664643 0.08154769 -0.38915187 0.21613972 0.16214846 0.16219456 -0.29781017 -0.08686478 -0.2492748 -0.15964149 0.14263277 0.24214259 -0.04532368 -0.032601435 0.16825545 0.30940887 0.16306286 -0.29372784 -0.39015666 -0.070407785 -0.097004235 -0.029300941 -0.3046491 -0.16509373 -0.03960851 0.05298378 -0.30139843 0.3119559 -0.2060311 0.3005668 0.15159512 -0.05681999 0.01445746 -0.06401668 0.0717009 0.20031719 0.08795896 0.21199287 0.018905757 0.11034512 0.14324096 -0.25640744 0.22666371 0.033063203 -0.06291448 -0.016327193 -0.02277138 -0.055016864 0.10452526 -0.17557062 0.21173732 0.3183189 0.10237796 -0.25163576 -0.201211 -0.29244465 -0.16577138 0.11778318 -0.031069083 -0.12169039 -0.26490188 -0.10915543 -0.024010703 0.21457043
醉驾 0.31354192 0.09297964 -0.49923065 0.28121677 0.19848381 0.20294169 -0.36157498 -0.11894228 -0.32113522 -0.20152177 0.16233703 0.31111503 -0.054241043 -0.04666187 0.21038982 0.38194373 0.20270608 -0.3619381 -0.48159045 -0.08796105 -0.12670924 -0.03872971 -0.39140955 -0.21871243 -0.044620596 0.07189658 -0.3832314 0.39603582 -0.26091614 0.3976547 0.17817363 -0.0776908 0.026295671 -0.08199351 0.08629577 0.25111765 0.11182492 0.25652912 0.030553833 0.15007883 0.17916197 -0.31033653 0.27778614 0.042291734 -0.07763156 -0.022667574 -0.03131815 -0.05840486 0.13885427 -0.21733767 0.2735735 0.39373648 0.11174129 -0.30811957 -0.25498655 -0.36473596 -0.21457541 0.15552151 -0.04515019 -0.13461089 -0.34400654 -0.13966884 -0.033208635 0.25602272
刑事责任 0.2503853 0.07891089 -0.40057397 0.22176372 0.14723326 0.14860825 -0.29813024 -0.094296895 -0.25354305 -0.1604477 0.13987948 0.25625208 -0.052453507 -0.03320773 0.16481817 0.31403103 0.1603626 -0.28843817 -0.39826673 -0.06852346 -0.0932249 -0.028191058 -0.30834025 -0.18189242 -0.034133323 0.060046736 -0.29646492 0.31804386 -0.21422178 0.31606844 0.14077671 -0.058108486 0.020494191 -0.07015665 0.07493226 0.19912732 0.09262292 0.20594904 0.022758447 0.120364636 0.14954309 -0.24956664 0.22991109 0.04916559 -0.052564956 -0.0050362702 -0.034312468 -0.04907403 0.1020463 -0.17121662 0.21548225 0.3201669 0.08962215 -0.2597192 -0.19820271 -0.2890629 -0.1719993 0.13159715 -0.03990051 -0.113386475 -0.270768 -0.100630715 -0.03079327 0.20260724
盗窃 0.3134547 0.10329048 -0.50398433 0.28361556 0.19526376 0.19615932 -0.3653661 -0.119107164 -0.31857336 -0.19959871 0.16852613 0.31432056 -0.050255295 -0.041762173 0.22492445 0.39199513 0.19753955 -0.37103114 -0.49205115 -0.08790427 -0.12974636 -0.037917577 -0.39761814 -0.2203981 -0.04637348 0.080293156 -0.38254678 0.40428132 -0.25809026 0.39282173 0.17693673 -0.07972084 0.020268096 -0.082907796 0.09775058 0.26317957 0.120078824 0.26446104 0.045463104 0.15078592 0.18568814 -0.31491873 0.29689467 0.050078556 -0.07028012 -0.02306898 -0.030932508 -0.0686353 0.14522532 -0.22306004 0.27467915 0.39418167 0.109547235 -0.31269282 -0.24381736 -0.36630768 -0.2185823 0.1621695 -0.0492694 -0.14022622 -0.34831926 -0.14301232 -0.04039846 0.25200486
打扰 0.2453772 0.06170587 -0.37333214 0.22295181 0.14572975 0.15606582 -0.28336263 -0.10314081 -0.24592544 -0.15639079 0.12457959 0.23555355 -0.04673812 -0.02339786 0.15063888 0.30472487 0.15650052 -0.2776671 -0.3706418 -0.05520742 -0.082763225 -0.035760418 -0.29837817 -0.17180656 -0.03771564 0.052442007 -0.28798237 0.30324382 -0.20264255 0.30120885 0.14801975 -0.04867862 0.023380356 -0.06490084 0.07647534 0.19862609 0.0847139 0.20114088 0.025965437 0.115443 0.14571452 -0.23185997 0.2124437 0.033269208 -0.062089372 -0.014118732 -0.032197483 -0.04674478 0.10170347 -0.16640623 0.20093681 0.29543984 0.087874874 -0.24003506 -0.19060823 -0.27307713 -0.15118743 0.12185504 -0.048109274 -0.1195736 -0.26629406 -0.10272695 -0.038583286 0.19601828
中国 0.20985119 0.0739107 -0.3474337 0.19890742 0.1333452 0.14105944 -0.25119853 -0.07964064 -0.2272628 -0.13075726 0.110713296 0.21705785 -0.046311256 -0.0245772 0.15191431 0.262944 0.13031863 -0.25283936 -0.33397722 -0.04868507 -0.08568874 -0.03187152 -0.27136287 -0.14642128 -0.031622674 0.059868988 -0.25958788 0.2884156 -0.18297882 0.27800092 0.122252025 -0.05337648 0.02475505 -0.057345267 0.06313074 0.17202884 0.074636444 0.18449244 0.03248317 0.11059218 0.123849064 -0.21644633 0.19034018 0.035908926 -0.049890265 -0.009081559 -0.020031935 -0.041395854 0.10013946 -0.14641161 0.19471192 0.27899998 0.080251746 -0.21738592 -0.18215616 -0.25694117 -0.14468065 0.10550085 -0.031838145 -0.097388685 -0.2398319 -0.09586392 -0.021910105 0.17103715
处理 0.36183214 0.10527041 -0.57807404 0.33504924 0.23050344 0.22168021 -0.43059185 -0.14171483 -0.3710864 -0.23205139 0.19426438 0.36526915 -0.06804045 -0.051727965 0.24996056 0.45325255 0.23594774 -0.42040482 -0.5671064 -0.09740413 -0.1498964 -0.054075282 -0.45160252 -0.26003847 -0.047259126 0.09001777 -0.43509063 0.46692255 -0.29593337 0.45349634 0.2149662 -0.088774376 0.02702757 -0.10328276 0.10566943 0.29934806 0.12646697 0.2988769 0.049769904 0.16282077 0.19869971 -0.35107085 0.3312469 0.063682236 -0.083673336 -0.024301846 -0.045974582 -0.06842546 0.16764322 -0.2567935 0.3215569 0.4625007 0.13956623 -0.3736148 -0.27971068 -0.42362848 -0.24729182 0.17162694 -0.06265153 -0.16186172 -0.39888102 -0.15248995 -0.045409948 0.294501
过失 0.2880577 0.09438112 -0.45301142 0.2604426 0.17756903 0.1861907 -0.32746446 -0.11423838 -0.28725794 -0.19218118 0.14721224 0.2818936 -0.047284793 -0.036896236 0.1874371 0.3581301 0.17761353 -0.33909264 -0.45087203 -0.065569274 -0.11714344 -0.033734772 -0.3473794 -0.20550607 -0.031144718 0.06384768 -0.34274873 0.3613589 -0.2434144 0.36146697 0.17555954 -0.055923264 0.016138878 -0.071985856 0.075758785 0.234928 0.10431603 0.24394174 0.03766366 0.12815168 0.16716543 -0.28509834 0.25655076 0.04871354 -0.07809223 -0.018331962 -0.03924867 -0.05075753 0.13458273 -0.20323195 0.24707593 0.37185383 0.100338995 -0.2928685 -0.22694017 -0.33598495 -0.19275916 0.13928123 -0.04708548 -0.13870744 -0.30822167 -0.13046813 -0.04356019 0.23133184
人 0.42304155 0.13652033 -0.67863023 0.39323395 0.2642869 0.26208895 -0.5051843 -0.16987371 -0.44108135 -0.26767746 0.22949369 0.42070255 -0.067816444 -0.061049767 0.2850224 0.52472895 0.2717179 -0.49155363 -0.6579223 -0.113610364 -0.17636976 -0.054264385 -0.5236685 -0.3086757 -0.059463143 0.108929835 -0.51992464 0.5425014 -0.3572294 0.53413576 0.24857873 -0.09215587 0.0312767 -0.105809025 0.11721034 0.35789877 0.15191083 0.35614306 0.055180293 0.19508223 0.24002858 -0.4263797 0.3947587 0.06502588 -0.09949868 -0.023605091 -0.043228813 -0.087317236 0.19729605 -0.3068872 0.36911365 0.5417278 0.1485874 -0.4247062 -0.33849722 -0.48679757 -0.29109904 0.21330541 -0.07451087 -0.19993655 -0.47487065 -0.17827068 -0.05738563 0.34465203
年 0.27333176 0.074793465 -0.43939355 0.24325362 0.17444512 0.179365 -0.32020578 -0.09985877 -0.2775621 -0.16698942 0.15544677 0.2731045 -0.043272685 -0.040890202 0.1828933 0.34847933 0.16755366 -0.31236652 -0.43440133 -0.07960596 -0.09848331 -0.036740854 -0.34250602 -0.20360969 -0.04683176 0.07040426 -0.33283052 0.34594372 -0.23667043 0.3449146 0.17253807 -0.070578195 0.027500086 -0.0659391 0.07387342 0.23762295 0.09811812 0.22184339 0.024343308 0.12836519 0.15028895 -0.2764649 0.25922868 0.038382456 -0.06563189 -0.01781381 -0.03309194 -0.05689645 0.122329086 -0.18831874 0.2457823 0.35933533 0.094627194 -0.2725593 -0.21113805 -0.31234348 -0.19059509 0.13445507 -0.055116512 -0.11716031 -0.2997661 -0.11348931 -0.031332232 0.22024353
怎么办 0.3573519 0.117021374 -0.5732005 0.3326067 0.21997808 0.22609197 -0.4157615 -0.14962748 -0.37588093 -0.23674446 0.19330592 0.35127825 -0.055081364 -0.046806607 0.25194696 0.44823647 0.22524856 -0.41333225 -0.5581995 -0.09893232 -0.13872904 -0.04855323 -0.44265252 -0.2587646 -0.053595956 0.08538293 -0.43693447 0.46183687 -0.2932861 0.4484444 0.20954989 -0.08849826 0.026288467 -0.095424734 0.1118461 0.29737675 0.13708752 0.29651546 0.049990755 0.1759423 0.19823389 -0.35542354 0.32995957 0.055208165 -0.09661685 -0.022015302 -0.03794653 -0.07720495 0.16451268 -0.24616256 0.31802118 0.45309418 0.13897514 -0.37046427 -0.29257587 -0.4136773 -0.25331077 0.17075866 -0.051675428 -0.15733738 -0.397409 -0.14947268 -0.048650723 0.29137623
介绍 0.36063573 0.10628597 -0.56572497 0.3167898 0.21091013 0.22652902 -0.4093427 -0.13885696 -0.36825964 -0.23196417 0.18889861 0.34791633 -0.06959784 -0.040141918 0.24435166 0.4382319 0.21812169 -0.41209227 -0.5478251 -0.08561345 -0.14635476 -0.04968233 -0.437956 -0.25536916 -0.047593042 0.08028339 -0.43870762 0.45318255 -0.28771222 0.440149 0.20654799 -0.07876774 0.02189123 -0.08453653 0.111323185 0.28282568 0.12775259 0.28625908 0.036599167 0.16564225 0.2042913 -0.35802233 0.3191796 0.052041236 -0.08713782 -0.017307619 -0.04897764 -0.07310363 0.15987162 -0.24108782 0.30298543 0.44912317 0.13202713 -0.36300883 -0.27815384 -0.3983582 -0.24566899 0.17238435 -0.05750571 -0.15621097 -0.39649352 -0.14793159 -0.043464627 0.2917822
组织 0.3213718 0.09587808 -0.51423293 0.30102828 0.2117775 0.20990226 -0.39052212 -0.12508078 -0.33930275 -0.21810786 0.1707138 0.32329297 -0.05973952 -0.04034615 0.21967027 0.40351996 0.21035558 -0.382309 -0.5080198 -0.08158642 -0.13646978 -0.049306445 -0.41080076 -0.23939943 -0.048485164 0.08070837 -0.3948354 0.4236927 -0.2723407 0.41202763 0.19845085 -0.06890721 0.023147464 -0.0772024 0.097091846 0.26061913 0.11652138 0.27235612 0.039118066 0.14622219 0.18596426 -0.32975847 0.29930717 0.05783278 -0.0860823 -0.022965644 -0.040750884 -0.066283844 0.13843997 -0.22466084 0.2895117 0.4104855 0.12649557 -0.32716635 -0.25557265 -0.3714229 -0.2246298 0.1566374 -0.05513734 -0.15332969 -0.36390114 -0.15042396 -0.048033297 0.2725315
破坏 0.32777286 0.10545185 -0.51696306 0.30053845 0.21172066 0.2091052 -0.39162302 -0.12782368 -0.3341593 -0.21664687 0.17374074 0.3263684 -0.055678323 -0.04190092 0.22466084 0.41460696 0.2051104 -0.38318032 -0.51516056 -0.08136363 -0.13247606 -0.037531406 -0.4124976 -0.24383315 -0.054553315 0.07983746 -0.400733 0.41838357 -0.27686936 0.41260022 0.20251302 -0.07600645 0.031311423 -0.08659732 0.094665095 0.27322057 0.12521483 0.2702075 0.04369148 0.16086194 0.18487588 -0.33270428 0.3009622 0.045670737 -0.08348832 -0.020061702 -0.03396643 -0.065956526 0.14607956 -0.22554763 0.29336405 0.41756436 0.12754792 -0.32528466 -0.26060224 -0.37571296 -0.22132361 0.1667347 -0.058790103 -0.14933631 -0.35417104 -0.14648715 -0.048982974 0.27331388
认定 0.24937911 0.08077997 -0.4079884 0.22567612 0.15240422 0.15169957 -0.2895212 -0.10033212 -0.26398313 -0.16976446 0.14259186 0.2589674 -0.04067904 -0.035072427 0.17678179 0.32368538 0.15410176 -0.29970855 -0.39182594 -0.06486462 -0.09256239 -0.033242382 -0.31713098 -0.1829534 -0.03702851 0.05385035 -0.30893156 0.33095187 -0.20601818 0.31670824 0.14775656 -0.05059846 0.011787171 -0.066672355 0.076251656 0.21556167 0.09170503 0.21554841 0.025298037 0.11646718 0.14608957 -0.24944918 0.23085462 0.040649407 -0.061499752 -0.010786681 -0.02621959 -0.044292416 0.109202154 -0.18527992 0.21532075 0.32078636 0.09237818 -0.24982758 -0.19646122 -0.2993435 -0.18023716 0.11830669 -0.039728664 -0.11594819 -0.28736845 -0.10764009 -0.03339546 0.21299182
伪造 0.2856021 0.08562798 -0.4514779 0.25486213 0.17211612 0.1811865 -0.32353973 -0.111205734 -0.29746863 -0.17418952 0.15734799 0.27891606 -0.050773922 -0.037079282 0.19966303 0.3551951 0.18455823 -0.3259385 -0.44706702 -0.06728376 -0.108260304 -0.037022624 -0.34919897 -0.20599365 -0.030949589 0.067804806 -0.3528582 0.35421014 -0.23405422 0.34899512 0.15974417 -0.055149183 0.014326628 -0.08249709 0.07571099 0.22848402 0.09658694 0.24081899 0.032992844 0.12597604 0.15618737 -0.27618948 0.25502312 0.051823035 -0.065337956 -0.02074603 -0.032811612 -0.063583076 0.13187714 -0.19918686 0.25531936 0.36396563 0.10498762 -0.28262818 -0.22950116 -0.3268187 -0.19229233 0.1459359 -0.046130825 -0.13659023 -0.31009609 -0.12564197 -0.044206463 0.22753158
麻烦 0.21383408 0.05800126 -0.3416155 0.19656304 0.13167487 0.14206837 -0.24722013 -0.09337396 -0.22722088 -0.13227367 0.104804255 0.22049429 -0.04162779 -0.025071455 0.13548806 0.25957268 0.12947547 -0.24222733 -0.3215764 -0.052372597 -0.075518906 -0.021159861 -0.27136755 -0.15543725 -0.023240453 0.05383292 -0.2580894 0.2718017 -0.16956201 0.25649178 0.12706226 -0.046554282 0.010161906 -0.06232981 0.06486504 0.16373155 0.08437055 0.18242961 0.03422129 0.1002853 0.12730652 -0.21811979 0.18959749 0.037896488 -0.05770243 0.002976985 -0.028948506 -0.04879542 0.1011143 -0.14920568 0.1855619 0.26157543 0.07980877 -0.20530953 -0.17680962 -0.24998054 -0.12588933 0.11183381 -0.04453224 -0.092528306 -0.22313549 -0.096505895 -0.028330807 0.17604199
最新 0.20391238 0.06303846 -0.32788977 0.19140495 0.13440943 0.1347531 -0.24313617 -0.087805204 -0.20871197 -0.12719184 0.12275064 0.21268839 -0.04055665 -0.026858665 0.14630406 0.2532537 0.13357526 -0.2468847 -0.32989675 -0.044779375 -0.09010179 -0.024493948 -0.25169498 -0.14761405 -0.030382661 0.04822782 -0.2512938 0.27391297 -0.18032838 0.26859128 0.1184608 -0.040991314 0.025337623 -0.06255226 0.06587545 0.17249255 0.08134159 0.17161807 0.03251864 0.089201815 0.112505 -0.19783907 0.19528641 0.028824624 -0.048830047 -0.020696724 -0.025108166 -0.051573627 0.09638803 -0.14025837 0.19213086 0.26440257 0.07244035 -0.2072622 -0.15959959 -0.23572062 -0.15237477 0.105751134 -0.02805397 -0.10275612 -0.22866158 -0.098551184 -0.024816016 0.16218273
刑事 0.3081287 0.09300363 -0.47852296 0.27190432 0.19083549 0.19148548 -0.3573481 -0.12683974 -0.31952077 -0.18919845 0.15805697 0.29774463 -0.060259093 -0.044357907 0.20213652 0.3739539 0.19415762 -0.3494258 -0.4681184 -0.07449735 -0.119550824 -0.032296766 -0.3821634 -0.21771371 -0.047316507 0.07663442 -0.36461577 0.38098964 -0.25687698 0.37528753 0.17361034 -0.07779332 0.028312333 -0.076708496 0.09240889 0.24603279 0.105709136 0.24888271 0.04355735 0.14164805 0.16424498 -0.29872012 0.27796048 0.047601327 -0.08107449 -0.01984891 -0.037495427 -0.07019918 0.12929244 -0.20848607 0.26290348 0.38981873 0.10364721 -0.31222093 -0.24667883 -0.34761804 -0.2008428 0.14676899 -0.054675188 -0.13162571 -0.3352288 -0.12657106 -0.043707244 0.24322577
他人 0.30693182 0.10238931 -0.49806595 0.29151487 0.18961908 0.19843626 -0.37485698 -0.12982751 -0.32311946 -0.19885556 0.17644061 0.3134729 -0.05348779 -0.034770392 0.22230108 0.397538 0.19681078 -0.36314228 -0.48497415 -0.07472035 -0.124129266 -0.045806397 -0.39341533 -0.21486446 -0.03604857 0.07391253 -0.38824224 0.40194106 -0.25992632 0.385569 0.17710453 -0.07836721 0.01923499 -0.08152934 0.08273614 0.2613098 0.12124056 0.26082867 0.0364461 0.14922327 0.18047085 -0.3125447 0.2820506 0.047656428 -0.08212859 -0.023556264 -0.03867371 -0.062383242 0.14053847 -0.22520293 0.28304106 0.40471917 0.11324932 -0.31698477 -0.25508136 -0.3556464 -0.22215721 0.16186728 -0.051584303 -0.13575335 -0.3441405 -0.12999022 -0.033070102 0.25341812
想 0.29386637 0.07531014 -0.45068702 0.26904607 0.18561205 0.16936474 -0.33302733 -0.10835056 -0.29981261 -0.17367543 0.15457821 0.27768964 -0.05278399 -0.03563199 0.18966988 0.34772357 0.17730832 -0.3260824 -0.43583268 -0.06808882 -0.11928428 -0.045641575 -0.35430735 -0.20505887 -0.03743612 0.07561307 -0.34938356 0.36544585 -0.23458953 0.35154414 0.16190313 -0.05768957 0.017256774 -0.07333729 0.0788476 0.23527399 0.103469916 0.22489806 0.027523182 0.13667811 0.15423872 -0.29242632 0.25938168 0.038911287 -0.07298456 -0.0029232497 -0.029958777 -0.06702187 0.12916452 -0.19864893 0.26046067 0.34693837 0.10612474 -0.28355458 -0.22399512 -0.31706375 -0.17992648 0.13086715 -0.047488626 -0.13505815 -0.31525594 -0.12162686 -0.03902414 0.23582312
国家 0.2999492 0.098899335 -0.467367 0.2754172 0.19119383 0.19150789 -0.35446092 -0.116108425 -0.30909476 -0.18994753 0.16855305 0.30305916 -0.055255383 -0.040772986 0.20625958 0.3799778 0.17913635 -0.34150863 -0.46740803 -0.08515792 -0.11613802 -0.03151646 -0.3748522 -0.22016945 -0.046995908 0.079745226 -0.3573783 0.38967553 -0.24320374 0.3671342 0.18181464 -0.06869359 0.019136572 -0.07945622 0.09209714 0.23792061 0.11794998 0.2544576 0.026250655 0.14677729 0.1667787 -0.2902627 0.2714423 0.044832278 -0.06512249 -0.019808525 -0.03355423 -0.06773251 0.13504261 -0.21465445 0.26608512 0.386032 0.116554305 -0.29712293 -0.23469274 -0.35256422 -0.20279971 0.15321793 -0.038761154 -0.13520214 -0.32651895 -0.13788098 -0.033547726 0.23616247
刑事案件 0.29169175 0.09404906 -0.48159757 0.27150434 0.18878669 0.19268733 -0.35621768 -0.118185 -0.31014147 -0.19125593 0.16552503 0.29814038 -0.053664893 -0.033585288 0.21001258 0.3722458 0.19599639 -0.3501442 -0.46840656 -0.071132615 -0.1240017 -0.04717324 -0.36619708 -0.21343632 -0.042562313 0.07006716 -0.3648124 0.38922969 -0.25798887 0.3799617 0.17281133 -0.06574178 0.020551754 -0.07385105 0.08757163 0.25017187 0.117650814 0.24280313 0.028564902 0.13362126 0.17716213 -0.29928792 0.27163148 0.057342965 -0.0758037 -0.018176917 -0.038528424 -0.06361675 0.12732887 -0.2107929 0.2669243 0.3903263 0.11042381 -0.30279857 -0.23381911 -0.35331765 -0.21384476 0.15274395 -0.048592232 -0.13421212 -0.33640134 -0.12852356 -0.045604717 0.25322765
故意 0.32290387 0.093928814 -0.50768375 0.2853799 0.19453801 0.20244566 -0.36834508 -0.1305543 -0.33649746 -0.21183744 0.17491184 0.32158488 -0.06128603 -0.03248519 0.21742159 0.4055135 0.20325245 -0.37614608 -0.49964505 -0.08270405 -0.12970479 -0.04708846 -0.3974714 -0.22236493 -0.04779078 0.07027189 -0.39474574 0.41387013 -0.25957614 0.3949096 0.19207846 -0.065608725 0.02548212 -0.08489463 0.101429574 0.27020183 0.12088149 0.2606806 0.045971766 0.148547 0.18673152 -0.31105483 0.29696366 0.046113294 -0.07425904 -0.023973694 -0.039004955 -0.071860075 0.14668016 -0.23245266 0.27523035 0.4077458 0.12219591 -0.3193019 -0.25964844 -0.37468314 -0.21132207 0.16605206 -0.05386663 -0.14395475 -0.35738397 -0.14093737 -0.03841812 0.2693792
武器装备 0.19079882 0.053081363 -0.30828145 0.16978472 0.11151412 0.119158365 -0.21921638 -0.07904691 -0.19242424 -0.115566745 0.10171111 0.19366582 -0.030996615 -0.029288746 0.1275288 0.24538517 0.12443309 -0.22729518 -0.29978922 -0.040664494 -0.083675064 -0.029505044 -0.22929156 -0.14337051 -0.03270053 0.041958723 -0.23304379 0.24215159 -0.15791786 0.23965015 0.11442716 -0.041777752 0.014815727 -0.045574214 0.058044914 0.15302579 0.062941976 0.16304292 0.029942563 0.097011596 0.11666293 -0.18278746 0.17282936 0.025320394 -0.051877856 -0.0037329774 -0.02953863 -0.03385477 0.078401454 -0.13529436 0.16616611 0.24180104 0.079246104 -0.1882062 -0.15148064 -0.2131472 -0.132644 0.08752311 -0.026187 -0.083430365 -0.20167913 -0.07992756 -0.029942136 0.15057375
需要 0.36888105 0.11920546 -0.57182294 0.33589557 0.2333757 0.2304776 -0.42107657 -0.14173968 -0.37522855 -0.22658099 0.1916791 0.36762935 -0.062554635 -0.04851216 0.25765997 0.45282608 0.23217358 -0.42961812 -0.57612073 -0.09677481 -0.14316984 -0.05019583 -0.4516481 -0.25771445 -0.05788984 0.08334226 -0.45246604 0.471074 -0.3128417 0.46366382 0.21834134 -0.08154342 0.03391419 -0.10061206 0.10893237 0.29657334 0.13618283 0.298811 0.03878845 0.17000395 0.212375 -0.36509818 0.33075953 0.06402731 -0.088019386 -0.019624326 -0.033310205 -0.07091179 0.16413133 -0.25282294 0.32661924 0.46195024 0.1367707 -0.36963657 -0.28270912 -0.4211541 -0.25809476 0.1862088 -0.0532907 -0.16440746 -0.3996001 -0.15462984 -0.043161884 0.30380052
危险 0.26452282 0.07308849 -0.41112295 0.24649897 0.17248951 0.15815157 -0.2996687 -0.1001359 -0.25904658 -0.16757312 0.1325394 0.26334745 -0.04132201 -0.04088711 0.18475622 0.33314168 0.172169 -0.2946982 -0.41216457 -0.06420831 -0.094487995 -0.034701414 -0.33059812 -0.19456531 -0.030338077 0.05947182 -0.3141857 0.34284374 -0.21498051 0.33160442 0.15199189 -0.0642715 0.013505504 -0.07038611 0.07140209 0.2203802 0.103961095 0.20871806 0.020621087 0.13034678 0.14350529 -0.25383252 0.24302416 0.0358439 -0.06191971 -0.010144154 -0.038198967 -0.050649088 0.12174197 -0.17572124 0.22159295 0.32608 0.104610346 -0.2722455 -0.21227504 -0.30769384 -0.17599547 0.13176972 -0.035033114 -0.12009061 -0.2842033 -0.11505769 -0.026328662 0.20315246
骗 0.24722686 0.08559357 -0.4009765 0.23010853 0.16061941 0.15617076 -0.29561257 -0.1027986 -0.24840331 -0.15874822 0.1281027 0.23877609 -0.032885913 -0.02471065 0.1630514 0.3097192 0.16187572 -0.28233042 -0.38402775 -0.07103999 -0.10821628 -0.027028974 -0.30313745 -0.18190546 -0.035580367 0.063848905 -0.30410823 0.31094617 -0.20233321 0.31165543 0.14732414 -0.06366929 0.025030712 -0.07256654 0.07508011 0.21612605 0.09359666 0.21123564 0.031876523 0.111178294 0.14609806 -0.2523105 0.22251128 0.04161292 -0.057080176 -0.019238954 -0.020470453 -0.053431254 0.11761215 -0.16937219 0.2156831 0.3095793 0.08919873 -0.24638973 -0.20658892 -0.28597364 -0.16330612 0.12895973 -0.045958962 -0.10572313 -0.26844075 -0.112812735 -0.02738467 0.20530824
条件 0.22221662 0.073744155 -0.35625866 0.20560448 0.13387924 0.14828919 -0.26095942 -0.09418262 -0.22386348 -0.14428034 0.112829946 0.22470893 -0.042355314 -0.027894221 0.15455097 0.28423905 0.13427566 -0.26061097 -0.3467045 -0.067342825 -0.09515252 -0.031413473 -0.28230813 -0.15681174 -0.033824045 0.054577645 -0.27070954 0.27726868 -0.18779755 0.27489442 0.13260517 -0.049720965 0.012246755 -0.05101352 0.05727137 0.17550635 0.0831581 0.18995506 0.03063726 0.11267467 0.11778731 -0.2138273 0.19833869 0.03794916 -0.057253547 -0.0034097661 -0.025998818 -0.053128637 0.096036814 -0.16182494 0.20128271 0.2921974 0.085392125 -0.2314483 -0.18072294 -0.2620145 -0.15800475 0.1118181 -0.039156307 -0.100950524 -0.2540652 -0.09798301 -0.035617508 0.18920234
概念 0.18401451 0.061022975 -0.30484003 0.17926118 0.1192922 0.12742817 -0.21415955 -0.06603606 -0.20218165 -0.123444095 0.09703072 0.18651953 -0.034030084 -0.016276093 0.12829027 0.22632319 0.12480741 -0.21962512 -0.28731036 -0.049241796 -0.07838617 -0.028278546 -0.23015949 -0.13343664 -0.018306041 0.038388964 -0.23376869 0.24191655 -0.16323374 0.24331886 0.10854187 -0.041112665 0.0057942457 -0.05082627 0.049398355 0.14820385 0.062325373 0.16243328 0.02248979 0.09512388 0.10808491 -0.19127636 0.17425263 0.023208113 -0.04653671 -0.0018003401 -0.021674782 -0.032293502 0.086077385 -0.13640326 0.16550273 0.24849732 0.0738476 -0.19573504 -0.15625264 -0.22022597 -0.12489986 0.09405613 -0.03570139 -0.08335607 -0.21243021 -0.08834548 -0.031002594 0.15132153
驾驶 0.24320216 0.079775035 -0.39301118 0.23356557 0.16020477 0.1573479 -0.29655945 -0.0990902 -0.26624873 -0.15361854 0.12987615 0.24370022 -0.053713553 -0.02400239 0.17654906 0.31865278 0.15264133 -0.29337084 -0.39509442 -0.06173699 -0.09199956 -0.032619506 -0.31921136 -0.17382203 -0.035569355 0.058691576 -0.30403274 0.32312614 -0.21516323 0.3217733 0.15532942 -0.05685581 0.01550328 -0.062487148 0.06465228 0.19838402 0.10159067 0.20253173 0.039348252 0.11757649 0.1497941 -0.24782458 0.22861062 0.042018056 -0.069278 -0.014174529 -0.024702638 -0.051234793 0.10735532 -0.17091271 0.22078282 0.33116785 0.095665224 -0.25811064 -0.19661422 -0.2894019 -0.1699457 0.12597157 -0.045266878 -0.12117505 -0.2812944 -0.11408183 -0.026606243 0.2138059
意思 0.17919914 0.059309606 -0.2849867 0.1674126 0.11732335 0.114345364 -0.2053263 -0.073160425 -0.17819826 -0.108654894 0.087643586 0.16800779 -0.027303882 -0.026943257 0.121469244 0.22145419 0.11645891 -0.20168673 -0.2761202 -0.04845545 -0.07210732 -0.02500139 -0.22141571 -0.12608269 -0.024180755 0.05031996 -0.22238597 0.22051701 -0.1493373 0.22525139 0.10943101 -0.042879768 0.012851034 -0.04839869 0.053650808 0.14341106 0.06553213 0.14204766 0.014025295 0.08886047 0.10081796 -0.18296532 0.1629527 0.025302708 -0.036150135 -0.0033485745 -0.023793917 -0.032252453 0.08132752 -0.12518518 0.1517896 0.23261786 0.05722335 -0.17267177 -0.132894 -0.19736585 -0.12150277 0.09011481 -0.021714251 -0.07414846 -0.20178817 -0.07646497 -0.020020986 0.14388444
买卖 0.19974999 0.06394564 -0.3226483 0.19365336 0.12972443 0.12564194 -0.24778584 -0.07432347 -0.21507145 -0.12617883 0.109575115 0.20884386 -0.03806524 -0.03061648 0.14491771 0.26141554 0.1367544 -0.23979118 -0.325375 -0.061263606 -0.08784999 -0.023907544 -0.2516026 -0.15745026 -0.021446979 0.053659614 -0.24740218 0.27213204 -0.18208209 0.2537304 0.12787464 -0.051047564 0.021625867 -0.0541466 0.06691287 0.16594563 0.07392418 0.16534235 0.023229975 0.0965271 0.117943056 -0.20261994 0.19210413 0.029216725 -0.056756616 -0.011102552 -0.024925163 -0.04820511 0.0874289 -0.1527095 0.18756108 0.26177698 0.08346543 -0.21423103 -0.16569208 -0.24052806 -0.14262699 0.10758117 -0.025010873 -0.08548761 -0.23223162 -0.09414806 -0.032539953 0.16824721
枪支罪 0.15741184 0.050394654 -0.25425065 0.14059082 0.0986446 0.094973184 -0.18708338 -0.059869 -0.15749352 -0.1059584 0.09417968 0.15604751 -0.024655156 -0.019116366 0.11657435 0.20817296 0.105463475 -0.18737324 -0.24748664 -0.038598932 -0.0682512 -0.024188604 -0.18951735 -0.10835338 -0.025378339 0.039213046 -0.19093402 0.21168342 -0.13567622 0.19561668 0.09312895 -0.028973224 0.020539064 -0.04296253 0.043364495 0.1251833 0.06387778 0.124575235 0.023579728 0.07088929 0.09656133 -0.15592967 0.147709 0.024441985 -0.031423423 -0.015457328 -0.010806354 -0.025908077 0.06491219 -0.121151835 0.14341898 0.19731984 0.06611691 -0.16325952 -0.121036194 -0.18210548 -0.116801485 0.085357726 -0.03101565 -0.067108236 -0.17837937 -0.075054735 -0.017891845 0.13068601
会判 0.23505865 0.07687205 -0.38129234 0.20905688 0.13916521 0.15722197 -0.27950472 -0.09792699 -0.23873496 -0.15804866 0.13006014 0.23684013 -0.049549263 -0.034200683 0.16819619 0.29477334 0.15124334 -0.2815141 -0.36097795 -0.05482424 -0.0879641 -0.027846701 -0.30080426 -0.17074259 -0.023046128 0.048711732 -0.28491193 0.30289227 -0.19914213 0.30679744 0.13754259 -0.06218095 0.010095782 -0.059949715 0.067275554 0.19739592 0.09145026 0.20459393 0.030315205 0.10475612 0.13600437 -0.23895518 0.22148882 0.038938068 -0.058961157 -0.012523767 -0.028754111 -0.053091414 0.10088471 -0.16620637 0.20465162 0.30706254 0.08762985 -0.2357634 -0.19417372 -0.27530465 -0.1642356 0.11770531 -0.045773435 -0.114552535 -0.2678728 -0.10206768 -0.036689255 0.19743206
国家机关 0.21730174 0.061620615 -0.3531998 0.20585412 0.1315746 0.14096332 -0.25721008 -0.09246758 -0.22345184 -0.14854823 0.12641673 0.22273017 -0.04140076 -0.030113915 0.14760289 0.28283286 0.14201973 -0.2515935 -0.33965316 -0.05746578 -0.08568388 -0.025900172 -0.27113774 -0.16315976 -0.023248551 0.057043362 -0.27433917 0.2866456 -0.19336298 0.28102928 0.13205734 -0.054369655 0.026644807 -0.04992191 0.070233636 0.18150459 0.08059754 0.18894394 0.022292756 0.10215316 0.1198297 -0.21356721 0.20872058 0.040758166 -0.05443339 -0.006498861 -0.02703347 -0.05031226 0.101303875 -0.16226451 0.20034243 0.29000717 0.086331084 -0.23104857 -0.18408354 -0.25632808 -0.16150908 0.103552446 -0.036622226 -0.10008713 -0.23847984 -0.1004549 -0.030915778 0.17023103
抢夺 0.20534866 0.065074876 -0.32208213 0.17920022 0.12009879 0.121931314 -0.24028914 -0.07204436 -0.21046452 -0.13303092 0.10811596 0.20001635 -0.04004847 -0.02576975 0.14684078 0.25950533 0.123212084 -0.23618388 -0.31039184 -0.05517221 -0.07550008 -0.03258609 -0.2518974 -0.13778058 -0.027375467 0.05663763 -0.2453289 0.26334864 -0.16437328 0.24862574 0.11243505 -0.04974266 0.019245163 -0.057450186 0.056512132 0.17101416 0.078988776 0.16977412 0.022428088 0.0896903 0.10884968 -0.20226781 0.18440899 0.036398474 -0.04274541 -0.006871296 -0.023704182 -0.03377825 0.080924004 -0.1383476 0.17508844 0.26411018 0.07548157 -0.1979493 -0.16116314 -0.23057024 -0.13238354 0.09987753 -0.03707179 -0.089462 -0.21977228 -0.088635236 -0.019360693 0.16617373
网络 0.16949107 0.046831418 -0.2612968 0.15043852 0.10100354 0.10333989 -0.19866775 -0.07006073 -0.17588432 -0.10443024 0.09207246 0.17264856 -0.024555365 -0.028375726 0.10743445 0.2094098 0.10509439 -0.19860226 -0.25477505 -0.050886046 -0.066816434 -0.026505224 -0.20495684 -0.12881263 -0.026161382 0.04730447 -0.20111658 0.22449577 -0.13690346 0.20788671 0.10489215 -0.041625228 0.0119736 -0.044433367 0.056948148 0.14348762 0.056957494 0.14678627 0.01577398 0.07018492 0.100047484 -0.17169674 0.16026874 0.02016133 -0.03889752 -0.009735006 -0.021039056 -0.02849406 0.08374078 -0.12354821 0.14709789 0.22219902 0.05438924 -0.17007028 -0.14394976 -0.18876919 -0.10854283 0.07626227 -0.03505621 -0.077337414 -0.17831239 -0.06499724 -0.012209067 0.13342555
聚众斗殴 0.1656558 0.05104929 -0.26232475 0.14893931 0.09480563 0.09987099 -0.19065408 -0.07184041 -0.16319194 -0.09980959 0.09460194 0.15822884 -0.031045219 -0.01680818 0.11489203 0.2042565 0.101186745 -0.18648191 -0.2535644 -0.04926459 -0.06442356 -0.017041428 -0.21155465 -0.12386082 -0.020934723 0.04599697 -0.19453606 0.20281486 -0.13415429 0.21429756 0.09018336 -0.043544754 0.017613826 -0.04796945 0.051333982 0.1291439 0.05965489 0.14232546 0.026535572 0.07442981 0.08991213 -0.15673618 0.15485272 0.019964531 -0.034415297 -0.0058760135 -0.010814344 -0.035240155 0.07392844 -0.11365223 0.14253964 0.20313835 0.059581794 -0.16728616 -0.13452175 -0.19365047 -0.11868907 0.08516365 -0.029068941 -0.07392772 -0.18299843 -0.06910102 -0.02516514 0.13273248
变造 0.21426767 0.06287898 -0.3435621 0.18930003 0.12673776 0.14210513 -0.25082168 -0.08693122 -0.2221492 -0.14069314 0.10805382 0.20687295 -0.037778843 -0.031538457 0.15278442 0.27114516 0.13813269 -0.2535827 -0.34034106 -0.047006417 -0.08712376 -0.028893875 -0.27064952 -0.1449347 -0.020647677 0.04895661 -0.26711997 0.27873015 -0.18530038 0.2694933 0.1251002 -0.042604376 0.009563042 -0.06464699 0.06959903 0.18450986 0.072434254 0.178064 0.019272372 0.1087616 0.11408838 -0.20560339 0.19767101 0.0371079 -0.047290143 -0.0041731116 -0.019447858 -0.041745782 0.08811767 -0.15360017 0.1954062 0.27804843 0.08474347 -0.21738368 -0.17433289 -0.2511275 -0.1473329 0.099305026 -0.032120388 -0.09634859 -0.24333468 -0.085406184 -0.023345863 0.17997316
出售 0.23767254 0.0736958 -0.36034504 0.20752676 0.13695663 0.14512461 -0.2717916 -0.09217823 -0.23775138 -0.14988926 0.11642419 0.24214889 -0.03367116 -0.032357372 0.16565225 0.29028216 0.14087614 -0.27324566 -0.36953905 -0.05963979 -0.0950683 -0.02597309 -0.2830072 -0.16625349 -0.035814606 0.054669954 -0.28189132 0.30488163 -0.1952654 0.2953211 0.14237879 -0.0587312 0.016497683 -0.0659858 0.06597657 0.19785666 0.08841996 0.18762589 0.029258624 0.106227815 0.13835241 -0.23771721 0.21151716 0.031348266 -0.060144674 -0.020568531 -0.019648973 -0.053422075 0.107822694 -0.16651694 0.19793373 0.30252826 0.0869928 -0.24226803 -0.18124327 -0.27362704 -0.16427024 0.10830472 -0.033897575 -0.10934587 -0.25342277 -0.09522441 -0.03140576 0.1984425
后 0.28551343 0.0893433 -0.44551438 0.26169497 0.17270267 0.1803549 -0.33033013 -0.11191514 -0.28884 -0.17305852 0.15572765 0.28835914 -0.050371025 -0.0417853 0.18761933 0.35047472 0.18467864 -0.32701284 -0.4480058 -0.0754616 -0.11495451 -0.04497195 -0.34852114 -0.20074934 -0.03540009 0.066223145 -0.3366678 0.35660186 -0.24372283 0.34878716 0.16199805 -0.0695551 0.018583193 -0.08083362 0.076417886 0.24092337 0.09667928 0.24003047 0.033373654 0.12483118 0.15653098 -0.27532843 0.2572396 0.04018596 -0.06861031 -0.014157489 -0.026740974 -0.055424597 0.12587918 -0.20052215 0.25576743 0.36708307 0.09994009 -0.28629804 -0.23215169 -0.32582307 -0.18861343 0.1377558 -0.04136724 -0.12739797 -0.30713013 -0.12304056 -0.029324448 0.22927067
伪劣 0.16897082 0.053787235 -0.24548112 0.14730442 0.099009365 0.10121096 -0.19592708 -0.06866667 -0.17438577 -0.0957391 0.08278617 0.1508573 -0.038374927 -0.015551618 0.109132744 0.19919142 0.10746327 -0.18009494 -0.25976044 -0.03792393 -0.05856538 -0.023765882 -0.2041673 -0.121144496 -0.018805731 0.043765504 -0.20282748 0.2019969 -0.14429283 0.20824549 0.0847482 -0.0403589 0.02091545 -0.03302704 0.03699459 0.13504796 0.04942185 0.12444322 0.02419006 0.07832941 0.08882503 -0.15511136 0.14866939 0.022586627 -0.047125623 -0.01442528 -0.023654241 -0.026498236 0.062732704 -0.12254142 0.13961345 0.21436255 0.062377434 -0.15519041 -0.13193464 -0.19254139 -0.10818889 0.07501966 -0.018137904 -0.073335186 -0.1742211 -0.06532493 -0.014791493 0.1394095
要 0.28749123 0.093550734 -0.45582083 0.26221475 0.18047124 0.17888102 -0.33569345 -0.10672607 -0.29874948 -0.17788404 0.15864103 0.28062907 -0.042079277 -0.038506906 0.1923396 0.3556314 0.18692788 -0.33492994 -0.43392053 -0.079795 -0.10939993 -0.042462546 -0.35158792 -0.20101228 -0.033865727 0.07494941 -0.33863866 0.36925313 -0.23944815 0.35402176 0.16313528 -0.07066644 0.023172826 -0.07438431 0.084628746 0.23606184 0.100944996 0.2322525 0.029238326 0.12923403 0.15422735 -0.2883083 0.26236686 0.05158376 -0.06408655 -0.020594658 -0.023584535 -0.05886479 0.1236245 -0.19655854 0.24595131 0.35923746 0.097062625 -0.28361756 -0.22155464 -0.32277137 -0.19530322 0.1340054 -0.04433103 -0.12232499 -0.30499896 -0.11665308 -0.029514294 0.23672818
违法 0.27602428 0.088057 -0.43900687 0.25491428 0.1686355 0.17528068 -0.32549646 -0.116228476 -0.2817809 -0.17669204 0.15022682 0.27378666 -0.04142683 -0.0429476 0.18257985 0.34249926 0.1773082 -0.31740743 -0.42671162 -0.07550729 -0.109433904 -0.04188762 -0.34939542 -0.19149107 -0.04521247 0.068769105 -0.3316148 0.35906857 -0.23115681 0.34080362 0.1688899 -0.07140971 0.016569765 -0.064691685 0.08270622 0.2284776 0.09763498 0.22277717 0.03140381 0.13343117 0.15432218 -0.2775713 0.25856602 0.049881797 -0.06983956 -0.012480896 -0.027489904 -0.05926067 0.13133648 -0.19749391 0.2479309 0.3484492 0.102242604 -0.2864531 -0.2229168 -0.31452087 -0.1825012 0.13573125 -0.039116226 -0.13367853 -0.3022878 -0.1276207 -0.034329347 0.23361589
行贿罪 0.10004693 0.035533383 -0.16061522 0.08920056 0.05571861 0.056241903 -0.114698656 -0.03548983 -0.10461427 -0.05828889 0.0506525 0.09580376 -0.016082888 -0.005570717 0.069155864 0.121352285 0.06591199 -0.117877014 -0.15099137 -0.03265694 -0.036994435 -0.0055321944 -0.11710859 -0.07398411 -0.0188182 0.022714125 -0.11265117 0.12471935 -0.07693026 0.12879094 0.052828476 -0.021613115 0.009546436 -0.02395054 0.02791466 0.08285221 0.04181184 0.07521784 0.007833184 0.044001784 0.05340506 -0.09903598 0.09034307 0.023290059 -0.022925565 -0.0102948975 -0.0029548088 -0.015012684 0.04731395 -0.06473213 0.09083036 0.12928022 0.02960984 -0.10019214 -0.070226155 -0.11799024 -0.061164223 0.04096188 -0.00975187 -0.050701205 -0.11126455 -0.047757953 -0.012777457 0.06996331
细分 0.11527982 0.030259814 -0.18360032 0.10277513 0.06815589 0.06703663 -0.1329882 -0.041605048 -0.106660426 -0.06812331 0.062812455 0.11333647 -0.01590869 -0.018895194 0.08638799 0.13538137 0.06690116 -0.13068894 -0.18031152 -0.03506682 -0.053768203 -0.011861861 -0.13488469 -0.07942341 -0.0069706533 0.032461334 -0.1344019 0.1517465 -0.08886861 0.1418602 0.069552496 -0.02225651 0.014296503 -0.02573346 0.035754032 0.089206874 0.033159323 0.09960772 0.010503032 0.059886 0.061538137 -0.105414875 0.10151774 0.010083972 -0.027253207 -0.013158657 -0.0051539983 -0.02933791 0.04656789 -0.084090054 0.09665938 0.15098003 0.049218293 -0.11549854 -0.08798822 -0.13107303 -0.07491075 0.053459182 -0.010612282 -0.047248207 -0.1230632 -0.056992996 -0.01534627 0.084160775
弹药罪 0.12545681 0.04046411 -0.21210827 0.12602173 0.08471521 0.089192644 -0.14769815 -0.048729785 -0.13049771 -0.084222905 0.064018734 0.1301944 -0.030608516 -0.021835335 0.09674061 0.16825938 0.07940036 -0.15802391 -0.2002372 -0.036198523 -0.05730355 -0.024622604 -0.16365567 -0.10176807 -0.013154452 0.026589463 -0.16165797 0.17657857 -0.11562036 0.16784807 0.080758035 -0.029850127 0.014970609 -0.032501705 0.030030107 0.108640686 0.05648257 0.109216824 0.0217576 0.058385435 0.06682712 -0.13494363 0.117403165 0.0286883 -0.03731801 -0.01090056 -0.019069577 -0.033828236 0.05809311 -0.09259758 0.11848174 0.17288576 0.047390815 -0.12733553 -0.09992861 -0.15322767 -0.09788298 0.05718737 -0.022065809 -0.052112743 -0.15236169 -0.05786616 -0.023921251 0.10827974
盗窃罪 0.16149147 0.04537506 -0.26318768 0.14723563 0.103883296 0.10803197 -0.19704112 -0.069099635 -0.16963688 -0.10120145 0.0887766 0.16737692 -0.027608547 -0.02246922 0.115476616 0.20358713 0.10560797 -0.20079134 -0.2585839 -0.05008042 -0.068327 -0.029357709 -0.20348653 -0.12639925 -0.015792396 0.047432594 -0.20151825 0.21398152 -0.13478607 0.20966873 0.09414423 -0.043711685 0.017417954 -0.039183084 0.040508952 0.13871495 0.062009633 0.1412132 0.02093924 0.08561239 0.10028444 -0.16852799 0.15176289 0.028634405 -0.045085166 -0.003945801 -0.015035762 -0.031544495 0.0767212 -0.11347724 0.14367194 0.21585274 0.062111363 -0.17069945 -0.13140593 -0.20034626 -0.11661337 0.07412121 -0.035520006 -0.06931368 -0.18866953 -0.06992907 -0.014093339 0.13026638
制造 0.20360227 0.064053595 -0.31980154 0.18220648 0.122687384 0.120848365 -0.23918359 -0.08063758 -0.2147308 -0.12438244 0.10409074 0.21145032 -0.0339274 -0.023860145 0.14271753 0.25210795 0.13303557 -0.22998913 -0.32039237 -0.047742344 -0.07165161 -0.018930519 -0.24694908 -0.14865759 -0.034080174 0.044561353 -0.25308233 0.26635063 -0.17443545 0.25878787 0.115224116 -0.041377973 0.024267213 -0.050123215 0.06256676 0.16837509 0.07135256 0.16797122 0.022075796 0.09643498 0.11255845 -0.2072662 0.18215196 0.03966806 -0.04791939 -0.01984313 -0.014780102 -0.038585555 0.08348117 -0.14482208 0.1711756 0.25010318 0.07900042 -0.21149307 -0.160555 -0.23771231 -0.13764429 0.098285 -0.025634125 -0.084813565 -0.22997425 -0.08789906 -0.03130863 0.1638886
能否 0.2651601 0.07138887 -0.41800094 0.23401973 0.15700968 0.17268042 -0.30193928 -0.11143303 -0.26365772 -0.16887212 0.1326589 0.25752577 -0.036932684 -0.036999088 0.17829412 0.328685 0.16512583 -0.3040877 -0.40920085 -0.0594631 -0.10793597 -0.04011395 -0.32893345 -0.19475065 -0.03095198 0.069462046 -0.32500675 0.33508193 -0.21688645 0.3290396 0.15055902 -0.058129005 0.024043566 -0.07073448 0.08155626 0.21918447 0.087866634 0.2215328 0.026183816 0.13152534 0.1506468 -0.26145142 0.2347668 0.04343739 -0.06529961 -0.015700525 -0.037861485 -0.04545507 0.112606086 -0.1890995 0.2276742 0.3388852 0.098857194 -0.2670925 -0.20375903 -0.29901382 -0.17626351 0.1328136 -0.045978002 -0.12727663 -0.2890007 -0.10641217 -0.032063577 0.21360509
肇事罪 0.13268209 0.046278764 -0.21532993 0.11672392 0.081505746 0.08725451 -0.15859856 -0.059741754 -0.13202688 -0.094523765 0.08090237 0.14053077 -0.032992512 -0.017136168 0.09980186 0.17278074 0.0806556 -0.15479022 -0.21979201 -0.027579643 -0.051175766 -0.017604275 -0.16260199 -0.09591064 -0.013381325 0.037415862 -0.16511768 0.1756787 -0.10772074 0.17410009 0.084834054 -0.036434807 0.015449821 -0.040501017 0.04667446 0.11129231 0.04850217 0.1049464 0.008496432 0.072304346 0.0806241 -0.14023516 0.119376905 0.02959952 -0.031226965 -0.013815943 -0.017183838 -0.029285863 0.06827371 -0.098700374 0.11785235 0.16526267 0.05044214 -0.13930412 -0.10897428 -0.15008745 -0.09741634 0.06435183 -0.030136533 -0.060886096 -0.14822337 -0.050219696 -0.009298067 0.116499625
定义 0.16797376 0.050601672 -0.26124907 0.15322818 0.10876291 0.1128869 -0.20089974 -0.0644324 -0.18031915 -0.11549929 0.09296379 0.17243102 -0.023325536 -0.026374517 0.12349721 0.21392268 0.11189093 -0.20236176 -0.26224127 -0.042594727 -0.059106063 -0.02297731 -0.2050535 -0.12481734 -0.020969646 0.034440767 -0.20666559 0.21007995 -0.1432575 0.2144819 0.100067176 -0.03712315 0.004035834 -0.041007772 0.049180232 0.14563613 0.061995912 0.133098 0.015114128 0.08669974 0.08852097 -0.16327764 0.15441313 0.019558532 -0.036665384 -0.0047642007 -0.021419741 -0.031056924 0.08204566 -0.12504008 0.15336145 0.21699773 0.05753216 -0.172345 -0.12757832 -0.20114055 -0.1145456 0.07943186 -0.03157602 -0.069942035 -0.1875355 -0.06498204 -0.018356275 0.13231112
假币 0.16244368 0.044166002 -0.27255538 0.14713544 0.11040595 0.110920966 -0.19593596 -0.06991161 -0.1799817 -0.1034269 0.08753765 0.16293909 -0.037761353 -0.026620748 0.11696828 0.21675737 0.107695736 -0.18815379 -0.2584766 -0.03423155 -0.07362076 -0.018562313 -0.21095121 -0.122121006 -0.01665809 0.046258826 -0.21111543 0.21833478 -0.14583847 0.21301539 0.097250015 -0.042698443 0.018835548 -0.039148245 0.04940967 0.1437631 0.05840261 0.13885325 0.012501687 0.08149775 0.08883897 -0.16681017 0.1607066 0.021993792 -0.042384535 -0.009718906 -0.016372705 -0.03765417 0.06819718 -0.114596255 0.14192478 0.21195787 0.06958502 -0.17561592 -0.12986466 -0.19053832 -0.119365 0.08761784 -0.02367101 -0.08075373 -0.1925098 -0.06596893 -0.020160316 0.1327112
致人 0.24461909 0.069890596 -0.37455624 0.21856773 0.1553575 0.15499806 -0.27320457 -0.08847538 -0.25014082 -0.14507851 0.13675715 0.23206578 -0.050212357 -0.038467694 0.16269258 0.29077843 0.1449636 -0.2715663 -0.36955383 -0.0695928 -0.09816386 -0.040267333 -0.29761496 -0.17722541 -0.02878255 0.06536355 -0.2842131 0.29813972 -0.20135966 0.29064256 0.1461993 -0.053647608 0.009257674 -0.05277771 0.05905971 0.19189091 0.09261579 0.20490567 0.028540732 0.11991047 0.12674919 -0.23737518 0.21921715 0.03925414 -0.054307315 -0.008922106 -0.033552174 -0.056944445 0.113295324 -0.15992345 0.2108528 0.31068522 0.08246354 -0.24246377 -0.17865439 -0.27155003 -0.15615778 0.11067083 -0.04679559 -0.116454855 -0.2709342 -0.1027271 -0.036413442 0.19569165
是否 0.30300897 0.09949932 -0.48322782 0.27977154 0.19205396 0.19766356 -0.36563277 -0.11887439 -0.31752965 -0.19386174 0.17280492 0.29951468 -0.059899256 -0.047672268 0.20421661 0.38742748 0.18825316 -0.36499143 -0.47368735 -0.07693025 -0.12430204 -0.045030743 -0.38975188 -0.21362522 -0.046354953 0.06774117 -0.37663874 0.39221862 -0.2526271 0.3873786 0.18730383 -0.07858326 0.01779101 -0.081260905 0.09607002 0.2537567 0.11787314 0.25513318 0.039879203 0.14509144 0.18016513 -0.30440223 0.2849842 0.057280473 -0.08141725 -0.014868988 -0.039511815 -0.06332986 0.13495035 -0.22433698 0.26529393 0.39705318 0.118172504 -0.313929 -0.25024584 -0.35293707 -0.20635363 0.15148494 -0.05685411 -0.13653581 -0.34460977 -0.13702844 -0.034877673 0.25484526
呢 0.17285484 0.05231042 -0.27004862 0.16167812 0.10419717 0.10900883 -0.1999067 -0.07599862 -0.18425253 -0.1053152 0.08710278 0.17968659 -0.02819983 -0.03037905 0.121393844 0.2228217 0.113495655 -0.21095034 -0.27029237 -0.042120703 -0.061915696 -0.023066785 -0.21050614 -0.13228026 -0.023751883 0.044525106 -0.20922953 0.2192176 -0.1406208 0.2233423 0.1023871 -0.046603903 0.019054718 -0.041870527 0.04316725 0.1406261 0.06143788 0.15250026 0.015313201 0.08423935 0.096115716 -0.16697913 0.16010278 0.03644436 -0.03710368 -0.012470703 -0.018117163 -0.031141166 0.0824732 -0.12998338 0.16057207 0.21612154 0.062994055 -0.17118995 -0.13523553 -0.1962756 -0.11404076 0.0831088 -0.033486452 -0.08391231 -0.19849098 -0.07012831 -0.02185652 0.14214408
多长时间 0.24447188 0.07632294 -0.3771628 0.21909215 0.15597408 0.14331752 -0.2731066 -0.0924074 -0.24611562 -0.14918001 0.12084564 0.24471653 -0.049824968 -0.02973335 0.15782572 0.29842728 0.14246266 -0.27853578 -0.37705648 -0.06333443 -0.09710812 -0.032827273 -0.29484722 -0.16273865 -0.028810881 0.058336556 -0.29050127 0.30439243 -0.1952596 0.29504216 0.14234419 -0.05573433 0.017787792 -0.06360195 0.064982146 0.19177689 0.08734325 0.19906145 0.03460682 0.109518975 0.14127202 -0.22864984 0.21371566 0.04180073 -0.05783932 -0.01534974 -0.033820387 -0.05706021 0.109102786 -0.16484672 0.2172871 0.30765256 0.08225317 -0.2329047 -0.19298527 -0.27196103 -0.16075942 0.12014835 -0.041974876 -0.104689345 -0.2583561 -0.10882115 -0.03775488 0.1996771
犯罪构成 0.16039586 0.055417936 -0.24005078 0.15021782 0.10021269 0.1036628 -0.1771163 -0.054591194 -0.15690398 -0.095943294 0.08981079 0.1604445 -0.028639754 -0.015928684 0.10276684 0.18784629 0.10473785 -0.17817451 -0.24949805 -0.038360752 -0.05465863 -0.02294466 -0.19698027 -0.11343816 -0.02192612 0.044072855 -0.19592728 0.20272051 -0.12974828 0.19031715 0.08803597 -0.03006252 0.018457947 -0.045941245 0.05129886 0.13472518 0.06347398 0.13495229 0.011991142 0.080227464 0.08794625 -0.16147953 0.14410557 0.029383905 -0.044393122 -0.0084155835 -0.010848895 -0.039482117 0.06464595 -0.11151195 0.13812132 0.19515133 0.055782024 -0.16379811 -0.12855579 -0.18374747 -0.114080735 0.07670593 -0.02066894 -0.06801519 -0.18001696 -0.071812175 -0.020834891 0.12933992
持有 0.13716453 0.04324039 -0.20707853 0.12176684 0.08124282 0.088701054 -0.16025929 -0.04378982 -0.1388036 -0.08075466 0.06993667 0.13424066 -0.0154635655 -0.012345249 0.09590012 0.16031389 0.08437913 -0.16071652 -0.20092744 -0.029851472 -0.054433905 -0.01554047 -0.16741785 -0.09035893 -0.015072865 0.03964097 -0.16141622 0.16365653 -0.11220785 0.16767402 0.07319806 -0.03425456 0.012794799 -0.035366632 0.046595994 0.115653105 0.046495862 0.10245385 0.016089618 0.055599503 0.08180734 -0.12774128 0.12864874 0.02103298 -0.036218975 -0.014521345 -0.020501092 -0.031338844 0.05204132 -0.09996944 0.11698891 0.16774671 0.056783903 -0.13365217 -0.108120605 -0.15141433 -0.086755954 0.0664021 -0.025965946 -0.06091596 -0.13994566 -0.05567314 -0.012922445 0.10572091
妨害 0.22143722 0.0682061 -0.35065147 0.2012053 0.14410259 0.14013445 -0.26846164 -0.08552697 -0.23703405 -0.14247164 0.1204754 0.21611013 -0.03288193 -0.025614832 0.15015347 0.28212172 0.14148371 -0.2598629 -0.34949687 -0.050300267 -0.08164442 -0.02926347 -0.28052494 -0.15208943 -0.026138574 0.05805857 -0.27418113 0.2820953 -0.17868112 0.27965447 0.12694643 -0.046807118 0.015221927 -0.051379368 0.06777933 0.18523714 0.088713564 0.19087692 0.018044345 0.103541955 0.12878923 -0.22778128 0.2083263 0.036317192 -0.05018961 -0.012145672 -0.029228 -0.04206195 0.09770521 -0.15494122 0.200911 0.2778098 0.07786591 -0.23194276 -0.18361723 -0.25051755 -0.1525236 0.11255827 -0.02856305 -0.10022506 -0.23840857 -0.10335344 -0.029634578 0.18753807
卖淫罪 0.14809744 0.04826776 -0.23888266 0.13754125 0.09370374 0.08802265 -0.17984532 -0.05475033 -0.15572461 -0.087910175 0.07885294 0.14201005 -0.033657126 -0.015534469 0.11008684 0.17978849 0.08663448 -0.18016465 -0.2306673 -0.0427046 -0.052766375 -0.023944514 -0.1872164 -0.101052955 -0.026231796 0.03318297 -0.18396498 0.18741907 -0.12344432 0.18649557 0.07992273 -0.041505754 0.003492355 -0.036397062 0.035705812 0.12321558 0.046216235 0.123335816 0.026275087 0.07303218 0.082760006 -0.14745419 0.13798933 0.025590777 -0.03290334 -0.0019138253 -0.011692391 -0.02473865 0.0646145 -0.102836944 0.1297015 0.19605455 0.050557673 -0.15690723 -0.11535826 -0.17951001 -0.10609726 0.067504846 -0.03183521 -0.06851929 -0.16476381 -0.069205076 -0.014699068 0.11548725
钱 0.24088933 0.06908818 -0.388491 0.22114119 0.1571696 0.1576897 -0.28590742 -0.10178933 -0.25518218 -0.15995638 0.13883856 0.24881513 -0.044920117 -0.035661783 0.16927695 0.3057119 0.15272677 -0.2892869 -0.38977304 -0.07210992 -0.1004627 -0.031012047 -0.31060022 -0.18115391 -0.03314843 0.055828672 -0.29828745 0.31404352 -0.20140693 0.3129273 0.1437719 -0.053441938 0.011674186 -0.068631485 0.067873314 0.21166338 0.085574 0.21036842 0.032894224 0.10717741 0.14425178 -0.23781365 0.2341074 0.04837266 -0.06741517 -0.012141191 -0.03173046 -0.04351249 0.112919554 -0.18103154 0.21164897 0.30834675 0.09154803 -0.24787278 -0.20010956 -0.28779027 -0.17421126 0.12259052 -0.036156666 -0.11225722 -0.27640924 -0.10524456 -0.034848884 0.20505415
罪判 0.28141242 0.08547095 -0.43773052 0.25718975 0.17286846 0.18155305 -0.31534064 -0.10768034 -0.2867322 -0.17390049 0.15542074 0.27036685 -0.046142735 -0.03246537 0.19131051 0.35264814 0.16904235 -0.33043063 -0.43708462 -0.07654331 -0.10353716 -0.032300524 -0.33869743 -0.20086844 -0.036659885 0.06597145 -0.34167343 0.35975984 -0.22754502 0.3471037 0.1586106 -0.07145978 0.013850948 -0.07093623 0.07324467 0.23445228 0.10749872 0.23099884 0.02971399 0.12869787 0.15812527 -0.2735511 0.24645737 0.051589884 -0.06491855 -0.00666971 -0.023233974 -0.062214665 0.1298339 -0.2016878 0.24671179 0.3554923 0.09693462 -0.28720078 -0.2250731 -0.31954715 -0.19477712 0.14193232 -0.049600124 -0.12247377 -0.30389068 -0.120442145 -0.03140842 0.23224294
起诉 0.25731078 0.08311294 -0.40461928 0.23067203 0.15981278 0.15555613 -0.29441687 -0.09682059 -0.25883532 -0.1639382 0.14527814 0.25088933 -0.03916838 -0.029258886 0.18202232 0.32113355 0.15439412 -0.2953298 -0.40417594 -0.06961112 -0.09710037 -0.042063463 -0.32443234 -0.18247014 -0.028183294 0.05768657 -0.3104808 0.332477 -0.20668799 0.32905552 0.15171824 -0.053650346 0.014685949 -0.06308679 0.06901881 0.21230628 0.09866794 0.22055468 0.03631876 0.12310177 0.14814307 -0.25252017 0.2321012 0.04848811 -0.06902876 -0.017398058 -0.025976717 -0.05709335 0.120386705 -0.1782183 0.22443442 0.32838804 0.10020357 -0.25988922 -0.20255727 -0.29131526 -0.17077604 0.11884129 -0.041191313 -0.11885881 -0.27997056 -0.1051315 -0.03806978 0.2083397
咨询 0.18011248 0.052652877 -0.28029573 0.15613504 0.10116429 0.102317184 -0.21168491 -0.07083074 -0.18063985 -0.11124974 0.09114444 0.18186538 -0.029287798 -0.01358021 0.11912617 0.21754405 0.10170682 -0.19912995 -0.26461858 -0.053428482 -0.071452774 -0.02692333 -0.22199523 -0.12842084 -0.029584888 0.04145831 -0.2148285 0.2153977 -0.14189333 0.21846373 0.11166823 -0.030368019 0.009346272 -0.053444598 0.055839065 0.14775226 0.06678892 0.14901914 0.029370315 0.08388778 0.099573486 -0.17210194 0.16253072 0.03090154 -0.035693165 -0.0050002835 -0.029007731 -0.040667247 0.07490771 -0.12679069 0.15972687 0.22429398 0.070899576 -0.17212217 -0.1318591 -0.1948957 -0.1149264 0.08237926 -0.025688386 -0.07475223 -0.18669511 -0.07460768 -0.019882452 0.13718957
公司 0.30520278 0.09360797 -0.49389887 0.28255633 0.19410191 0.19592926 -0.3640641 -0.1267848 -0.32470423 -0.19568536 0.17525032 0.31130704 -0.048537996 -0.046170685 0.2187686 0.39215067 0.20392074 -0.352361 -0.47950765 -0.08071481 -0.11849361 -0.035160076 -0.37722296 -0.22455847 -0.05109506 0.07576824 -0.37846172 0.39557707 -0.25933066 0.388477 0.18407054 -0.06395288 0.024781974 -0.07375237 0.08658138 0.26029965 0.10645933 0.25945663 0.040827285 0.1510408 0.1727922 -0.31088468 0.29298955 0.05149645 -0.070488125 -0.011645642 -0.0406278 -0.06419924 0.14574094 -0.2232144 0.27647835 0.40444916 0.116905905 -0.31678265 -0.25354686 -0.35851634 -0.22065434 0.14485914 -0.052485123 -0.14413886 -0.34418374 -0.13691553 -0.04666649 0.24683632
发票 0.20586635 0.057593208 -0.32681003 0.19028524 0.13756129 0.13551511 -0.2428063 -0.079516426 -0.21324648 -0.13568923 0.119103946 0.20787628 -0.03949914 -0.028163698 0.14494309 0.26156914 0.123276725 -0.23466045 -0.32131585 -0.05326167 -0.0826568 -0.03551916 -0.25593564 -0.14799261 -0.030591585 0.05187534 -0.24851868 0.27214375 -0.17942895 0.26020283 0.12446036 -0.04686735 0.01723695 -0.055278085 0.06471776 0.17413487 0.08172974 0.17790127 0.02080359 0.10723403 0.12369086 -0.20121174 0.18849911 0.033968695 -0.040553592 -0.0074348915 -0.02010225 -0.046640404 0.08875918 -0.1522483 0.17877516 0.2709086 0.08315305 -0.20823477 -0.15686138 -0.23251827 -0.14417717 0.10279889 -0.024748413 -0.0925459 -0.22622803 -0.08087139 -0.028595505 0.16295119
取保候审 0.2313979 0.07683587 -0.35994232 0.20044646 0.14110933 0.14711846 -0.27131265 -0.09316102 -0.2349186 -0.14067394 0.12321929 0.23152585 -0.042227406 -0.027568767 0.15971597 0.2864817 0.15104657 -0.27114087 -0.3522352 -0.056392115 -0.09400561 -0.024737448 -0.28084832 -0.1619865 -0.032846615 0.055647437 -0.28214929 0.28241977 -0.1848759 0.2895966 0.13230613 -0.05875543 0.024240151 -0.06294546 0.058669716 0.18387194 0.075794294 0.18073335 0.02830715 0.1105456 0.12954469 -0.22426665 0.21120296 0.03435502 -0.054613464 -0.011354463 -0.021758292 -0.0451113 0.098554164 -0.15222834 0.19495012 0.2828593 0.08742816 -0.23738763 -0.17347735 -0.26635337 -0.15922868 0.11459797 -0.032431997 -0.11035354 -0.24516065 -0.090029225 -0.024701117 0.17857002
哪种 0.24498735 0.07088155 -0.38750365 0.21666174 0.14284675 0.15619583 -0.28697768 -0.08858902 -0.25768143 -0.15693487 0.14007618 0.23469332 -0.040387314 -0.038581453 0.16220118 0.30039814 0.15560079 -0.28814107 -0.38738525 -0.054549556 -0.09544548 -0.026343167 -0.30562726 -0.1768573 -0.036174882 0.04830076 -0.30537525 0.31518057 -0.20430611 0.30950958 0.1462837 -0.06414818 0.015634311 -0.063881926 0.064092934 0.19849712 0.09586176 0.19747448 0.021539204 0.12319616 0.14741012 -0.2396405 0.22515939 0.046851546 -0.05834109 -0.006558229 -0.030321144 -0.05497603 0.10306601 -0.17070149 0.20821723 0.31206205 0.09806299 -0.23961297 -0.19507398 -0.28189605 -0.16394196 0.13022487 -0.045471337 -0.11441017 -0.2647729 -0.103204414 -0.02347232 0.19798622
赌博 0.23211464 0.06687479 -0.36428383 0.20855077 0.14498013 0.1495766 -0.26418307 -0.089793175 -0.24581583 -0.15175457 0.12297639 0.22263989 -0.041615624 -0.029705714 0.15712775 0.2926332 0.13926011 -0.26645207 -0.36251062 -0.061356533 -0.091415025 -0.02484689 -0.29502028 -0.16368613 -0.04078183 0.06375995 -0.28075552 0.2993133 -0.19249237 0.29073337 0.13597086 -0.055531487 0.019328995 -0.06927703 0.07365538 0.19307141 0.08688141 0.19380084 0.026721334 0.11479693 0.12448217 -0.2233815 0.21245852 0.045189545 -0.05224667 -0.00886964 -0.018797344 -0.04342682 0.09662702 -0.15768912 0.2119653 0.3013231 0.09082061 -0.2421823 -0.18675078 -0.26471516 -0.16553931 0.1213871 -0.040863715 -0.10063745 -0.25434676 -0.10725833 -0.030392593 0.18523584
虚假 0.1722499 0.056293573 -0.25727096 0.15626933 0.097617336 0.09719212 -0.19682343 -0.06401718 -0.16765629 -0.113341495 0.08221315 0.16606592 -0.029755957 -0.022040518 0.1175179 0.20412911 0.0974255 -0.19932245 -0.25829062 -0.042472444 -0.0723969 -0.018234838 -0.2017261 -0.11315452 -0.018388594 0.036678426 -0.20767988 0.2188825 -0.13150747 0.21643642 0.103611834 -0.031622835 0.016175326 -0.03709165 0.050790377 0.14326051 0.0628811 0.14275566 0.01929367 0.077859744 0.098441094 -0.16725335 0.14931913 0.029340338 -0.036633972 -0.0149977775 -0.025883028 -0.032336574 0.07998871 -0.11935702 0.14131482 0.21878964 0.06737368 -0.16772434 -0.1279036 -0.1989223 -0.11245615 0.080364086 -0.030585198 -0.07931806 -0.18157274 -0.07655802 -0.027871266 0.14381321
徇私舞弊 0.21490008 0.06575141 -0.34337467 0.20038442 0.12934859 0.1328796 -0.24881026 -0.081899546 -0.21587111 -0.14130053 0.12182815 0.21466714 -0.03777111 -0.033163328 0.14392652 0.27169335 0.12912956 -0.2517529 -0.3382694 -0.059067346 -0.08907941 -0.029781476 -0.26743445 -0.14918454 -0.024995912 0.045577947 -0.2691698 0.27294993 -0.18445678 0.27622426 0.13117467 -0.054534636 0.021883003 -0.06394974 0.060764 0.17091814 0.08178782 0.17194623 0.029957274 0.097322635 0.12737608 -0.21213332 0.20034686 0.03988093 -0.052063238 -0.0048768297 -0.028910551 -0.039000876 0.091344796 -0.1448709 0.18534109 0.2799607 0.08710725 -0.21742672 -0.16303292 -0.2488352 -0.15040737 0.10105269 -0.02815719 -0.09562837 -0.23134786 -0.09438907 -0.032573964 0.1807046
证据 0.25368485 0.07085027 -0.39007148 0.23208724 0.16171956 0.15729746 -0.2841022 -0.092479445 -0.25261834 -0.15432493 0.13148409 0.24575862 -0.04058072 -0.028617745 0.17204691 0.31840706 0.16297261 -0.28201187 -0.38268468 -0.061731316 -0.10245705 -0.036276117 -0.3022381 -0.17115973 -0.031131612 0.05790234 -0.30725443 0.31216422 -0.20578073 0.30932483 0.15314452 -0.056277722 0.017626088 -0.06825178 0.06741553 0.21270636 0.082886055 0.2052564 0.03288571 0.11963445 0.14233907 -0.24868666 0.22227933 0.043222215 -0.0636734 -0.004692625 -0.027343301 -0.043506254 0.10819992 -0.1821626 0.21272887 0.31327528 0.09482422 -0.24872413 -0.1958969 -0.2881241 -0.17350973 0.122708775 -0.03327293 -0.114100575 -0.2705247 -0.109880924 -0.028527575 0.19821788
在 0.31295002 0.08799742 -0.49379689 0.27561596 0.19624709 0.18666624 -0.3544487 -0.11322347 -0.3151598 -0.19345812 0.16729778 0.30322745 -0.054333184 -0.041701976 0.21206908 0.37717786 0.19200218 -0.36383104 -0.4711378 -0.08515059 -0.120282285 -0.03889948 -0.38792688 -0.21978883 -0.04253552 0.07607778 -0.38219267 0.39430383 -0.25463355 0.39002585 0.18397984 -0.07849053 0.01705777 -0.08236392 0.090423934 0.24657185 0.118241735 0.24966957 0.043757036 0.14908673 0.17402947 -0.30633825 0.2788553 0.045701347 -0.07843525 -0.010074508 -0.031062454 -0.066675216 0.13754584 -0.21232398 0.2646568 0.385296 0.112285286 -0.30395085 -0.24614266 -0.34758526 -0.2116793 0.15767297 -0.0480533 -0.14231578 -0.33953217 -0.12619694 -0.04584653 0.24961576
才 0.21464948 0.06174643 -0.3459425 0.20029777 0.12997094 0.13128142 -0.24457131 -0.0856391 -0.22745284 -0.12872143 0.11251531 0.21787648 -0.041865684 -0.030734057 0.14386529 0.26067287 0.13785073 -0.25565502 -0.34137592 -0.059191324 -0.08206069 -0.034472078 -0.26029262 -0.16213475 -0.025927698 0.057323627 -0.25525668 0.26916748 -0.17125691 0.27662545 0.12658429 -0.047272537 0.012479787 -0.06044879 0.05431957 0.17663957 0.07125906 0.17989902 0.020173753 0.09470413 0.115941405 -0.20446356 0.19588587 0.03462654 -0.055179942 -0.014689149 -0.024786625 -0.048294306 0.09389608 -0.1444511 0.18157183 0.27480343 0.075110234 -0.21521497 -0.17066082 -0.2416756 -0.15091547 0.10480108 -0.039382223 -0.09441981 -0.239269 -0.089637294 -0.019001182 0.16927904
