1919 64
罪 -0.401934 0.3059184 -0.115446895 0.21465752 -0.22110045 0.29124972 0.04551611 0.03951209 -0.2687062 -0.03094998 -0.036974892 0.17887956 0.45601732 0.060127437 0.25161195 0.3691907 -0.1952971 -0.101961136 0.21786076 0.20202582 -0.08439837 0.270521 -0.040520065 0.073909424 -0.16120988 0.42549932 -0.04089124 0.187204 0.11337869 0.08049247 -0.05875029 -0.25311372 -0.25805295 -0.096936174 0.0724119 0.22987133 0.07078836 -0.059100993 -0.044972062 -0.1557979 0.26982877 -0.0359098 -0.13040636 0.031883307 0.0083380705 0.11787623 0.18502761 0.15432835 -0.33457485 0.2663732 0.031155257 0.28627115 0.058652528 0.026336059 -0.09808936 0.12204395 -0.14809264 0.3097125 0.0019211951 0.38205495 0.2755491 0.12286926 0.2977898 -0.014222569
的 -0.36682066 0.2776883 -0.10844979 0.19359013 -0.18745546 0.2631825 0.03997575 0.050042488 -0.24365893 -0.020906223 -0.03845256 0.1607469 0.4265381 0.040818743 0.22359411 0.33874506 -0.17855392 -0.10119293 0.19733499 0.19290406 -0.08293542 0.25873485 -0.024878485 0.07432408 -0.14673656 0.38077018 -0.04266897 0.16881908 0.094119705 0.07852437 -0.045221895 -0.23259333 -0.23839566 -0.07411698 0.067872815 0.20665163 0.06438359 -0.050089236 -0.031669203 -0.14071853 0.252896 -0.02890094 -0.11719068 0.01633402 0.009083532 0.10251099 0.1659938 0.13719758 -0.30513602 0.24072216 0.026728656 0.2517114 0.060685135 0.022614455 -0.099839084 0.116555795 -0.13812189 0.2778223 0.008404718 0.35576698 0.2506434 0.10558927 0.27092445 -0.017952709
吗 -0.26850674 0.21313153 -0.084326886 0.13536158 -0.14789027 0.20304137 0.038915977 0.02487769 -0.17590813 -0.02693449 -0.017989147 0.12410814 0.31667218 0.04276096 0.16814475 0.24305797 -0.13971245 -0.08050338 0.14864758 0.14492625 -0.06024666 0.19208367 -0.019963551 0.059416078 -0.101246506 0.29021487 -0.029181147 0.1238155 0.07458254 0.055319864 -0.04059835 -0.17642863 -0.18720676 -0.06002322 0.051193092 0.15944041 0.06001396 -0.044232395 -0.031722493 -0.1099749 0.18104553 -0.018637411 -0.08970809 0.023043972 -0.00021441712 0.07864296 0.11956025 0.09501114 -0.22621538 0.17626809 0.0111038685 0.1971025 0.03659771 0.014198117 -0.064263046 0.09545012 -0.10271121 0.20978151 0.013059144 0.26680544 0.18378812 0.09266553 0.20388713 -0.0149237085
什么 -0.24142161 0.1812899 -0.07613872 0.1323012 -0.13459034 0.17283776 0.03517161 0.026667826 -0.16546968 -0.020958604 -0.023865078 0.1010298 0.27735928 0.03777492 0.1403654 0.21276726 -0.10901696 -0.07192952 0.12632853 0.11646799 -0.04664874 0.17146383 -0.025305271 0.03883008 -0.08925149 0.24785909 -0.03333052 0.102904364 0.07100311 0.05491561 -0.026450858 -0.16169155 -0.15232651 -0.061237752 0.042928558 0.1380769 0.05238294 -0.0398877 -0.023373788 -0.09520815 0.1628285 -0.01374918 -0.07605451 0.0129174795 -0.002937158 0.06924724 0.10966831 0.09520949 -0.19828814 0.14831531 0.019145688 0.17086501 0.036144905 0.014118508 -0.057390008 0.069082625 -0.09978335 0.19179916 0.006363455 0.23425072 0.1664502 0.07282984 0.1739348 -0.00069281
是 -0.23543985 0.16806921 -0.07678137 0.12836412 -0.1206231 0.16932046 0.024052663 0.023960175 -0.16126712 -0.02246906 -0.028271614 0.09616678 0.2702903 0.031155584 0.13650317 0.20426697 -0.1156212 -0.06861809 0.123221405 0.12123278 -0.051472586 0.15615557 -0.012613056 0.039963894 -0.09101956 0.24305592 -0.026579248 0.1072227 0.06584247 0.043728825 -0.02682701 -0.15300004 -0.1491416 -0.058575336 0.041533086 0.13161565 0.04540323 -0.028435012 -0.028485784 -0.08827179 0.1664244 -0.020117829 -0.08208618 0.01974029 0.008735002 0.06500218 0.109639056 0.07798859 -0.19573277 0.15102234 0.009089953 0.16206041 0.042578895 0.007469181 -0.060644418 0.069845244 -0.09688902 0.17455366 0.004108651 0.22938241 0.15751013 0.07071013 0.16916026 -0.0040404857
一下 -0.30842906 0.23178181 -0.09845368 0.16631788 -0.16198623 0.22524641 0.037317038 0.042147473 -0.21137191 -0.017525885 -0.034589797 0.13055806 0.34995872 0.03583867 0.19784681 0.27423722 -0.15183581 -0.076776765 0.16629633 0.16375254 -0.06848924 0.20741801 -0.025886891 0.055035375 -0.11159234 0.32334664 -0.034619648 0.13796455 0.07774197 0.06770611 -0.042558778 -0.18895765 -0.20786527 -0.06502431 0.05859483 0.16926141 0.05780109 -0.03918467 -0.025120482 -0.117830805 0.21884415 -0.026742669 -0.10235832 0.019304544 0.005903995 0.08814688 0.13530149 0.10350472 -0.25263703 0.20843899 0.012404899 0.2062534 0.045500454 0.023169154 -0.08575858 0.10390403 -0.12722428 0.24037416 0.0023329016 0.2976961 0.19979548 0.101023056 0.21802227 -0.010120286
怎么 -0.26594612 0.20053436 -0.07485155 0.14282611 -0.13820711 0.19718167 0.02644082 0.021942021 -0.17912741 -0.019975327 -0.025008831 0.11379022 0.305414 0.033517372 0.16539933 0.24066947 -0.12211624 -0.06702641 0.13438934 0.12913756 -0.0658245 0.18818533 -0.032940827 0.04372846 -0.10738897 0.28202656 -0.034734435 0.12522896 0.074256 0.050147444 -0.0445662 -0.16940221 -0.17135769 -0.061106417 0.045100987 0.1484032 0.04622038 -0.047473095 -0.028077189 -0.10769626 0.18080382 -0.017872985 -0.08413819 0.015497263 0.0038462095 0.07742804 0.12409169 0.090385705 -0.2098582 0.17015973 0.016177798 0.19341053 0.044716444 0.012525779 -0.07266885 0.08968755 -0.10562403 0.210089 0.014155071 0.2558903 0.18368939 0.07821731 0.1939727 -0.0032445085
问 -0.2598254 0.2031853 -0.07484509 0.12970117 -0.13939852 0.17913015 0.03878422 0.040093932 -0.17641571 -0.01426958 -0.016311914 0.11045277 0.29467827 0.037705917 0.15868987 0.2404899 -0.1274072 -0.07066359 0.14293104 0.13499011 -0.060898162 0.18175974 -0.012511285 0.045551468 -0.09833859 0.26420158 -0.024220638 0.117168576 0.061688684 0.048532195 -0.036272682 -0.1689858 -0.16805458 -0.05378765 0.045925424 0.13637726 0.04192363 -0.048801266 -0.028169598 -0.09661593 0.18763205 -0.021346368 -0.09627997 0.018044919 -0.0020162254 0.08421682 0.119671755 0.09711378 -0.21543139 0.17118001 0.007254396 0.17380159 0.034030784 0.008706736 -0.059158288 0.08675408 -0.101439655 0.19124381 0.005276375 0.24918307 0.176932 0.07178101 0.18390052 -0.018869042
标准 -0.15345298 0.11761038 -0.051011022 0.08701044 -0.079901434 0.111621045 0.01916792 0.016784854 -0.10642743 -0.013182405 -0.01598997 0.07014616 0.187989 0.016684674 0.1082737 0.15226735 -0.07901648 -0.04702886 0.08824601 0.076546334 -0.03974724 0.118203856 -0.012163603 0.03553376 -0.064744316 0.17182466 -0.017578917 0.0804247 0.05096105 0.037778903 -0.016856985 -0.10535526 -0.09908188 -0.030955717 0.033619367 0.094480895 0.027375463 -0.018971996 -0.024041029 -0.06764859 0.11545103 -0.008301577 -0.05031282 0.008252917 0.0070748962 0.0413365 0.07782447 0.052199025 -0.13744251 0.113194935 0.015782345 0.114805214 0.029019829 0.004841632 -0.048269283 0.05954491 -0.06731271 0.121522464 0.007351536 0.15562072 0.110799536 0.05543416 0.12275114 -0.010795637
判刑 -0.14203426 0.10877547 -0.04428188 0.07705846 -0.073678695 0.10828549 0.019133473 0.012382746 -0.106490776 -0.017892038 -0.019803548 0.068332836 0.17258696 0.015454555 0.096050866 0.14529544 -0.078212984 -0.036982283 0.07552932 0.08026983 -0.030869609 0.11043442 -0.013948473 0.03469872 -0.06346695 0.16479486 -0.010171787 0.07545068 0.046226934 0.037437517 -0.0141736325 -0.10136288 -0.095752165 -0.031689797 0.03119062 0.08878585 0.024054885 -0.024934344 -0.011933198 -0.061091915 0.104994126 -0.010461439 -0.05116889 0.012075532 -0.00225713 0.045238856 0.06432624 0.06204241 -0.13131976 0.10066515 0.0048652445 0.098926194 0.025164021 0.013266515 -0.04320191 0.052887943 -0.064278044 0.1163934 -0.0041621868 0.14819628 0.09542455 0.04437186 0.115582235 -0.0005465318
哪些 -0.18329838 0.14759688 -0.057747617 0.09993428 -0.0936335 0.12465513 0.024492214 0.023254998 -0.117798515 -0.008619884 -0.0154391965 0.084658675 0.2089311 0.020837398 0.12041317 0.17574984 -0.084808655 -0.04955051 0.09654711 0.10260018 -0.044613007 0.13652019 -0.009223622 0.033103704 -0.06927985 0.18919222 -0.016791832 0.09064781 0.057628937 0.04374345 -0.01948983 -0.12310964 -0.118894696 -0.04394617 0.024937708 0.105627894 0.040391177 -0.023346001 -0.011845761 -0.07491925 0.13452348 -0.018531695 -0.061492886 0.009712273 0.0003535596 0.059473906 0.077603154 0.06290598 -0.15869385 0.1144782 0.018115386 0.12965949 0.019309634 0.008362529 -0.048819877 0.0577139 -0.07725444 0.14832394 -0.003184697 0.18486992 0.117391266 0.061900288 0.13918322 -0.009091391
非法 -0.20974998 0.15901282 -0.0713968 0.11545663 -0.11250488 0.15913998 0.019453445 0.024657333 -0.14812653 -0.02015172 -0.022328949 0.08547945 0.25182596 0.025812363 0.13021302 0.19449773 -0.09862708 -0.05211864 0.123310894 0.10956479 -0.056371506 0.14773907 -0.012791713 0.043260884 -0.076855056 0.2247327 -0.022848293 0.10251749 0.05626815 0.038601313 -0.02583789 -0.13051803 -0.14419924 -0.051533494 0.032188326 0.11456467 0.043684285 -0.04039252 -0.021165457 -0.07954107 0.15421999 -0.0133461645 -0.06957494 0.007212013 0.013468598 0.06798203 0.09876382 0.07137335 -0.18399641 0.14712012 0.021123381 0.15249574 0.02492607 0.017405143 -0.048076432 0.07208745 -0.07522094 0.16855411 0.0030016336 0.20694579 0.15158017 0.062087797 0.15130256 -0.008857849
有 -0.1913719 0.14575197 -0.050457697 0.103464805 -0.10350183 0.12721486 0.020051962 0.016434824 -0.12730138 -0.013639506 -0.019566217 0.08358423 0.22006458 0.01810278 0.112681136 0.17670487 -0.08590885 -0.04534939 0.09292235 0.09610555 -0.037564043 0.13597947 -0.025910584 0.039071154 -0.07309103 0.20197375 -0.01895645 0.07783994 0.049992345 0.045057297 -0.031970244 -0.11963038 -0.122089714 -0.04096834 0.039319243 0.10732307 0.031669986 -0.029806573 -0.011504642 -0.0807009 0.13173735 -0.013649466 -0.05949914 0.0035450181 0.0027558869 0.06394457 0.08305957 0.07362826 -0.15847999 0.114617035 0.0137411365 0.13301612 0.022916876 0.0077998363 -0.045058195 0.05789873 -0.07547059 0.1520028 0.011360142 0.1827348 0.13170137 0.05568834 0.14245124 -0.007855557
量刑 -0.14595173 0.11301833 -0.050623417 0.082914345 -0.08120124 0.10158432 0.018820152 0.010187166 -0.10367559 -0.004044548 -0.0077817193 0.058811914 0.16703312 0.015223283 0.09581832 0.13166377 -0.065133266 -0.03287071 0.075189725 0.07518385 -0.03408908 0.10144417 -0.0068508373 0.023395412 -0.052833196 0.14824283 -0.014466953 0.06979611 0.046976607 0.03039329 -0.026246585 -0.089916654 -0.10514422 -0.031309437 0.030159088 0.0807634 0.028133864 -0.016098384 -0.020668691 -0.053471927 0.09821803 -0.017938618 -0.055093452 0.009841799 7.7251105e-05 0.03568527 0.0637425 0.058298856 -0.1241871 0.09987097 0.007856463 0.11014706 0.021758135 0.006479396 -0.042252705 0.051140137 -0.053386137 0.11499245 -0.003812001 0.13671307 0.10227808 0.04398391 0.114837356 -0.00461456
如何 -0.19106558 0.14195617 -0.063730665 0.09231646 -0.10518376 0.13646173 0.027599998 0.019466119 -0.12840503 -0.0063951854 -0.015842933 0.08922608 0.21336591 0.03185515 0.12352872 0.17119558 -0.09001805 -0.048187856 0.09356349 0.10381641 -0.04935819 0.13320294 -0.023874458 0.042593397 -0.06942274 0.19154064 -0.016450224 0.08478306 0.04594708 0.034775745 -0.032456014 -0.11596914 -0.122704096 -0.046291336 0.032666605 0.09777039 0.04160491 -0.034265574 -0.022175776 -0.07131966 0.1196081 -0.019166572 -0.0701239 0.005984941 0.010033482 0.0615294 0.0806032 0.07314135 -0.14741287 0.12811695 0.018371517 0.1399096 0.027289234 0.0047894623 -0.04074239 0.06598869 -0.07153296 0.14133114 0.0028549065 0.1848125 0.12322274 0.05175801 0.13293247 -0.006581333
被 -0.21274757 0.1740966 -0.0743281 0.109992966 -0.112411104 0.15487206 0.027958924 0.027245369 -0.13985844 -0.015441376 -0.023253072 0.09991393 0.26057252 0.028247045 0.13076133 0.20598137 -0.10200753 -0.056267254 0.10967751 0.107325785 -0.056889057 0.15313677 -0.02952938 0.039593183 -0.080687955 0.22965173 -0.015290185 0.09662441 0.061127827 0.04194641 -0.028658586 -0.14822827 -0.14153732 -0.052640803 0.035168525 0.122529425 0.047971476 -0.04143109 -0.029600887 -0.07828049 0.15472956 -0.012443567 -0.071046405 0.01868242 0.0018123392 0.057491854 0.095321715 0.07174115 -0.185371 0.14810589 0.013704075 0.15262716 0.038902905 0.01028379 -0.06260622 0.06962418 -0.09224988 0.1753479 -0.0021164517 0.2203364 0.14978789 0.060149174 0.15215975 -0.015237051
处罚 -0.12907489 0.0923408 -0.035858456 0.07201256 -0.07574364 0.08694836 0.016206805 0.020087212 -0.08473821 -0.0121992435 -0.006785638 0.059974257 0.1472905 0.017265374 0.07800038 0.11344254 -0.06133971 -0.03321548 0.0720034 0.06563357 -0.028913362 0.09175459 -0.0057523493 0.02568621 -0.043640055 0.13581277 -0.012947277 0.063486636 0.029461166 0.034163833 -0.01148172 -0.07857392 -0.087932855 -0.027510671 0.027445061 0.0684289 0.024615726 -0.020774031 -0.016379293 -0.04768394 0.084678754 -0.007895712 -0.04297695 0.0056830505 0.0052929893 0.03683061 0.05532603 0.052476455 -0.11261474 0.08812318 0.0010315003 0.09538764 0.012309373 0.0009412343 -0.039068844 0.037766658 -0.053698428 0.10444976 -0.00037741475 0.12633497 0.091935515 0.045513675 0.08866959 -0.01116704
立案 -0.13538218 0.109034635 -0.03415479 0.07357857 -0.07839885 0.101029165 0.011542328 0.012377779 -0.09276282 -0.0071672862 -0.0039846944 0.055127315 0.14649387 0.00842192 0.08683617 0.12097348 -0.06794265 -0.02714575 0.07186054 0.07527153 -0.02987458 0.09337394 -0.016997669 0.01927224 -0.050780144 0.13309783 -0.007171462 0.059014272 0.029134566 0.0289391 -0.018569753 -0.08342591 -0.09212914 -0.036475558 0.019315267 0.0681783 0.022587258 -0.02339171 -0.011356461 -0.051688302 0.10102027 -0.012935091 -0.039395686 0.002608492 0.005158067 0.042158432 0.06613116 0.048918847 -0.11026251 0.086965516 0.0127854645 0.08827104 0.012771535 0.0135473935 -0.038901042 0.047955118 -0.05037758 0.105446845 -0.0031237444 0.12901749 0.08239679 0.03899774 0.100788996 -0.0037580887
可以 -0.17437817 0.13429716 -0.04555775 0.09126975 -0.09140833 0.116509184 0.028488407 0.01964797 -0.114434645 -0.017804414 -0.017075285 0.078224055 0.19643585 0.026226455 0.10554239 0.16207896 -0.088894874 -0.04442862 0.0955238 0.0948163 -0.036117792 0.12601162 -0.011981523 0.024319304 -0.06617033 0.1741364 -0.023893306 0.071901895 0.04421281 0.037100058 -0.027992 -0.11789535 -0.11217146 -0.042607866 0.036992528 0.099238575 0.034893207 -0.021266388 -0.019898662 -0.062010422 0.12514621 -0.018451417 -0.05757683 0.009334453 0.011645605 0.056601617 0.08180984 0.0646655 -0.13368627 0.10714161 0.0128284 0.11440309 0.032416247 0.013853263 -0.040094033 0.059576277 -0.062329855 0.12531693 0.006011429 0.16926792 0.11761438 0.057621554 0.12795237 -0.0028644355
判 -0.17229034 0.13272087 -0.058007874 0.084748976 -0.09753521 0.1307363 0.025228892 0.011614168 -0.110195 -0.013313067 -0.018402224 0.08320851 0.19991577 0.0292724 0.11641067 0.16375305 -0.09306744 -0.044737868 0.08672037 0.09200681 -0.042777516 0.12674992 -0.023363197 0.040368818 -0.06262487 0.19368629 -0.012306304 0.07493666 0.04466976 0.03948385 -0.031983737 -0.119717814 -0.12538052 -0.03182806 0.028956685 0.09231625 0.03112911 -0.020158567 -0.009487822 -0.07436765 0.121773966 -0.011884217 -0.059907768 0.013548279 0.0033180774 0.046489995 0.07318524 0.06859305 -0.14338431 0.11155293 0.014368888 0.12108621 0.029834498 0.0063692015 -0.04380628 0.05878327 -0.06607018 0.13266543 -6.2975945e-05 0.17204948 0.11319245 0.061022412 0.13057041 0.0007907191
犯罪 -0.16355442 0.119212426 -0.055914085 0.08771338 -0.09071228 0.12073434 0.022111867 0.022399876 -0.10215267 -0.014196483 -0.010038782 0.07776609 0.18727379 0.017689364 0.102366045 0.15207422 -0.07273755 -0.04448606 0.08608648 0.079533435 -0.0390082 0.107750475 -0.013539405 0.02595736 -0.06794739 0.17176485 -0.020410765 0.07779168 0.05070529 0.025931075 -0.01592199 -0.110181555 -0.11175863 -0.028043639 0.030540958 0.09455949 0.030014034 -0.02818924 -0.018770037 -0.063889995 0.10801536 -0.018804051 -0.05468369 0.010231987 0.002511449 0.05347542 0.06372301 0.06544306 -0.13908307 0.09757126 0.004955755 0.11218904 0.022912836 0.008721782 -0.037712473 0.047157925 -0.053954717 0.11652163 0.002094378 0.15411323 0.10066101 0.056894694 0.108895496 -0.009284095
你好 -0.17247592 0.1399558 -0.060683817 0.09393663 -0.09981313 0.12748091 0.018399678 0.02799295 -0.12442533 -0.009847238 -0.023577753 0.081998296 0.19636412 0.027962754 0.11290798 0.16175285 -0.0948521 -0.04377225 0.098634854 0.088938825 -0.03930535 0.119383074 -0.011804079 0.03744334 -0.06881151 0.18022393 -0.017874012 0.088604696 0.039399624 0.02957581 -0.02706147 -0.10928217 -0.12052584 -0.041625418 0.0309863 0.10567027 0.0316034 -0.027413044 -0.025110535 -0.074695006 0.1194224 -0.019420367 -0.05801768 0.0061348514 -0.0017622998 0.049499035 0.07218919 0.056251917 -0.15509693 0.111409344 0.017827934 0.12686501 0.025064642 0.0036567196 -0.048756003 0.06043471 -0.071845785 0.13078152 0.0033809498 0.16765569 0.124599874 0.053355858 0.134957 -0.009142147
会 -0.14716414 0.11491461 -0.05243818 0.085639186 -0.08905228 0.11650198 0.016185217 0.012839175 -0.10416582 -0.012155491 -0.015789438 0.06830905 0.18194185 0.018690467 0.1031964 0.145061 -0.07258486 -0.042657036 0.082907476 0.07698762 -0.038954515 0.113109395 -0.010674594 0.033044748 -0.055177167 0.16913094 -0.014251121 0.07163988 0.045625668 0.037134904 -0.018274995 -0.09555144 -0.09408953 -0.031643867 0.026189616 0.08630747 0.03703867 -0.020589381 -0.0074063246 -0.05286067 0.10300282 -0.0071364404 -0.05410263 0.0107857045 6.710852e-05 0.04943724 0.07448861 0.05441689 -0.11882532 0.10797337 0.014702767 0.10274506 0.018796189 0.013133634 -0.03389906 0.045489274 -0.06338318 0.11946216 0.0006347176 0.1496924 0.11044481 0.040706914 0.109912775 -0.004271335
构成 -0.124127224 0.095217735 -0.031327967 0.0684056 -0.062002238 0.092601426 0.018721996 0.020686466 -0.08040951 -0.01130847 -0.007705362 0.050770607 0.14833833 0.01688953 0.0721561 0.120822884 -0.06467009 -0.02973599 0.0657252 0.063228115 -0.03286075 0.08911877 -0.012063962 0.022004766 -0.04648825 0.13171305 -0.01305024 0.055214662 0.026569616 0.026660793 -0.0187827 -0.08896235 -0.08301155 -0.03591332 0.026356736 0.06301143 0.01810945 -0.014373138 -0.0064324783 -0.055628102 0.07955605 -0.007159123 -0.043378584 0.0128943045 -0.0012397183 0.03058095 0.057213187 0.04470646 -0.10350692 0.078384385 0.014954154 0.09682755 0.018350964 0.014525381 -0.037993733 0.034239765 -0.056167405 0.10635098 0.00019878572 0.11864853 0.088117756 0.033862777 0.08950517 -0.010943807
要件 -0.13985333 0.10429492 -0.03381985 0.077193156 -0.06694422 0.10079149 0.024334762 0.014859626 -0.094379336 -0.017051097 -0.019078353 0.055304058 0.16100036 0.022904297 0.07630445 0.121114284 -0.0723333 -0.036416866 0.07729041 0.07288822 -0.022625538 0.08937712 -0.017615475 0.031097986 -0.05765977 0.14246197 -0.012908656 0.06869387 0.03611941 0.020860136 -0.014672817 -0.08531441 -0.09446263 -0.032283615 0.02980204 0.07196713 0.029301401 -0.017928798 -0.0059583737 -0.052705597 0.08986807 -0.017374523 -0.048646998 0.007774065 0.0018727488 0.046477478 0.060115654 0.05143556 -0.10467206 0.08653602 0.0068226056 0.09387958 0.02372348 0.01056056 -0.04023919 0.045805298 -0.059476513 0.10115445 0.009646289 0.13089594 0.08844814 0.044789232 0.09902306 -0.012170242
罪名 -0.15487501 0.11192938 -0.0438712 0.07690056 -0.08265143 0.101849124 0.020217506 0.012137208 -0.10037226 -0.02049978 -0.016785808 0.05933577 0.17535199 0.022858314 0.09931385 0.14337215 -0.07408238 -0.045049895 0.087783895 0.07975646 -0.027309455 0.10461799 -0.007494341 0.029989684 -0.05308375 0.16412418 -0.021102205 0.07900132 0.038201652 0.033303924 -0.0144772185 -0.099798076 -0.09894783 -0.034851782 0.021933531 0.09275588 0.027570171 -0.02852118 -0.01064147 -0.053683933 0.10517936 -0.016685087 -0.054022104 0.010420274 -0.0016866189 0.047824156 0.064064056 0.05672461 -0.13132998 0.09124682 0.014710557 0.102226295 0.015391658 0.0079481825 -0.041963108 0.044230007 -0.052781675 0.120241866 -0.0012957192 0.1423059 0.1002892 0.055570077 0.112977825 0.0020838396
诈骗 -0.14941695 0.10764814 -0.043625865 0.08038408 -0.08106094 0.099093854 0.018245239 0.012095793 -0.09030521 -0.0026271844 -0.0064669596 0.064702235 0.16022997 0.022770192 0.091926396 0.12553288 -0.07467606 -0.043760635 0.07669537 0.07931386 -0.037345048 0.09493107 -0.012111905 0.030922137 -0.06116439 0.15741712 -0.016550671 0.06358436 0.034284785 0.03656521 -0.026059968 -0.089829855 -0.088336654 -0.039671604 0.018744303 0.07709342 0.022843983 -0.027005507 -0.013441946 -0.06068526 0.102036424 -0.009209895 -0.05493755 0.011548796 0.011199101 0.05022645 0.06351004 0.061071206 -0.12285381 0.09901104 0.007306173 0.10960697 0.016568098 0.012581504 -0.04277835 0.039556235 -0.062078554 0.10990729 -0.003779074 0.14308392 0.09330829 0.050861087 0.109814264 0.00063728564
罪有 -0.19879042 0.15674067 -0.06278388 0.1114505 -0.10569302 0.14929777 0.020393156 0.019835757 -0.13664733 -0.019001743 -0.014049647 0.091187716 0.22197899 0.022001082 0.1312395 0.18280405 -0.088799976 -0.052300643 0.10105844 0.095815964 -0.04238699 0.14046225 -0.01367778 0.043400355 -0.073399104 0.20672083 -0.023726411 0.08883537 0.057934053 0.033543527 -0.029456507 -0.13565671 -0.123342395 -0.037396714 0.03784467 0.112458766 0.034570493 -0.039031472 -0.019046241 -0.077771984 0.13179654 -0.017540857 -0.065706916 0.015629036 -0.0027282124 0.06253344 0.095274106 0.07794768 -0.17048858 0.13296823 0.019262038 0.1421398 0.03150195 0.0030025044 -0.05160757 0.070771724 -0.07958225 0.1576913 0.011850112 0.19657588 0.12701078 0.058910064 0.15293415 -0.0025779766
多久 -0.13731135 0.11338992 -0.036970273 0.078267924 -0.08079781 0.10346914 0.011234279 0.013424764 -0.08543293 -0.0062563173 -0.006364342 0.05746681 0.15801556 0.025351588 0.08599019 0.12242777 -0.060354743 -0.03537762 0.06915796 0.067989185 -0.037368715 0.1011703 -0.014299432 0.02056571 -0.047450975 0.14616905 -0.015337939 0.06646043 0.039646443 0.021663075 -0.017568408 -0.087362796 -0.092825845 -0.022995772 0.021561991 0.07569875 0.033879075 -0.026989274 -0.0077795396 -0.05574093 0.10125674 -0.007797897 -0.053226497 0.0036290158 0.011395876 0.04750042 0.055496458 0.047204193 -0.11594338 0.08692528 0.013217739 0.09986848 0.023768503 0.013416778 -0.037542153 0.038252912 -0.0547626 0.100577205 0.006216358 0.12864488 0.08973713 0.051841605 0.09755446 -0.00046178617
了 -0.17863292 0.14300907 -0.057534993 0.092308536 -0.108273424 0.13212632 0.015972624 0.026408717 -0.118041 -0.0145113515 -0.013087154 0.07680977 0.20684232 0.029849092 0.10804695 0.1763134 -0.091420144 -0.052007068 0.10264535 0.102667816 -0.037790637 0.12154274 -0.025864763 0.030219145 -0.0647304 0.19488724 -0.019143367 0.07679117 0.055315115 0.03878304 -0.018447502 -0.119893685 -0.117472544 -0.044059623 0.033141684 0.108626135 0.034504633 -0.033468988 -0.018022336 -0.06811471 0.12513763 -0.0063830703 -0.06712328 0.016378095 0.011214057 0.047706265 0.07887639 0.06651716 -0.14537841 0.11737495 0.008148141 0.1308872 0.019687263 0.0031674406 -0.042683963 0.06769762 -0.07050402 0.14818923 0.006560079 0.17184956 0.11743647 0.052164968 0.13297416 0.0012182479
冒昧 -0.12458446 0.100088745 -0.042433538 0.0634297 -0.06489946 0.09814684 0.0123235 0.022903306 -0.090809375 -0.010879214 -0.015870254 0.04791599 0.15144463 0.023003723 0.07174264 0.10749222 -0.055527326 -0.040003818 0.06042677 0.06635626 -0.025777118 0.09166278 -0.009641652 0.026053106 -0.055187993 0.13188799 -0.008242773 0.056700878 0.026892064 0.02102903 -0.016993823 -0.076543085 -0.091674514 -0.021929186 0.019967964 0.069434054 0.02956265 -0.011025146 -0.019618163 -0.045948595 0.08370541 -0.013181324 -0.039827976 0.013492203 0.00818806 0.04158631 0.05455091 0.046457086 -0.11173683 0.08915084 0.010744792 0.084224395 0.014653415 0.0020146712 -0.03790286 0.039752845 -0.04252001 0.094561 0.0077084033 0.12400044 0.09247783 0.03502204 0.08726071 -0.012399854
请问 -0.15135589 0.12175453 -0.043283153 0.08528116 -0.0759624 0.11140444 0.016218511 0.020771837 -0.10279344 -0.008670386 -0.010938346 0.06409113 0.18096317 0.019925442 0.10066816 0.14188328 -0.070253424 -0.039727256 0.08578196 0.077220544 -0.041048113 0.10557444 -0.007862332 0.026527526 -0.05719942 0.14961602 -0.015994301 0.07394648 0.045985628 0.025414642 -0.027603261 -0.093938306 -0.10304746 -0.027586589 0.03384703 0.08822249 0.029158406 -0.029798107 -0.020497587 -0.056540962 0.10869741 -0.016130341 -0.05250744 0.011920147 -0.0033506278 0.042582713 0.07042435 0.060769144 -0.118881464 0.090522915 0.0036634847 0.114098616 0.019005978 0.0026692213 -0.04173832 0.05464184 -0.058320843 0.11898109 -0.0006808227 0.1505755 0.09394093 0.049972225 0.10694051 -0.009084379
属于 -0.17805563 0.13727097 -0.04768046 0.087531514 -0.08548005 0.12254441 0.017628022 0.020186787 -0.11343285 -0.013178781 -0.0147593785 0.07096059 0.20667988 0.01842836 0.11560897 0.1493773 -0.088020794 -0.054133754 0.10101227 0.08130617 -0.04001686 0.12383906 -0.017338071 0.02777704 -0.06856993 0.18662593 -0.018075667 0.087433346 0.055159345 0.030043082 -0.01873953 -0.11856891 -0.107699245 -0.031483576 0.032506894 0.09188742 0.033941444 -0.032879103 -0.012256413 -0.06341098 0.11466134 -0.01489864 -0.058462918 0.006436432 -0.0028966435 0.04450934 0.070235744 0.06487651 -0.13583742 0.114027455 0.0039584693 0.12604205 0.027957983 0.013100602 -0.04390379 0.051251076 -0.059060276 0.12778369 0.009109071 0.17154212 0.12168922 0.057149958 0.1338735 -0.01169017
请教 -0.12178426 0.096538834 -0.041595004 0.060761582 -0.061173953 0.09034703 0.015060266 0.015435369 -0.08217 -0.002899876 -0.0038959743 0.05164672 0.1433102 0.010540886 0.081913255 0.11172947 -0.06459731 -0.040950697 0.06429697 0.07205636 -0.036441427 0.09073011 -0.014209963 0.025981294 -0.05275063 0.13005161 -0.0052357935 0.055749573 0.02740023 0.032754734 -0.020845747 -0.08760537 -0.089793466 -0.023847386 0.014057317 0.07528904 0.026601287 -0.012714172 -0.017738797 -0.048026647 0.08926702 -0.0023467604 -0.047324296 0.007203379 0.0068518836 0.030621914 0.054756988 0.039754853 -0.10941272 0.083364226 0.0065097376 0.09042429 0.024741085 0.011366611 -0.024870442 0.039103273 -0.04739521 0.08880778 0.0074067167 0.12634456 0.08113407 0.039513145 0.085944004 -0.0013036069
解释 -0.16797012 0.12590179 -0.0431801 0.093662366 -0.09351883 0.12551 0.02786969 0.021519125 -0.10746223 -0.01310774 -0.024399955 0.07284355 0.20147341 0.020676445 0.11475376 0.1459703 -0.08423636 -0.049372766 0.09503472 0.09374525 -0.037542507 0.1187032 -0.0074982657 0.034826122 -0.06294856 0.17510915 -0.021144805 0.075682946 0.05248118 0.03933661 -0.03114435 -0.10846227 -0.11608138 -0.04536299 0.02189092 0.0999001 0.034377787 -0.03187909 -0.021546477 -0.058862537 0.112765506 -0.012351846 -0.06442832 0.006049197 0.0041102194 0.056049507 0.07113051 0.05489004 -0.14329137 0.11103777 0.0145083815 0.12764941 0.031903148 0.015332204 -0.047555994 0.0554057 -0.06023257 0.13094567 0.009855014 0.15845084 0.1205257 0.050913155 0.11686568 -0.0071567916
缓刑 -0.12597066 0.08838215 -0.033381466 0.060156927 -0.073315986 0.09357912 0.0225234 0.019713039 -0.08424449 -0.012285389 -0.0135887 0.06071607 0.14600778 0.01666169 0.07283052 0.112170435 -0.05962607 -0.028594552 0.06858474 0.055336066 -0.027308576 0.082321286 -0.01745183 0.015334987 -0.04954854 0.13265806 -0.017996151 0.062279847 0.025747448 0.027848948 -0.021914743 -0.07992648 -0.08428832 -0.022407597 0.027483609 0.07294846 0.018917158 -0.014725391 -0.008584126 -0.045379262 0.07895942 -0.0050615068 -0.03949017 0.00051314494 0.0039410815 0.035963543 0.059601087 0.047697205 -0.09224879 0.08169752 0.007507914 0.09076024 0.02308541 0.01136771 -0.029848773 0.031333137 -0.042800352 0.08906564 0.006722664 0.11954471 0.085055016 0.03061214 0.082612626 -0.008247569
能 -0.16012742 0.12478435 -0.05173724 0.08598003 -0.0868466 0.1259922 0.027675884 0.019547038 -0.1181584 -0.0050143236 -0.008481819 0.07442442 0.19345798 0.024330959 0.10789864 0.15430586 -0.07637211 -0.04617987 0.09281983 0.081578344 -0.044851176 0.1119301 -0.017755667 0.02471702 -0.05988445 0.1825152 -0.016431862 0.070652045 0.04390773 0.03825363 -0.02372414 -0.11381295 -0.11067589 -0.038421072 0.024048703 0.08795974 0.037351713 -0.022651192 -0.013817438 -0.058111686 0.12009892 -0.018866148 -0.051058922 0.01445577 0.007289613 0.053828757 0.074073315 0.06488047 -0.13391358 0.1178689 0.0059594875 0.122049436 0.026381077 0.0134126255 -0.040659808 0.052484944 -0.06704825 0.13044794 0.00331815 0.15825017 0.121810906 0.06022215 0.12401511 -0.0078914445
您好 -0.12182823 0.093292944 -0.03875063 0.06735337 -0.06136542 0.0908775 0.020564731 0.01045232 -0.0792161 -0.0046123415 -0.012707367 0.055041872 0.14005314 0.024061138 0.07150333 0.10842037 -0.065143496 -0.040591285 0.07439569 0.06864627 -0.023676507 0.07945439 -0.016200304 0.029336717 -0.051754516 0.12506849 -0.01868841 0.055382423 0.027260557 0.020713182 -0.022368057 -0.07928438 -0.0823734 -0.020766689 0.015526521 0.06476975 0.030141693 -0.016532289 -0.012662873 -0.04957368 0.08510203 -0.017341664 -0.04183549 0.012517576 0.009587736 0.040465716 0.06262118 0.042873487 -0.099894784 0.086696915 0.0107035 0.08191727 0.012972853 0.01191504 -0.03616577 0.036845874 -0.051507514 0.09396297 -0.0027214733 0.12047685 0.08848643 0.044589985 0.09738851 -0.0070379497
特征 -0.10349293 0.08950021 -0.037054602 0.059110165 -0.051147997 0.075084485 0.013104124 0.016489727 -0.06596899 -0.0074525373 -0.005411486 0.051648576 0.12119651 0.014023722 0.07421996 0.09325613 -0.044310726 -0.024308063 0.054504346 0.05865882 -0.0205369 0.071980044 -0.011286368 0.02127085 -0.044845466 0.11721383 -0.006723 0.045485493 0.023707176 0.02515555 -0.015631482 -0.07709361 -0.07736177 -0.020413846 0.018272758 0.05562639 0.015180553 -0.017324425 -0.005089347 -0.045688834 0.08204955 -0.017200023 -0.044436567 0.004713736 -0.0034652434 0.031828765 0.048739787 0.043859232 -0.086653404 0.06253341 0.0132496245 0.06901754 0.013381896 0.0001574661 -0.025645949 0.03335369 -0.041992042 0.08607134 0.0025529978 0.105964564 0.06676821 0.041801006 0.07598893 -0.00048432947
打扰 -0.09771566 0.0873168 -0.033897627 0.05280713 -0.05076746 0.08285658 0.0093221115 0.017315205 -0.06230751 -0.010710946 -0.014653693 0.05045963 0.12220457 0.015132199 0.073060066 0.097049505 -0.04601857 -0.030542433 0.052284747 0.055357203 -0.032271177 0.073177464 -0.0005734214 0.018317515 -0.037378125 0.11076767 -0.0082884375 0.044282213 0.026239876 0.029074946 -0.009626324 -0.062753946 -0.07331209 -0.022513453 0.023834541 0.05360554 0.015323433 -0.01835914 -0.017975492 -0.036920395 0.070020296 -0.00848857 -0.031814847 0.0043586604 0.006936349 0.028117906 0.043541506 0.030243443 -0.0896855 0.06347944 0.013736727 0.069641866 0.009105318 0.006960071 -0.023434116 0.029385487 -0.0456907 0.08726988 0.010047346 0.094221994 0.07436521 0.030696455 0.07689367 -0.00815961
不 -0.1680367 0.11915014 -0.048213035 0.08228398 -0.09200333 0.124352485 0.02093596 0.018553277 -0.1102604 -0.0080775935 -0.013183964 0.06540099 0.19166791 0.014468992 0.10594926 0.1549339 -0.085830614 -0.04294939 0.08201758 0.09083726 -0.042067684 0.1088107 -0.014103787 0.039085258 -0.069869936 0.18103181 -0.024390746 0.08382554 0.041003585 0.039422225 -0.017160589 -0.10835359 -0.108088836 -0.029514985 0.02982803 0.09725277 0.032968704 -0.032228842 -0.020032775 -0.061193123 0.12054793 -0.010892361 -0.061594676 0.004565461 0.0011027739 0.048433624 0.07516386 0.06291085 -0.13408105 0.10999602 0.0038319242 0.114767484 0.032076094 0.014390253 -0.036986053 0.057974666 -0.06402912 0.12573294 0.012283002 0.16074981 0.11016586 0.057235744 0.12078827 -0.00914102
怎样 -0.12767085 0.10496622 -0.04719076 0.06855943 -0.078008235 0.097472705 0.011114985 0.021084512 -0.09560125 -0.007095607 -0.0073250495 0.053027254 0.15667596 0.012485513 0.09222019 0.11451904 -0.06256565 -0.037888117 0.065821424 0.07339546 -0.03404186 0.09734652 -0.012780611 0.029412031 -0.05767757 0.13586998 -0.008354684 0.06254104 0.028192434 0.035286684 -0.01689116 -0.093850434 -0.096163236 -0.022135591 0.015976544 0.07225658 0.030818375 -0.024208229 -0.015952853 -0.0528079 0.08830707 -0.014671568 -0.044586543 0.01551606 0.010656238 0.044763904 0.058103185 0.05615502 -0.113585666 0.09101292 0.0056030885 0.09889806 0.016581934 0.010099557 -0.0268434 0.04270298 -0.05200548 0.09691837 0.0035244701 0.13117212 0.08449469 0.047047842 0.10020279 -6.757571e-05
类型 -0.11365598 0.094075136 -0.038372282 0.061116245 -0.062661625 0.08710656 0.02183383 0.012678934 -0.07636061 -0.014792832 -0.012053158 0.055824764 0.13956834 0.012960457 0.07000981 0.109284915 -0.055574786 -0.0336243 0.055498365 0.06446215 -0.031474147 0.07550259 -0.012222723 0.0192801 -0.045917768 0.11750515 -0.006633863 0.04891039 0.0403966 0.024053365 -0.012990324 -0.06979688 -0.08190304 -0.024936104 0.022725191 0.067262135 0.021800052 -0.011509985 -0.018707285 -0.042446095 0.079714164 -0.0059813373 -0.031994283 0.0037524959 0.008533502 0.037182134 0.045427855 0.045711283 -0.09398898 0.078708686 0.0066054864 0.07769158 0.01967939 0.0084030405 -0.033925653 0.039020795 -0.04423144 0.09448803 0.0029985048 0.114481784 0.06947543 0.041626886 0.088869415 -0.008413319
麻烦 -0.12376374 0.088685766 -0.030646047 0.065250695 -0.07199153 0.10041237 0.009943075 0.017026613 -0.084715255 -0.0035106067 -0.0045684422 0.05458051 0.15456447 0.022299184 0.08115605 0.12101507 -0.06787623 -0.031823825 0.06449563 0.07227952 -0.03149357 0.08299148 -0.013750859 0.019647622 -0.051229138 0.12836295 -0.010074921 0.055926252 0.026203355 0.019371623 -0.018083995 -0.07402443 -0.079652645 -0.026379826 0.017802067 0.07222429 0.03172497 -0.014043712 -0.014625752 -0.046490703 0.08950731 -0.01880441 -0.04149657 0.011407423 -0.005763167 0.045437194 0.04809263 0.04872154 -0.11185226 0.09074111 0.007881026 0.08796095 0.020453023 0.0001867575 -0.02576151 0.032066498 -0.04913017 0.092431344 0.010057808 0.11356582 0.09204339 0.046324816 0.0921167 -0.001996766
诈骗罪 -0.106419474 0.08309022 -0.031109408 0.056138575 -0.04859266 0.06573776 0.016626973 0.01762943 -0.06541959 -0.0010042578 -0.0017177681 0.051130522 0.11935907 0.0060341866 0.062434778 0.08593759 -0.04857641 -0.032057654 0.053509437 0.052984007 -0.01628348 0.074592315 -0.017109152 0.014742359 -0.042422824 0.11322217 -0.012245737 0.048706796 0.032340616 0.024178319 -0.016337689 -0.06517519 -0.06530734 -0.02185251 0.02318877 0.051541682 0.01506939 -0.015340154 -0.017316688 -0.044979833 0.07346651 -0.01044199 -0.039453376 0.009574314 0.008585179 0.03704294 0.040627107 0.035393592 -0.08727427 0.06390024 0.010722546 0.06442794 0.022160375 0.0022747011 -0.023003789 0.028882064 -0.043310426 0.08016561 0.008945134 0.1005851 0.063406944 0.03263311 0.067601554 -0.0066359364
介绍 -0.16114609 0.113345794 -0.04549011 0.08782331 -0.07902188 0.10609922 0.020052426 0.0117747495 -0.11139143 -0.015455453 -0.017688656 0.06798324 0.17792557 0.015098837 0.0955071 0.14401534 -0.07401673 -0.048578784 0.08845633 0.08055202 -0.039574016 0.11041479 -0.009911138 0.033741526 -0.060018238 0.16671343 -0.022182541 0.06642477 0.044713095 0.039681207 -0.016092751 -0.10934919 -0.10407673 -0.033778597 0.029397115 0.09352229 0.030981919 -0.030448556 -0.019493392 -0.06826728 0.11522947 -0.010215946 -0.05820111 0.009589779 0.011296738 0.052377574 0.06961472 0.050576195 -0.13722537 0.101539806 0.0015635156 0.11676792 0.030716164 0.008907394 -0.048047014 0.053703707 -0.06266295 0.12922707 -0.0037806232 0.14387955 0.102385744 0.054496452 0.11836979 -0.014062507
多少 -0.14869687 0.12239415 -0.042217594 0.083571516 -0.08953326 0.10588503 0.01548235 0.01541018 -0.09545978 -0.010715274 -0.011486278 0.07422232 0.1770339 0.014241918 0.091076404 0.13727254 -0.06811499 -0.036889434 0.073917754 0.07884911 -0.030140763 0.101050474 -0.022004647 0.035404216 -0.052250553 0.15364487 -0.022799894 0.06105714 0.045700375 0.03432451 -0.017484058 -0.09526284 -0.10773149 -0.029321192 0.022351801 0.08498337 0.035804823 -0.017312663 -0.012574989 -0.05145058 0.111687 -0.01460048 -0.053467795 0.016477192 0.001746521 0.047582235 0.071575075 0.052820355 -0.1295144 0.10185551 0.0043028304 0.113736585 0.02695844 0.009559838 -0.043429077 0.043150373 -0.05376488 0.11435688 0.0108304825 0.15191956 0.1088776 0.04838408 0.10779178 -0.012303384
醉驾 -0.10001636 0.07261924 -0.036196005 0.059730213 -0.060106184 0.07327624 0.017208869 0.015109257 -0.057301816 7.072307e-05 -0.0057131443 0.040198114 0.11391064 0.017242845 0.059569035 0.09635632 -0.05453312 -0.025104145 0.04947296 0.054229602 -0.025706947 0.069256 -0.016027326 0.015357244 -0.040875684 0.1079451 -0.010652055 0.03885291 0.026078999 0.022030666 -0.015037065 -0.062236834 -0.06654719 -0.014669704 0.013774105 0.055885676 0.013500067 -0.016289867 -0.013815642 -0.043554105 0.07076219 -0.0036491947 -0.036020916 0.013131619 0.0091457935 0.02823411 0.04347845 0.03869234 -0.07556358 0.06315963 -0.001014169 0.068169035 0.008908417 0.00966214 -0.019225642 0.037371404 -0.043519918 0.08073806 0.0024997757 0.10035583 0.06869222 0.028195396 0.07134865 -0.0013638242
骗 -0.13287267 0.11151842 -0.045648698 0.07173261 -0.08356993 0.099843174 0.019852392 0.010271981 -0.09699685 -0.0021127004 -0.007097541 0.057430394 0.15564534 0.016566297 0.08741449 0.13207465 -0.068781205 -0.042735644 0.0702112 0.074704565 -0.028029082 0.09456196 -0.011330869 0.02799157 -0.04418883 0.14304031 -0.005996481 0.058423746 0.037241705 0.024623554 -0.020003054 -0.08682875 -0.09663575 -0.02795082 0.024718542 0.08300092 0.02598159 -0.021855272 -0.017463129 -0.055350047 0.10375668 -0.009872936 -0.046968 0.011198663 0.012074267 0.046680536 0.055936433 0.050957687 -0.10657044 0.092799015 0.012218483 0.09644514 0.019542499 0.0021367085 -0.0421228 0.051961094 -0.054732893 0.10934487 -0.0026655442 0.13186908 0.09387122 0.041177522 0.10841116 0.0036268083
概念 -0.107031174 0.07353997 -0.035440203 0.049840227 -0.052440565 0.079285406 0.010127594 0.004742661 -0.07064141 -0.013068182 -0.0116000855 0.045502745 0.12838991 0.01687006 0.070144765 0.094252676 -0.043240767 -0.033270206 0.060037475 0.0612846 -0.019071225 0.075657845 -0.0059360396 0.025571555 -0.047086187 0.103365876 -0.018305402 0.04717171 0.028916014 0.019714897 -0.012092977 -0.07043375 -0.07672689 -0.019472552 0.017936835 0.065794446 0.021628037 -0.011948669 -0.007282364 -0.041901153 0.073771104 -0.011712755 -0.042572957 0.0068748146 0.0045966175 0.033700876 0.043411218 0.04059018 -0.083100624 0.068789825 0.007860367 0.072361 0.017918212 0.0010667618 -0.01981302 0.04086935 -0.04621353 0.08562007 0.007056736 0.09508168 0.06787706 0.025678437 0.07174803 0.0031712018
怎么办 -0.104677156 0.076082096 -0.033727996 0.05566779 -0.06551334 0.07385511 0.0065471753 0.019031595 -0.07107481 -0.0110967625 -0.012121701 0.048055522 0.117935814 0.01785948 0.06398081 0.09661216 -0.054389495 -0.031520534 0.050646026 0.05771623 -0.023250328 0.07915846 -0.01543942 0.015847735 -0.04393551 0.119967684 -0.012184874 0.040978823 0.022101639 0.017027665 -0.018035857 -0.06177477 -0.07054364 -0.030573381 0.013063208 0.060912456 0.020153355 -0.024588961 -0.01356828 -0.03971019 0.082063965 -0.00031116046 -0.04172596 0.0033110003 0.0075239697 0.031090964 0.0536611 0.034158386 -0.08961506 0.07318425 0.0018109003 0.08323509 0.015725438 -0.0021478245 -0.029446263 0.039568435 -0.03842868 0.0881104 0.0047122324 0.11141702 0.0695317 0.032973163 0.07085015 -0.0056754933
刑法 -0.12447533 0.10144052 -0.028493116 0.063706525 -0.06503312 0.090440236 0.015082094 0.008095799 -0.08729772 -0.0077251485 -0.0021185933 0.05035666 0.13819672 0.014003273 0.07956693 0.1043521 -0.06760602 -0.027398547 0.06488454 0.072335966 -0.02803244 0.0832731 -0.008353312 0.03243568 -0.050679818 0.13733122 -0.020536616 0.06360549 0.039426196 0.026077226 -0.014972175 -0.0717234 -0.0870549 -0.02574813 0.013428411 0.07204213 0.020598087 -0.0111741265 -0.010272664 -0.0548026 0.085066535 -0.007982554 -0.049605068 0.0059781354 0.009892408 0.04603216 0.058593966 0.04400262 -0.10868266 0.076477565 0.013484858 0.07708793 0.01591337 0.0038686295 -0.023963997 0.04077806 -0.04833961 0.097947046 -4.2835425e-05 0.123112775 0.09327711 0.03192149 0.0958683 -0.009150325
定罪 -0.12392095 0.09544683 -0.035574093 0.06670776 -0.06925029 0.09260871 0.016651014 0.008281711 -0.08325629 -0.014086336 -0.014770778 0.05186089 0.12917575 0.008209781 0.07943872 0.115181826 -0.05168454 -0.026705172 0.06576944 0.0621109 -0.020068793 0.081443995 -0.0039248937 0.026757265 -0.04404904 0.12237064 -0.016997598 0.057867732 0.024318159 0.027809216 -0.015900465 -0.069316 -0.078692056 -0.020998996 0.026558314 0.06448757 0.029174412 -0.014072309 -0.01838406 -0.048350386 0.07926285 -0.016230064 -0.0335587 0.0010728954 0.0098690055 0.032659657 0.050984554 0.043443948 -0.09083101 0.07123354 0.00597081 0.080752514 0.011336969 0.010772423 -0.024090784 0.04152117 -0.045820765 0.09416564 0.0031404318 0.10688754 0.08401697 0.042238828 0.08817399 -0.006834537
处理 -0.07771625 0.060911346 -0.02496757 0.037701413 -0.053275347 0.06198209 0.011701182 0.0047449297 -0.061544355 -0.0078041037 -0.011982594 0.03145404 0.09637194 0.007512727 0.050358307 0.080997735 -0.036241744 -0.021054652 0.050874285 0.046372376 -0.010620043 0.054973476 -0.012748052 0.009701813 -0.031056648 0.081764266 -0.0071989773 0.0330639 0.022097701 0.016178798 -0.017885953 -0.05980741 -0.05905955 -0.024218582 0.012717491 0.053040702 0.01916611 -0.015517561 -0.0024777972 -0.027379591 0.056934256 0.0011651497 -0.033718705 0.002306793 0.010474769 0.019046176 0.035336312 0.028339043 -0.06725633 0.050061166 0.005713869 0.06569535 0.005091992 0.009108888 -0.01709443 0.024567496 -0.03767276 0.069534436 0.00073345104 0.082116894 0.05221149 0.01881116 0.05492458 -0.009728541
法律 -0.13749966 0.09258653 -0.040241186 0.06430037 -0.0660342 0.09166563 0.01304184 0.016637387 -0.08905824 -0.015807284 -0.021200666 0.065071486 0.14884937 0.016564058 0.07442564 0.11796048 -0.069085695 -0.03485256 0.069172405 0.06633439 -0.02624368 0.10188304 -0.007994493 0.028829198 -0.0588017 0.14413613 -0.019598117 0.061707214 0.03639888 0.03282822 -0.012531965 -0.09538956 -0.0872882 -0.03367486 0.028550975 0.06973112 0.027907683 -0.015641464 -0.0041420315 -0.05287341 0.082822785 -0.0023048632 -0.044130534 0.009552119 -0.003244205 0.045046873 0.06317353 0.052222442 -0.11957289 0.07875907 0.01583792 0.088680774 0.01946566 -0.002533089 -0.034432877 0.0522123 -0.052153222 0.09895008 0.006106902 0.12507623 0.09892581 0.032584596 0.09657952 -0.0019078316
规定 -0.097234346 0.06193199 -0.034378234 0.053033516 -0.05339915 0.07172292 0.0052944445 0.01538083 -0.06961776 -0.0148862265 -0.011863696 0.044844728 0.11000597 0.0059853536 0.05383125 0.09266987 -0.05236671 -0.028018732 0.05011515 0.056538757 -0.01883665 0.06795994 -0.015862064 0.009802332 -0.043344676 0.09996993 -0.0005646887 0.037981503 0.02363422 0.02111868 -0.0135456305 -0.07051614 -0.05684063 -0.015855687 0.014768894 0.045903128 0.02362523 -0.007937818 -0.0019185566 -0.042295717 0.06051984 -0.013912512 -0.028351089 0.0035582928 -0.0026069055 0.027575085 0.037961025 0.033028003 -0.08318914 0.056001216 0.011340695 0.06871081 0.006289034 0.004005556 -0.028630238 0.023624111 -0.038217943 0.06495325 -0.0020384362 0.09745331 0.05691481 0.03600669 0.07080462 0.0043928963
刑事 -0.09114234 0.07091691 -0.03065762 0.053320546 -0.04552579 0.061657436 0.0064611454 0.016524145 -0.066689484 -0.014621229 -0.002626727 0.03432487 0.10960419 0.017463688 0.053793304 0.090052575 -0.048254788 -0.018773736 0.056862548 0.049633533 -0.019027663 0.058373094 -0.016490377 0.018446548 -0.040715765 0.093243085 -0.0026654687 0.03858121 0.02918196 0.012522364 -0.019305848 -0.06294727 -0.06762926 -0.013077814 0.011148332 0.051433753 0.01673259 -0.012009284 -0.0031090812 -0.042131603 0.065087974 -0.004304308 -0.030294886 -0.00039848118 0.005766452 0.024946686 0.043424718 0.028239872 -0.08129438 0.055189453 -0.00021481911 0.06721624 0.011134799 0.01248632 -0.017334616 0.029729944 -0.03640757 0.06618135 0.0019979207 0.09581811 0.068653315 0.035773013 0.06040341 -0.005718439
刑事案件 -0.083568394 0.07013597 -0.024410238 0.04849664 -0.039173357 0.06876702 0.014215135 0.015861396 -0.058704253 -0.009746818 -0.004412733 0.045091763 0.09525006 0.014726818 0.060817555 0.08452384 -0.036128204 -0.019600932 0.050105948 0.045904547 -0.014738639 0.05341638 -0.011803903 0.014304021 -0.037427865 0.083183676 -0.0019611944 0.032094877 0.028134046 0.011784943 -0.017746044 -0.04932725 -0.05415851 -0.011987558 0.019526985 0.041867595 0.012025357 -0.005659649 -0.010034036 -0.03258892 0.0570553 0.0007871258 -0.032223657 -0.0010313502 -0.0025770538 0.030630218 0.039528266 0.033918478 -0.07583471 0.058533814 0.011067582 0.06399636 0.014215014 -0.0026063407 -0.014171292 0.03279842 -0.0316165 0.074421376 0.008688281 0.08255875 0.0641429 0.021279348 0.059697486 0.0033024852
能否 -0.13193217 0.09826682 -0.046226554 0.06343281 -0.07569157 0.09023417 0.01289406 0.019586047 -0.08621973 -0.0137929125 -0.008802531 0.059635747 0.15935601 0.022430709 0.09037833 0.12034698 -0.07192899 -0.038771983 0.06774348 0.064805456 -0.03837266 0.08620793 -0.012624765 0.032894477 -0.05820644 0.13021241 -0.009787494 0.053177398 0.04150134 0.02845646 -0.023863142 -0.08212174 -0.089215875 -0.024987107 0.017719548 0.08195512 0.02968545 -0.026343368 -0.012193298 -0.053681485 0.09676336 -0.010040667 -0.047382686 0.011026791 -0.0048105917 0.041006994 0.054652177 0.053752422 -0.10990995 0.07844302 0.014003495 0.08757708 0.017145304 0.010615736 -0.040318374 0.0361179 -0.049206067 0.10809365 0.011509311 0.122295834 0.08658676 0.041166365 0.10007272 -0.0022762232
组织 -0.097697906 0.074187316 -0.026032133 0.06323106 -0.059276916 0.06791175 0.012241637 0.0054029534 -0.06887643 -0.012841582 -0.0041881367 0.049748305 0.1276514 0.008443383 0.05866896 0.09719819 -0.042961873 -0.033489298 0.049283754 0.050278965 -0.029476626 0.079788424 -0.0068968334 0.027194642 -0.036097437 0.10200367 -0.016475854 0.04904515 0.023162114 0.026626218 -0.01788802 -0.06641508 -0.07646713 -0.019376626 0.017588623 0.052697748 0.017130516 -0.02111717 -0.016728178 -0.04510007 0.06689954 -0.0017674678 -0.03223314 0.0009494588 -0.005561381 0.031046728 0.05376479 0.043310367 -0.08144481 0.06843096 5.2464417e-05 0.06978068 0.010287175 0.013982767 -0.029774366 0.03187355 -0.04559561 0.07919831 0.0010188456 0.09930397 0.07012352 0.03491034 0.07044333 -0.0010410674
认定 -0.0808167 0.069535375 -0.024305802 0.050251093 -0.045701712 0.054042563 0.016216168 0.004305446 -0.060743853 0.00068302127 -0.014998113 0.04421434 0.10102286 0.017536458 0.050228607 0.068495415 -0.0397581 -0.017507028 0.051693797 0.04643202 -0.021319155 0.06397217 -0.011105338 0.012596138 -0.037054397 0.08512811 -0.007138607 0.04073566 0.017043196 0.017682042 -0.0051656305 -0.054470316 -0.051007275 -0.023543695 0.009553621 0.0388163 0.01782914 -0.020109057 -0.0027212938 -0.027726788 0.05676473 -0.00042790885 -0.028981302 -9.193577e-05 -0.0016611402 0.025064629 0.043993894 0.026365103 -0.06135825 0.05587111 0.007306923 0.051425435 0.018501403 0.010140948 -0.024951626 0.023580393 -0.034809057 0.06890341 -0.0020174256 0.087873586 0.05624982 0.024943525 0.06280771 -0.0013387505
盗窃 -0.10075281 0.07911335 -0.03838022 0.054059435 -0.055015408 0.07679435 0.020227512 0.0040886635 -0.06291556 -0.0058624637 -0.010969822 0.05233209 0.109821066 0.0051688934 0.06320883 0.08968649 -0.05442309 -0.026240252 0.05628569 0.058796983 -0.015146749 0.07663833 -0.016711071 0.018606454 -0.04357994 0.111554146 -0.0073422645 0.049099103 0.03442103 0.015261547 -0.022991428 -0.07236007 -0.0669078 -0.021530222 0.012176599 0.061778683 0.019947663 -0.022544665 -0.01445792 -0.03422564 0.07114115 -0.004650662 -0.03339157 0.013113456 -0.001941321 0.037272256 0.05118198 0.044877607 -0.08494718 0.06506597 0.0074190767 0.07981525 0.016373547 0.003916446 -0.020141413 0.03677069 -0.036660936 0.080160975 0.008563719 0.10324825 0.07291134 0.027126338 0.081493355 -0.010383181
意思 -0.0763015 0.06514702 -0.01869609 0.041807674 -0.045684416 0.06312058 0.017586911 0.005795984 -0.045336947 -0.0019929542 -0.0027547195 0.033579577 0.09702506 0.008771211 0.04049463 0.062539905 -0.042017285 -0.015127359 0.038816012 0.046611656 -0.019723598 0.045672223 -0.002841233 0.019354269 -0.026962793 0.08149239 -0.0034342445 0.039812613 0.019059462 0.009796062 -0.015985318 -0.05476447 -0.050445575 -0.020555189 0.016822208 0.041923057 0.007551101 -0.0099985385 -0.013360807 -0.031887606 0.057265487 -0.010513688 -0.033640616 0.011648793 0.009066872 0.026034117 0.027397435 0.026730904 -0.061943624 0.042286124 0.0046528424 0.056105725 0.018733073 0.003254964 -0.021713626 0.017873423 -0.03109941 0.054460112 0.0004752714 0.072243586 0.05146264 0.01947147 0.055846106 0.0034327162
对应 -0.14730623 0.10758377 -0.03632384 0.082625866 -0.079598196 0.09500558 0.012001535 0.022366142 -0.08741454 -0.017186288 -0.014831609 0.058452707 0.15778995 0.01101894 0.090837985 0.1299158 -0.06415256 -0.036807794 0.07012785 0.07396701 -0.024113601 0.10233736 -0.0126888165 0.029344805 -0.05629577 0.14482541 -0.007325493 0.07102453 0.041246977 0.022385841 -0.015826061 -0.0924968 -0.08986117 -0.03168551 0.024363821 0.08216349 0.03023279 -0.027060578 -0.010659701 -0.06087894 0.09685393 -0.016942559 -0.04118952 0.004462908 -0.0044906614 0.04448833 0.06869034 0.05852472 -0.11157936 0.0894843 0.0046587903 0.10440823 0.025650373 0.015051405 -0.038199484 0.039999433 -0.059961908 0.104306154 0.000271986 0.14169936 0.09843559 0.050631214 0.11168139 -0.007653444
故意 -0.10693598 0.0837355 -0.0383167 0.060280375 -0.058141656 0.069989026 0.0061192345 0.0139897 -0.07576434 -0.014413046 -0.015009904 0.045821056 0.12649988 0.0072599314 0.073629774 0.10458968 -0.045602497 -0.020778954 0.05928682 0.057163656 -0.026695281 0.07616246 -0.010726496 0.018931549 -0.035943575 0.11844641 -0.0064316825 0.054127093 0.03597256 0.02293293 -0.011413411 -0.07431557 -0.07492078 -0.02159414 0.01855194 0.06763801 0.02108717 -0.021615602 -0.004077604 -0.041764636 0.07769604 -0.012815009 -0.04157186 0.0050726556 -0.001044144 0.023458328 0.050316717 0.036810037 -0.08951879 0.065319575 -0.00037806045 0.07141316 0.016326541 0.0022747307 -0.026023379 0.029138453 -0.0496513 0.086278915 0.010318635 0.0971299 0.073620506 0.037561957 0.082819484 0.00430217
后 -0.09989949 0.071966074 -0.037300237 0.047519878 -0.05056453 0.06727122 0.0150274765 0.0053137033 -0.072859615 -0.011628231 -0.0010068985 0.04258506 0.1183842 0.017430343 0.067481466 0.099401385 -0.046457116 -0.02844261 0.049736865 0.044998262 -0.019556697 0.072983526 -0.014547774 0.023240795 -0.036677595 0.09964289 -0.0037101794 0.04412202 0.024253065 0.019220373 -0.010055824 -0.07290529 -0.070273444 -0.01570161 0.015368663 0.060584918 0.020464478 -0.017359732 -0.013590394 -0.044348396 0.07076437 -0.01503383 -0.027806666 0.010943148 -0.0029013858 0.035512477 0.045290004 0.030411875 -0.08489723 0.07354888 0.010558906 0.07481178 0.013866285 0.0053242412 -0.028352119 0.025682187 -0.043905944 0.08467391 0.008205457 0.09783592 0.06125832 0.037395466 0.06882021 -0.0021734564
聚众斗殴 -0.049847897 0.044311047 -0.014361314 0.0295121 -0.037663285 0.042929593 0.0075172177 -0.0010661993 -0.043390963 -0.006443018 -0.0018269697 0.030215431 0.06475894 0.0020450195 0.038402602 0.05720181 -0.034594126 -0.02222037 0.030339414 0.028963612 -0.012535747 0.046246115 -0.00046567852 0.015539349 -0.026209563 0.056835018 -0.0029125446 0.031888925 0.023082504 0.01193164 -0.013528481 -0.03496428 -0.038851973 -0.010476049 0.008844069 0.027024414 0.004794747 -0.000546397 -0.012243564 -0.022600701 0.0370951 -0.0036942149 -0.02651575 0.003946361 -0.0035355617 0.01689138 0.030014211 0.0214016 -0.051374227 0.036259037 0.004844835 0.032496214 0.005336312 -0.0037240929 -0.00708034 0.020883448 -0.025351658 0.04411918 0.0041705207 0.06265453 0.033928636 0.012781031 0.034985278 -0.006409012
定义 -0.08886591 0.07080136 -0.033770524 0.04671217 -0.05607976 0.058798343 0.0060881637 0.0049031395 -0.06506111 -0.009848267 -0.014472567 0.031970058 0.11212845 0.017038373 0.061902042 0.08907367 -0.03862192 -0.030530116 0.049649518 0.052487966 -0.021629296 0.06927316 -0.003378135 0.013326635 -0.037652627 0.098219566 -0.0036787067 0.046351906 0.029104752 0.016124317 -0.015665067 -0.061428577 -0.053473372 -0.015684394 0.020820837 0.04410642 0.012360078 -0.015344219 -0.0064834547 -0.030849352 0.06275825 -0.011514473 -0.029446168 0.010078745 0.0022128932 0.02344078 0.038284946 0.0320403 -0.08091888 0.05057521 0.0004928325 0.06161855 0.020496342 0.009145453 -0.015452814 0.02159016 -0.038739696 0.070105396 -0.0015913872 0.08255419 0.05842021 0.023323268 0.06736481 0.0041829026
人 -0.10323563 0.07568801 -0.033649728 0.052458547 -0.06026994 0.07260641 0.01536716 0.0060690125 -0.07851931 -0.015212483 -0.0058690207 0.04679783 0.12064188 0.015923338 0.06577981 0.10564541 -0.060061578 -0.022073856 0.053727124 0.054493215 -0.020315759 0.072331466 -0.014032965 0.012703185 -0.045642737 0.12242011 -0.01602633 0.052986518 0.021987675 0.022220401 -0.009220808 -0.0765092 -0.07970519 -0.01574997 0.025419801 0.0675695 0.015397762 -0.023631034 -0.0071567777 -0.038452547 0.0786463 -0.0049698604 -0.037035 0.0041045216 0.0073335376 0.02865368 0.055166572 0.042316075 -0.09501741 0.07419061 -0.0013499014 0.07516811 0.020396717 0.00096828875 -0.020251159 0.035177976 -0.044568803 0.08852271 0.0044829897 0.11048281 0.07955055 0.03882637 0.08345191 -0.0096791955
要 -0.1040701 0.08471765 -0.033839934 0.050779156 -0.05912386 0.08237306 0.019917376 0.009915378 -0.07079335 -0.0072783525 -0.010753656 0.038705893 0.122485325 0.019662129 0.05905066 0.088142134 -0.058009483 -0.025470056 0.06097261 0.048619945 -0.026999675 0.07751611 -0.013966198 0.025480084 -0.03309422 0.113358095 -0.009261038 0.045597408 0.023801407 0.024547365 -0.01439595 -0.07018626 -0.07187446 -0.023191635 0.013219481 0.057332635 0.023476912 -0.010637975 -0.010716235 -0.03768974 0.07892265 -0.010696195 -0.041510087 0.007964516 0.009618444 0.033284906 0.03844406 0.04019394 -0.08556512 0.07062048 0.00093613757 0.07954794 0.02130378 0.011418905 -0.030838491 0.028331924 -0.044856522 0.07618535 0.008424765 0.10788411 0.06514486 0.031569086 0.069241345 0.0023353
破坏 -0.10236273 0.077052124 -0.037077527 0.060364835 -0.05190278 0.084676035 0.006045555 0.017502489 -0.066747054 -0.008198752 -0.015938537 0.055873696 0.13247156 0.015151381 0.07174256 0.10179526 -0.057926863 -0.036452513 0.06447266 0.06504933 -0.01941717 0.073420614 -0.0053204186 0.023266865 -0.04376182 0.12153121 -0.01781318 0.058031987 0.024229007 0.0249491 -0.020320566 -0.06894437 -0.07465275 -0.029812671 0.025631502 0.05697357 0.020593235 -0.009839133 -0.018971642 -0.036228705 0.078816034 -0.012012649 -0.030081827 0.0014638789 0.0011722855 0.037887115 0.04636468 0.034435887 -0.096069425 0.067182794 0.0017119547 0.0768182 0.023417091 0.007553356 -0.032989558 0.032754675 -0.0424704 0.07798826 0.010446526 0.107329786 0.07905818 0.03110598 0.08636232 0.00021334249
我 -0.08620225 0.061398268 -0.02341991 0.054349832 -0.041705944 0.07294864 0.010855024 0.002869126 -0.06022125 -0.005185398 -0.004195712 0.039817307 0.101004906 0.008198006 0.052703492 0.076894656 -0.038640447 -0.019019278 0.048311427 0.039864566 -0.015034327 0.05697343 -0.008670904 0.018167414 -0.027202828 0.08973068 -0.007901851 0.032389797 0.027084947 0.012043428 -0.011680571 -0.062367715 -0.06624914 -0.022954844 0.009970841 0.05206654 0.022103885 -0.008564878 -0.0136189405 -0.03934732 0.06849651 -0.004010358 -0.033305258 0.002130452 -0.00180736 0.021847928 0.036292 0.035103038 -0.07413719 0.06201193 -0.00060281483 0.059545815 0.006191965 -0.0029449528 -0.019835997 0.028812265 -0.030228395 0.06728454 0.0042654295 0.086404175 0.0632631 0.02525086 0.063554086 0.004956802
几年 -0.07968285 0.05700933 -0.030371023 0.049690988 -0.040183116 0.058575843 0.008075176 0.005215965 -0.054124173 -0.0042682365 -0.012270147 0.03454506 0.10384476 0.009491988 0.050719373 0.07795443 -0.033444952 -0.018111775 0.04241429 0.03955747 -0.012257728 0.0516207 -0.012144205 0.008688464 -0.039443363 0.090766266 -0.014552124 0.04464913 0.020282334 0.021807197 -0.014941829 -0.056966193 -0.05110324 -0.022017665 0.011755472 0.044732828 0.018652782 -0.008129261 -0.013945602 -0.029906414 0.064358175 0.0006031311 -0.028180366 0.0046506342 0.004737472 0.023356618 0.044048168 0.031224951 -0.0739567 0.060671028 0.00064209424 0.061910976 0.01500865 0.009246324 -0.022947801 0.026007872 -0.031993315 0.06480842 0.005408531 0.07704442 0.057453986 0.028898055 0.06387794 0.0011596198
哪种 -0.09676082 0.07805896 -0.026905846 0.04405166 -0.04753464 0.075631596 0.019150278 0.017079668 -0.058471326 -0.0137044145 -0.0018893665 0.043989576 0.10310437 0.006073995 0.06041134 0.082829006 -0.05049863 -0.030288637 0.053076774 0.049593657 -0.02802691 0.06886358 -0.016074572 0.01731808 -0.032691345 0.10654847 -0.01700736 0.04900606 0.032483637 0.0233101 -0.0051488676 -0.06818045 -0.068372734 -0.026976746 0.019056628 0.051639628 0.023369672 -0.015641775 -0.018142961 -0.030635545 0.059267636 -0.0036180923 -0.03058825 0.012517676 -0.0063719572 0.034995396 0.042404477 0.040576756 -0.08610079 0.065885864 0.0053559667 0.060157735 0.020949798 0.011520688 -0.024258992 0.03520344 -0.029179577 0.07375314 0.010386314 0.09612438 0.057496585 0.029916303 0.0692863 0.0010466139
减刑 -0.08409571 0.06461203 -0.02569994 0.04292827 -0.038086537 0.063868366 0.0072932737 0.00907525 -0.058913082 -0.0041667214 -0.0007202789 0.044373646 0.10056637 0.016249683 0.045464586 0.07358562 -0.048094794 -0.030561294 0.04573048 0.044020895 -0.02592509 0.05206046 -0.002304883 0.012313642 -0.03401078 0.08563065 -0.010334189 0.0447732 0.027362926 0.01708426 -0.01483048 -0.04968644 -0.05667582 -0.02234996 0.018600784 0.04135129 0.009165255 -0.006733428 -0.0044780816 -0.035452496 0.05062606 -0.0021309408 -0.024424564 0.0082839895 -0.0050317314 0.032565594 0.04042442 0.034112994 -0.071778394 0.060450397 0.011538912 0.0561873 0.0077421837 0.011357079 -0.013891218 0.029673435 -0.032504696 0.067001104 -0.0015836465 0.08247291 0.057061672 0.033428334 0.065459184 -0.0046756384
条文 -0.07129404 0.05584657 -0.03144918 0.037383385 -0.04156689 0.052606743 -0.00053882145 0.0124921715 -0.061161324 -0.0040625017 -0.0020368681 0.03287339 0.09601849 0.011041843 0.04459628 0.0693234 -0.031663768 -0.019605963 0.04230037 0.04513893 -0.02511276 0.052071027 -0.0021773318 0.008507593 -0.03008434 0.08023224 -0.0065332972 0.02771965 0.023422658 0.01743565 -0.018474124 -0.04842994 -0.053984452 -0.022694523 0.0105869975 0.043282207 0.010063542 -0.007074961 -0.0012675627 -0.028948046 0.06019357 -0.0077427262 -0.0284539 0.0021566825 0.0034369817 0.026023129 0.03980984 0.0358803 -0.06477463 0.053432245 -0.0011990491 0.05532787 0.002894249 -0.0036136946 -0.02628269 0.02961069 -0.03245502 0.057116162 -0.0014026074 0.07088805 0.04588863 0.031087158 0.06035955 0.0037180025
累犯 -0.06358169 0.056049988 -0.027023122 0.031279605 -0.041912574 0.054339956 0.0040130327 0.0048029115 -0.053556025 -0.0041124895 -0.0092477435 0.03561209 0.08937185 0.007945732 0.03899444 0.07174016 -0.034252305 -0.016218444 0.041670445 0.030013183 -0.011745738 0.046551723 -0.013048432 0.012934273 -0.026168661 0.07783149 -0.007408342 0.025707982 0.019653989 0.018029993 -0.01670349 -0.050082963 -0.055007577 -0.008153143 0.009345036 0.04404304 0.009657928 -0.0057690553 -0.0137435375 -0.025995057 0.042416617 0.00012133939 -0.020498827 0.011592477 0.007813769 0.021135205 0.03201243 0.028530257 -0.0572652 0.040927272 0.0030195012 0.047636032 0.0047133323 0.004948426 -0.025277691 0.017096724 -0.022649614 0.055557523 0.0029245475 0.07728979 0.041198615 0.019446338 0.047730476 -0.00022983085
法律依据 -0.06602236 0.047440756 -0.020323833 0.034846917 -0.039243806 0.05352286 0.0127659 0.009660981 -0.0532366 0.0022762357 -0.011988563 0.039119113 0.08605429 0.011910394 0.03686199 0.070818625 -0.032270383 -0.019099936 0.031843238 0.04518911 -0.02153738 0.05442128 -0.013651886 0.01619667 -0.023202304 0.07049356 -0.008132271 0.03725412 0.016520707 0.019387737 -0.015610241 -0.05353148 -0.046134822 -0.012800301 0.0139777325 0.046037782 0.021236489 -0.013294372 -0.0047736783 -0.030425612 0.056542937 -0.011957171 -0.023396458 -0.0020629738 0.003477741 0.027237942 0.030398889 0.0256095 -0.05448382 0.04571541 0.010087538 0.05131835 0.005468432 0.005053317 -0.024511212 0.020601721 -0.025485627 0.06354672 -0.0038910182 0.077212214 0.053244416 0.02662637 0.0604622 -0.008946898
网上 -0.0858487 0.06301863 -0.022085475 0.03953453 -0.052326683 0.06412916 0.0049280357 0.0011746953 -0.057681605 -0.00052488124 -0.005545241 0.03362246 0.09615576 0.015692571 0.053267565 0.077718236 -0.04211271 -0.019000405 0.05217861 0.049095884 -0.021232424 0.057212267 -0.014855511 0.011904439 -0.037764713 0.081645295 -0.007725084 0.04082367 0.028640265 0.018787287 -0.014552932 -0.051851902 -0.06046147 -0.01999719 0.009261375 0.053852573 0.01147881 -0.0100829825 -0.007489278 -0.029067872 0.057914503 0.0023592408 -0.035397604 0.00049573934 -0.0027847157 0.020051178 0.044097453 0.023513716 -0.06320333 0.05580817 0.00092724065 0.0623092 0.018634811 0.009203309 -0.019703632 0.021150803 -0.032651693 0.065772556 0.0089481035 0.07765934 0.06381749 0.021276161 0.0673041 -0.0057664104
未遂 -0.07028989 0.05798686 -0.014165663 0.045229916 -0.034981295 0.057087727 0.012635626 0.004975616 -0.04700981 0.0012071395 -0.0056114546 0.035432212 0.0803805 0.0015297804 0.052008376 0.060695145 -0.031539537 -0.022840062 0.038958408 0.042968623 -0.016088182 0.054435506 -0.012857897 0.016968174 -0.022778258 0.08336544 -0.014491685 0.03699434 0.024269138 0.019416424 -0.006803559 -0.050775908 -0.046239164 -0.012694102 0.020020511 0.03260853 0.012643585 -0.0038359945 -0.013442868 -0.03193121 0.05511178 -0.0007219621 -0.029567424 0.008609804 0.00050917774 0.019144151 0.03681793 0.02840275 -0.06100059 0.045634996 0.009615732 0.054293454 0.00660649 0.0020956676 -0.018071324 0.02382153 -0.023818936 0.052089527 -0.002651041 0.07616984 0.049337547 0.025389958 0.053371016 0.0010151373
出售 -0.10823501 0.09044501 -0.041717812 0.06067413 -0.059251335 0.08739498 0.011412159 0.022146538 -0.07730513 -0.014415769 -0.010250615 0.05307636 0.12934314 0.020302203 0.06379523 0.10820341 -0.06167703 -0.038172107 0.07022786 0.053136293 -0.025353612 0.07218198 -0.008811606 0.026412355 -0.03767413 0.124743365 -0.019335346 0.045691896 0.030149573 0.027011253 -0.0108849285 -0.06627892 -0.08178884 -0.02578547 0.026010614 0.059042927 0.028965985 -0.019548435 -0.017463606 -0.047966562 0.07427375 -0.015693909 -0.038292877 0.01211421 0.011243848 0.03119813 0.043714236 0.03701571 -0.09957032 0.070404015 0.0026567292 0.074024856 0.015414702 0.013572107 -0.030663388 0.037450094 -0.04247919 0.08826564 -0.00067214516 0.10831408 0.08219043 0.029611122 0.08383593 0.003686103
取保候审 -0.06845188 0.04803296 -0.024795653 0.027259886 -0.035364512 0.04958589 0.006759105 0.0141229145 -0.04855996 -0.0016680114 -0.010309539 0.027715888 0.08168866 0.005805407 0.047109026 0.06557093 -0.033644915 -0.02321063 0.039750915 0.04208635 -0.0105539 0.040614538 -0.009457106 0.008334604 -0.022482637 0.06851868 -0.0068791686 0.026498 0.010708403 0.015600419 -0.004547432 -0.04266448 -0.04983325 -0.021717032 0.0113120675 0.039182194 0.011721023 -0.017370418 2.1000544e-05 -0.0258347 0.048649102 -0.0052761296 -0.0180996 -0.0013086351 -0.0024779777 0.025740365 0.035713978 0.021827687 -0.052424826 0.038782034 -0.003307826 0.043733288 0.002180257 0.0056661656 -0.010212618 0.01771616 -0.024734793 0.05730286 0.007825093 0.067413315 0.04663759 0.02622217 0.051660523 -0.009165042
既 -0.076787524 0.050831012 -0.019230431 0.040926237 -0.03377191 0.05210053 0.005307075 0.0070279487 -0.053860515 -0.00089484546 -0.009650791 0.027555851 0.09634908 0.0138625335 0.044276036 0.07436719 -0.031466115 -0.021128614 0.034959026 0.04840919 -0.022491531 0.048654232 -0.014691285 0.024186553 -0.031813253 0.08200396 -0.0062213573 0.03658299 0.015032576 0.024927229 -0.009875205 -0.051300585 -0.05192909 -0.016701378 0.019385457 0.04125546 0.014991714 -0.013050366 -0.0035180289 -0.026971973 0.048584007 -0.0064665135 -0.030559529 -0.00059939234 0.0029409146 0.022219818 0.04147635 0.024268385 -0.059275754 0.043073718 0.0032270656 0.055769544 0.010144382 0.0022738408 -0.028797388 0.031672277 -0.027650913 0.06760739 -0.0038292934 0.08336569 0.055161566 0.033686828 0.055584244 -0.001922831
遂 -0.08325666 0.058444496 -0.03198728 0.04344297 -0.04628656 0.048449676 0.015602317 0.010498313 -0.047589388 -0.0060363645 -0.00046106108 0.04234134 0.09099818 0.01157827 0.04221599 0.08123748 -0.04271889 -0.023612984 0.038307253 0.04856855 -0.013526384 0.060963538 -0.014796665 0.01390994 -0.031751174 0.07942228 -0.006597073 0.03548942 0.022465281 0.022443969 -0.0072267884 -0.045927547 -0.043994304 -0.014359267 0.020041209 0.037719265 0.019448657 -0.0048263357 -0.014023615 -0.023065843 0.049148947 -0.012248131 -0.030726474 0.0019554086 -0.0011026475 0.02671189 0.041482445 0.0338819 -0.07039041 0.05782447 0.0012530109 0.050988834 0.004087657 0.0013045784 -0.0153834885 0.029601911 -0.031642478 0.06307545 0.006327395 0.08187647 0.059903115 0.02912254 0.061644047 0.0019205062
他人 -0.08764003 0.06618043 -0.029162658 0.04632942 -0.0384545 0.05817495 0.01762546 0.016577346 -0.06435754 -0.005794855 -0.0036702442 0.043479003 0.09552946 0.0059055034 0.058561344 0.07899891 -0.03974062 -0.017551055 0.045820326 0.039353754 -0.017025925 0.05717876 -0.0022194104 0.01741311 -0.02624042 0.09084809 -0.0053324807 0.044488255 0.022443203 0.009998584 -0.01030036 -0.04835579 -0.052974947 -0.012773579 0.020911975 0.046962816 0.012929025 -0.011785853 -0.0051310267 -0.026025236 0.05955662 -0.014075003 -0.021969952 0.010065627 0.008551438 0.020097505 0.04044492 0.026111692 -0.067611955 0.05222623 0.002968159 0.067710444 0.011641773 -0.0018362079 -0.021497108 0.034702897 -0.033830613 0.06742552 0.010030832 0.08954113 0.052177347 0.023883784 0.060822953 -0.0001590184
解释一下 -0.07566371 0.05965443 -0.025308289 0.042866893 -0.041375242 0.04833033 0.0121924 0.01536746 -0.052598357 -0.008935377 -0.00937009 0.034609854 0.088295996 0.010004247 0.050971705 0.065145336 -0.035850715 -0.019724771 0.03393995 0.037156545 -0.025130818 0.04683773 -0.00921056 0.016300939 -0.022377959 0.07751456 -0.010718136 0.037230615 0.021407597 0.009488493 -0.0026172835 -0.0471465 -0.05743406 -0.02227685 0.018203937 0.041900113 0.010153133 -0.016379893 -0.011126047 -0.021096084 0.057735097 -0.0134080695 -0.02074605 0.0010981533 0.004899335 0.027329683 0.029666614 0.023227755 -0.064471774 0.0457059 -0.0018748516 0.053456433 0.015011865 0.011700947 -0.021688191 0.018890439 -0.035063326 0.05709938 0.0039815446 0.06292852 0.042323127 0.022921123 0.048012167 -0.003839725
是否 -0.08329681 0.06991385 -0.024875969 0.053508483 -0.042382702 0.06575033 0.0040101693 0.006352293 -0.06533609 -0.0067077493 -0.0051290523 0.044603836 0.11033759 0.014363823 0.06260859 0.08521966 -0.04953624 -0.028183097 0.043539822 0.041886188 -0.012842654 0.06635909 -0.014332916 0.015363357 -0.036802117 0.099525325 -0.016232207 0.042387605 0.027919743 0.024805443 -0.020270577 -0.055991568 -0.06727569 -0.024772272 0.015300676 0.04752367 0.015929941 -0.006573735 -0.008788447 -0.02779494 0.06678525 -0.008175291 -0.025858756 -0.0018007165 -0.0014710338 0.030712567 0.036439326 0.030297386 -0.0806607 0.05670995 0.0067557655 0.060161337 0.0081982585 0.0047526383 -0.028469356 0.033753924 -0.04074536 0.07590347 -0.0019641789 0.08118607 0.060848124 0.028886454 0.059193026 -0.006793984
需要 -0.062473 0.055469695 -0.023810655 0.036157764 -0.03406122 0.055762902 0.010886718 0.013428182 -0.03656281 -0.006586843 -0.011268042 0.032948237 0.081416175 0.008456263 0.037917957 0.06345944 -0.025771793 -0.02341959 0.032342806 0.03119044 -0.022426382 0.046622183 -0.010103985 0.0070913807 -0.031411882 0.0625252 -0.0039597293 0.036147997 0.022207366 0.011849549 -0.0032381397 -0.039993692 -0.036721636 -0.018386502 0.018658565 0.030824145 0.011685656 -0.008796185 -0.0014228225 -0.026205178 0.041291 -0.0105743725 -0.03048928 0.009115243 -0.005535743 0.01648276 0.026734306 0.027293082 -0.048606854 0.04770052 0.012034536 0.041306533 0.0035183684 0.0029915879 -0.021658096 0.013451282 -0.03325026 0.048392072 -0.00018250002 0.068844125 0.04860733 0.0134572815 0.0555178 -0.007795704
走私 -0.06826111 0.057218645 -0.015686445 0.045259822 -0.036204606 0.0579271 0.008435842 0.010459139 -0.056356613 -0.0071094367 0.00034780218 0.027067319 0.0893773 0.016577074 0.04047658 0.061517708 -0.044368 -0.01817337 0.036751587 0.037210234 -0.023371305 0.047958586 -0.0049361605 0.017714793 -0.02502857 0.07160012 -0.0005852489 0.037173405 0.024767902 0.011853355 -0.012982206 -0.04319748 -0.051200733 -0.016070623 0.010552765 0.04577761 0.02059831 -0.019858023 -0.004411984 -0.024464563 0.05898231 -0.0143008875 -0.03239207 0.011205794 0.0074016415 0.016113859 0.03123037 0.022108266 -0.06806457 0.049884487 0.0022599425 0.04789629 0.0058798706 0.007184349 -0.012208596 0.018407932 -0.026410358 0.05962137 0.001822614 0.06845355 0.052357923 0.021842577 0.056340896 0.0037939027
国家 -0.09196536 0.05950773 -0.018896371 0.045312587 -0.05095934 0.06998974 0.0164169 0.016665788 -0.050521515 -0.0060508666 -0.0045886254 0.044049073 0.10357804 0.018012706 0.06004104 0.08024397 -0.042388257 -0.031198507 0.041477308 0.039625302 -0.014294382 0.0617687 -0.00429225 0.018636065 -0.0402171 0.09540762 -0.013601432 0.039221283 0.031359065 0.018405389 -0.0077210497 -0.05775493 -0.06503477 -0.02740776 0.017349258 0.050030347 0.01633475 -0.010778472 -0.004909351 -0.0326868 0.059964884 -0.0021581727 -0.03207986 0.003991584 -0.0005558399 0.019945703 0.041478686 0.03564836 -0.0667853 0.06362159 0.0074669146 0.05653384 0.02040357 -0.0006307562 -0.020763576 0.020895684 -0.038634576 0.06642992 0.007494313 0.08496511 0.05666439 0.0319516 0.0635171 -0.010354931
盗窃罪 -0.0620148 0.050795097 -0.020078745 0.037432518 -0.04121825 0.050787624 0.0022179089 0.004173283 -0.0339468 0.00042578328 -0.0060592294 0.03174872 0.071058035 0.010303107 0.046555396 0.055153385 -0.030531738 -0.018777074 0.032479607 0.025589164 -0.0080742715 0.039060682 -0.008160033 0.010571589 -0.028898235 0.06916199 -0.007259188 0.034225903 0.015467781 0.005385865 -0.015129157 -0.045915578 -0.035225056 -0.0060686744 0.014849577 0.03630749 0.019223597 -0.016401427 -0.009727438 -0.026246877 0.045100033 0.0018438349 -0.01581423 0.001084134 0.008768194 0.021951541 0.02364767 0.024569063 -0.04427355 0.03662489 0.007827793 0.051204484 0.01102919 -0.0036476818 -0.021707319 0.013661238 -0.03072292 0.040721387 -0.005855772 0.06544235 0.03827736 0.017621191 0.04391219 -0.0025931173
驾驶 -0.06805334 0.0415481 -0.026415026 0.033806544 -0.030966531 0.048067514 0.008406354 0.0074103423 -0.03872996 -0.011648777 0.0012893865 0.024391996 0.07312887 0.0067484244 0.047179706 0.06654992 -0.035746716 -0.02438819 0.041775644 0.03837384 -0.020160072 0.044084318 -0.012271034 0.010020138 -0.02396891 0.07221666 -0.012588128 0.027489593 0.011187305 0.0076196576 -0.011343393 -0.049122233 -0.051467404 -0.013797245 0.015019168 0.038950544 0.014274713 -0.009007834 -0.001728607 -0.02553105 0.05094496 -0.013844681 -0.030073127 -0.003938659 -0.0018472279 0.02658617 0.028763982 0.02695493 -0.06143991 0.044469625 -0.0027417904 0.043804694 0.006034547 0.003985498 -0.020822939 0.01797022 -0.027658887 0.05821724 0.009324428 0.06855076 0.044555444 0.013193965 0.039390087 -0.0007332061
还 -0.09778413 0.06686055 -0.027251657 0.04430574 -0.048328344 0.07072261 0.01538735 0.007908979 -0.06378258 -0.005096997 -0.003638939 0.036928326 0.098550946 0.008255144 0.06516558 0.086101264 -0.0512135 -0.028215492 0.053040773 0.048183866 -0.026337065 0.057009693 -0.0056053796 0.015942127 -0.03434512 0.096886076 -0.014663587 0.035201795 0.030535685 0.014811216 -0.01447699 -0.05798342 -0.06748145 -0.01917755 0.010815789 0.051835135 0.0123888925 -0.020568537 -0.00893565 -0.031440128 0.06193879 -0.008535287 -0.038998168 0.0005864174 -0.001047844 0.02365716 0.03618634 0.034194656 -0.082506664 0.06789058 -0.0009627895 0.067114964 0.009148203 0.008577945 -0.01879863 0.024235861 -0.035353225 0.07546628 0.00092562905 0.083258875 0.063382536 0.02240395 0.060793817 -0.005717585
过失 -0.0737625 0.06411808 -0.022652531 0.04663104 -0.03537328 0.059659507 0.0046073785 0.012579236 -0.052505195 -0.0008929811 -0.0074503417 0.03743524 0.09506642 0.008164978 0.044563927 0.0788987 -0.03958148 -0.013952084 0.038854834 0.03533715 -0.02450931 0.06071012 -0.013387537 0.021293731 -0.030589102 0.083582886 -0.0010995727 0.029123632 0.0154202515 0.021886187 -0.009620835 -0.05707956 -0.046689764 -0.021229787 0.0066667106 0.041909825 0.01782991 -0.005111297 -0.009344753 -0.02466327 0.054322094 0.00066005683 -0.024378274 0.012630775 0.0034236354 0.024573186 0.041438617 0.025969319 -0.07381932 0.05855888 0.0037510358 0.06186651 0.015536288 0.0073546013 -0.02108376 0.02033301 -0.02637418 0.055493303 0.00090646016 0.07913351 0.050403688 0.024694933 0.057764456 -0.003919683
钱 -0.074583344 0.06385042 -0.026250988 0.034692064 -0.044624284 0.05803999 0.0049539204 0.011221461 -0.047385745 0.00054441375 -0.007674952 0.0275746 0.0823013 0.0050062262 0.052778162 0.078434095 -0.04285976 -0.028008845 0.046047736 0.042709686 -0.011614489 0.061675392 -0.010837897 0.013400446 -0.022078913 0.08548142 -0.005843501 0.03086631 0.020959457 0.014175063 -0.009675568 -0.057010077 -0.049253315 -0.009536416 0.015247408 0.040326588 0.01647513 -0.007903823 -0.001772803 -0.035057187 0.059356395 0.0018572626 -0.02572488 0.011411244 0.0063246335 0.018668665 0.037817527 0.027368447 -0.067226 0.05126976 0.00979537 0.056499362 0.013386514 0.010926122 -0.012576318 0.0271143 -0.032040253 0.056353766 -0.0006932939 0.07698466 0.04542459 0.018669788 0.055888683 -0.010534421
杀人 -0.056612987 0.050969455 -0.013418494 0.035835072 -0.042240154 0.04761529 0.01219022 0.013796798 -0.046615537 -0.00820618 -0.005807017 0.02566574 0.0723889 0.0018528024 0.036257803 0.05845569 -0.030088311 -0.025101794 0.027420923 0.03349593 -0.020724854 0.038319614 -0.014254265 0.014178816 -0.01993097 0.06637586 -0.011416395 0.0378054 0.024087626 0.017741876 -0.013116238 -0.04602217 -0.04201885 -0.0077969762 0.0057833456 0.042762008 0.016614724 -0.014631946 -0.005412032 -0.03277319 0.04223626 -0.008805438 -0.025408734 0.005347031 0.0023751475 0.022040505 0.029114025 0.022467658 -0.052587982 0.04839855 0.006576202 0.05193024 0.017487932 0.0051809154 -0.012494584 0.028824175 -0.021580333 0.058038205 -0.0021361443 0.07072966 0.0438464 0.0249464 0.051985048 -0.007302124
坐牢 -0.060321733 0.042388994 -0.018314537 0.027105257 -0.02853215 0.04082197 0.014827939 0.010838831 -0.04217508 -0.002007146 -0.00980032 0.03579381 0.07884543 0.015688945 0.04207913 0.06167914 -0.03640249 -0.015593712 0.03934453 0.04005992 -0.010128101 0.050073106 -0.01119399 0.01712116 -0.018332055 0.06798237 -0.01086803 0.025101464 0.023452552 0.0066663115 -0.016852986 -0.04105311 -0.0407418 -0.014153551 0.005279374 0.032031868 0.010444982 -0.008027803 0.000110792855 -0.023347357 0.050953757 -0.01146816 -0.0294372 0.007419157 0.0048274826 0.0210476 0.032449294 0.030744465 -0.054068446 0.047298692 0.0034851017 0.052596055 0.005372853 0.00097085757 -0.017574491 0.02396665 -0.021234646 0.057832014 -0.0033411523 0.06066917 0.04941566 0.014524529 0.05178031 0.0018046963
罪判 -0.07860631 0.065033615 -0.025864862 0.03868172 -0.04741457 0.050930824 0.014566404 0.0014298407 -0.051867098 -0.0065474533 -0.0067303535 0.030965049 0.09231132 0.0041439827 0.049583636 0.066194534 -0.03102222 -0.028470034 0.048918813 0.03280714 -0.010644901 0.053849727 0.00020294733 0.012009276 -0.03154016 0.080013275 -0.0036739258 0.04384407 0.013178908 0.01522992 -0.009527499 -0.05798583 -0.05653992 -0.0131136635 0.015585131 0.05107861 0.014826775 -0.0137609625 -0.0055036168 -0.02813402 0.05971318 0.00060281006 -0.030466879 0.0081133535 0.0004387692 0.030317461 0.030788627 0.024566606 -0.06915756 0.054007992 0.0019748649 0.05596632 0.019032743 0.0010872631 -0.019007256 0.019835271 -0.032421038 0.055521056 0.008935177 0.084225 0.046873353 0.033060286 0.05637684 0.0043803393
法条 -0.06428218 0.053415142 -0.026179612 0.034168478 -0.035800677 0.04712088 0.0053308764 -4.3440734e-05 -0.03607071 -0.0064376737 -0.0021379362 0.031960215 0.06771548 0.011916931 0.036723673 0.051230002 -0.02441729 -0.014953758 0.035333674 0.03856266 -0.007548995 0.044863574 -0.0042652884 0.01911369 -0.031151641 0.06938849 0.0003356643 0.026263554 0.02039793 0.01850956 -0.015454005 -0.047219343 -0.040514242 -0.012513531 0.007697785 0.039053947 0.01564028 -0.015582057 -0.0018267604 -0.025830762 0.039194647 -0.011013716 -0.02077995 -0.0030078567 0.005619285 0.023818346 0.035301473 0.028656567 -0.05616632 0.042581283 -1.9776406e-05 0.04374524 0.011033522 0.010693929 -0.018544788 0.01609311 -0.029858043 0.045977373 0.005859054 0.0677378 0.047105733 0.012178432 0.039196752 -0.0022625101
伪造 -0.10744215 0.075766414 -0.033571683 0.05794089 -0.047507677 0.08019796 0.013775208 0.014603103 -0.075720035 -0.008252518 -0.014912907 0.036501423 0.11682526 0.01977491 0.058905505 0.0981273 -0.05382998 -0.02880183 0.05998852 0.051598143 -0.023319623 0.07156337 -0.0041985763 0.020564593 -0.045819838 0.09894462 -0.0141055165 0.046286337 0.02359674 0.015542245 -0.013982339 -0.06147996 -0.07492755 -0.013895171 0.010427493 0.060004357 0.02608501 -0.0153026655 -0.0106181 -0.046671133 0.063386805 -0.0015934492 -0.041292295 0.013775819 0.00963713 0.031405546 0.045837365 0.04154008 -0.08160326 0.0723961 0.0074161794 0.07040942 0.006961719 0.009668769 -0.020886816 0.032379434 -0.04165314 0.08001173 0.003123074 0.100464076 0.072156504 0.028720524 0.07801188 0.0030931006
网络 -0.044485122 0.041619018 -0.021497121 0.032006748 -0.028772825 0.031365562 0.0029434208 0.013322096 -0.031363092 -0.0027413657 -0.0046818117 0.015562834 0.059358913 0.009899515 0.029689092 0.055110984 -0.032646794 -0.011160923 0.029228184 0.03149645 -0.010102091 0.04459303 -0.0062039113 0.007247369 -0.013240981 0.055174757 -0.0036228688 0.01838965 0.013377737 0.009298597 -0.013414542 -0.039578274 -0.03554695 -0.011271263 0.01675273 0.035134114 0.004141671 -0.01615797 -0.0032380873 -0.01591893 0.03391375 -0.001777179 -0.023824934 0.0020926916 0.004477835 0.0098662935 0.018740447 0.025505742 -0.043593038 0.03580984 0.0015022976 0.029336084 0.01111026 0.003742268 -0.009556432 0.0099328 -0.016699137 0.044507135 -0.0038872052 0.05216327 0.042073235 0.021454806 0.04307975 0.0031082383
赌博 -0.053943202 0.052110832 -0.016487356 0.0381771 -0.038093675 0.0431113 0.012325728 0.005862807 -0.046291456 -0.005866185 -0.0001544167 0.025897538 0.06060925 0.0132379895 0.043505155 0.0553317 -0.03533974 -0.015574997 0.035062738 0.035549894 -0.019217454 0.04551592 -0.0023428637 0.017585933 -0.02001789 0.06848732 -0.0011105372 0.0303286 0.009085374 0.016567737 -0.012436769 -0.040065344 -0.035705466 -0.005869676 0.004872969 0.02787204 0.007861043 -0.011228153 -0.0024864934 -0.016936831 0.03855215 0.0021806154 -0.021082887 0.0030104278 0.007717964 0.012186094 0.022909243 0.01897031 -0.04325672 0.041070875 0.011100924 0.0398223 0.015078519 0.004864778 -0.01649602 0.018663958 -0.024186783 0.04315514 -0.000800796 0.050494514 0.039417867 0.025989529 0.048225325 0.001554332
算 -0.0751082 0.068271406 -0.020365149 0.038654026 -0.042299863 0.06401947 0.0058065057 0.01237046 -0.057463385 -0.0038254098 -0.014261654 0.033378445 0.09864873 0.010576058 0.055585805 0.0716886 -0.047385775 -0.01932291 0.051463827 0.042881098 -0.017355 0.052811652 -0.012552721 0.016411047 -0.023653502 0.089035064 -0.007823689 0.03544352 0.020511338 0.014244411 -0.009486853 -0.050360538 -0.05746356 -0.020406732 0.019182848 0.044037256 0.023409583 -0.016876457 -0.0014767597 -0.031431805 0.057093322 -0.0011125249 -0.032825217 0.011716372 -0.0039828946 0.027103107 0.03407954 0.032295268 -0.063839406 0.05985199 0.009121057 0.06188673 0.0070032687 0.0030069689 -0.0279455 0.02247477 -0.027897006 0.06315286 0.009336253 0.07292511 0.05841082 0.017974062 0.059766933 -0.0011274545
拘留 -0.06629878 0.0403129 -0.01972368 0.02953888 -0.027423564 0.051400516 0.009734182 0.008986023 -0.041336652 -0.0069297985 -0.01201694 0.021655206 0.06603095 0.00044059838 0.03148142 0.049540043 -0.03417619 -0.011291717 0.029678732 0.023739867 -0.0070898817 0.03645957 -0.0009017724 0.016038854 -0.025023108 0.058454342 0.0010303203 0.024639247 0.012052867 0.013493082 -0.01656523 -0.041824363 -0.04774486 -0.019836733 0.0070135295 0.030605014 0.016895683 -0.008195235 -0.011883853 -0.026441878 0.033868194 -0.00019534054 -0.018326396 -0.003733441 -0.00061711116 0.01772677 0.020268869 0.017179156 -0.057044946 0.0412602 0.009940845 0.03932035 0.006456754 0.0079044355 -0.017042167 0.011821879 -0.030441135 0.0411437 0.0033038696 0.052869607 0.044706237 0.023509486 0.04567057 -0.0042808237
违法 -0.07023589 0.057191283 -0.019944675 0.037146945 -0.03774112 0.044974398 0.000565507 0.016109055 -0.040436994 -0.008406676 -0.009252404 0.033259396 0.086973585 0.0035781753 0.04885017 0.06696102 -0.035592247 -0.019781852 0.03901237 0.03650802 -0.013970708 0.045967925 -0.004849586 0.007324775 -0.027981933 0.07918854 -0.010633938 0.030664066 0.011242031 0.00949312 -0.0062141437 -0.045832373 -0.041710686 -0.012686786 0.0042349547 0.045753215 0.008736934 -0.008727648 -0.0021028377 -0.019942429 0.043117378 -0.0098253805 -0.022498373 -0.002571115 -0.0012691926 0.014392148 0.033458136 0.02239774 -0.05653488 0.050120782 0.00763551 0.052318975 0.008419859 0.009007039 -0.02255594 0.025342364 -0.030101731 0.05873863 -0.00175356 0.06047436 0.05247633 0.016143283 0.051093984 -0.0063488665
假释 -0.08090572 0.06224292 -0.018531658 0.04145268 -0.047646824 0.05890856 0.013379385 0.0051347385 -0.056698218 -0.012854808 -0.0027763895 0.041090794 0.08437147 0.013999126 0.046996463 0.062670656 -0.039139614 -0.013001152 0.04241135 0.03965519 -0.024614058 0.05060147 -0.0017386061 0.012777707 -0.030483363 0.08597829 -0.0032823482 0.027611312 0.012418201 0.020625325 -0.0055594416 -0.047696844 -0.04458723 -0.021811161 0.016441809 0.04448417 0.016591193 -0.01101473 -0.0032938172 -0.03332272 0.052337695 -0.011707408 -0.030217042 0.0060151354 0.0017883305 0.024799947 0.036337372 0.032814376 -0.06613524 0.04896387 0.011382977 0.057586376 0.014267538 -0.0017604453 -0.024996126 0.031203311 -0.022009572 0.05277973 -0.0034385854 0.07017578 0.05096527 0.023574304 0.061604515 -0.0064827036
发票 -0.085017264 0.06636617 -0.024062619 0.04129773 -0.046226695 0.06483722 0.013501337 0.017309418 -0.06119786 -0.011760594 -0.006110749 0.030431017 0.09321597 0.0033925108 0.054758184 0.08459149 -0.04843177 -0.028159723 0.044991367 0.036446396 -0.020317024 0.052632514 -0.008171405 0.017867308 -0.036965653 0.09654345 -0.006373948 0.041457858 0.02270735 0.011436091 -0.0057653 -0.06387248 -0.059659865 -0.019477466 0.015168334 0.05502379 0.023147611 -0.016176116 -0.0066724224 -0.036165748 0.056605205 -0.011993589 -0.02460914 -0.002966824 -0.0006197226 0.026835458 0.033515807 0.033892244 -0.0685288 0.050494228 -0.0011855458 0.06523249 0.013055346 0.0029767617 -0.017600624 0.02843966 -0.031372473 0.07444816 0.000868961 0.082136996 0.059238136 0.019944338 0.06854666 -3.4394838e-05
法律条文 -0.05035549 0.031041633 -0.019101875 0.021321477 -0.025181677 0.03873285 0.008114703 0.002684742 -0.034034558 -0.0061643613 -0.0057280613 0.029779734 0.062318977 0.0101598315 0.025772331 0.043838315 -0.021396715 -0.018916659 0.027145052 0.025027154 -0.00768073 0.039423555 -0.005056468 0.013841509 -0.024526592 0.052157305 -0.012948024 0.015304524 0.009368012 0.01283574 -0.013807664 -0.028970689 -0.02821649 -0.006566392 0.011431922 0.0349389 0.0015967963 -0.01524674 -0.00024497163 -0.013829385 0.030732 -0.005012408 -0.021175936 0.005069932 0.0013852076 0.023180516 0.026076356 0.019631367 -0.040852528 0.039666004 0.010491822 0.0355718 0.003328487 0.009744983 -0.013830063 0.0178281 -0.01628411 0.044486612 -0.0020485132 0.052803893 0.035465136 0.019779293 0.033841807 -0.008754556
武器装备 -0.0812982 0.0550814 -0.02329556 0.050451677 -0.04903009 0.062397096 0.0014573633 0.0022660384 -0.05966255 -0.0033372499 -0.0005537177 0.038103815 0.08879556 0.014447168 0.049567018 0.07459082 -0.037602182 -0.018898193 0.049007818 0.04064289 -0.011162205 0.05608311 0.00088684337 0.019142007 -0.025421705 0.08197066 -0.009565653 0.03162784 0.016743992 0.011336118 -0.0148660885 -0.04457768 -0.051638458 -0.023982506 0.011671079 0.045502547 0.010271494 -0.0052708103 -0.013998661 -0.031530835 0.057190336 -0.013477972 -0.023376029 0.010652543 0.007856011 0.028569963 0.029752834 0.023725295 -0.060041215 0.05670052 -0.00052475894 0.058427967 0.0054032058 0.0034467266 -0.018422695 0.028065344 -0.039029352 0.056948736 0.004039394 0.07561027 0.04969682 0.028894812 0.06174972 0.0023648331
开庭 -0.05312043 0.04167096 -0.012584148 0.02271286 -0.03552031 0.041907165 0.013496685 0.013032628 -0.041156206 -0.00054754235 0.0011791193 0.03166426 0.068764985 -0.00042307537 0.040396824 0.0557563 -0.027516657 -0.011269902 0.033646308 0.02160864 -0.006665997 0.03918322 -0.010112375 0.0056811874 -0.017052736 0.06421954 -0.013397135 0.027161 0.011751008 0.013856414 -0.005303282 -0.03315871 -0.03533959 -0.01555344 0.0071452963 0.02447097 0.014396859 -0.0099411635 -0.0031144142 -0.014555336 0.04384533 -0.009202817 -0.01340495 0.004707177 0.0010158254 0.009549421 0.020747447 0.01598983 -0.04980853 0.032945644 0.0026913586 0.044350248 0.004768668 0.0024105145 -0.020641023 0.020680634 -0.017963951 0.046340473 0.006469757 0.05248122 0.043112673 0.014442931 0.032617416 0.002724672
寻衅滋事 -0.032450058 0.028586773 -0.019716127 0.017382726 -0.026646383 0.03651113 -0.0010358293 0.008809915 -0.020245124 -0.0013643419 -0.007118765 0.012390677 0.046006467 0.0035684616 0.021477118 0.042027246 -0.026356932 -0.015206023 0.021123117 0.013484054 -0.016581714 0.027695306 -0.003316177 0.007803415 -0.011704788 0.04398523 -0.0067807366 0.026384253 0.0042020874 0.007123029 -0.009113543 -0.024279729 -0.022980284 -0.015797867 0.013097652 0.025440704 0.013822239 -0.008854088 -0.008677857 -0.023062276 0.023619657 -0.0014458429 -0.014553877 0.0099678 -0.0017930543 0.014924512 0.017059399 0.017406017 -0.02586007 0.0327198 0.006939295 0.03361567 0.00973258 -0.0017158637 -0.0032852755 0.01043618 -0.010501797 0.025589313 -0.0046925624 0.046910677 0.03469002 0.017672418 0.023475055 -0.007680021
在 -0.07012406 0.04994472 -0.016191319 0.046596255 -0.04525837 0.05584501 0.014644929 0.0010341938 -0.052482508 0.0016590351 -0.009107621 0.027810536 0.09093775 0.012015286 0.05217834 0.06790477 -0.042881258 -0.0129344445 0.046871334 0.037487127 -0.024264151 0.049853016 -0.009358011 0.021114662 -0.025303772 0.0710246 -0.014352367 0.0263634 0.014334808 0.011570921 -0.00647734 -0.044355728 -0.056326315 -0.023224821 0.009892487 0.043340348 0.0140981395 -0.009564243 -0.011970575 -0.03437214 0.052168567 -0.009875567 -0.030903041 0.0050552804 -0.0038476062 0.018152112 0.035135675 0.033976413 -0.06364194 0.04134622 0.0051979143 0.04813762 0.011630649 0.002619031 -0.024933605 0.028035015 -0.026156357 0.05280459 -0.0052953754 0.06993368 0.04556507 0.029987901 0.053960986 -0.0031607011
执行 -0.08176767 0.055357922 -0.023793261 0.04766696 -0.04248328 0.06109622 0.010274722 0.010514905 -0.05784606 -0.011722368 -0.005990064 0.033427294 0.09962778 0.0151629215 0.053503044 0.06523591 -0.04667204 -0.026523309 0.04203163 0.035957623 -0.019332673 0.060663685 -0.006786878 0.010741975 -0.028640294 0.09058316 -0.006137036 0.044001255 0.018197713 0.019748354 -0.01756246 -0.04895642 -0.044924192 -0.01883896 0.007380377 0.052025903 0.018535106 -0.014480239 -0.003394026 -0.023373704 0.05596642 0.0012242307 -0.028725391 0.008764569 0.0030893923 0.023941696 0.033481862 0.024269465 -0.071619675 0.05124664 0.00037583846 0.058258027 0.016738208 -0.0009387264 -0.0125914635 0.021283092 -0.029150823 0.06600615 0.009737395 0.07387476 0.050620336 0.025628917 0.05967145 -0.00030400458
公司 -0.08551986 0.0601981 -0.020104587 0.04068978 -0.050775852 0.06857366 0.005288255 0.0126696825 -0.066135615 -0.005376304 -0.0050654863 0.03914517 0.10855685 0.0061370987 0.061053183 0.08669753 -0.049977057 -0.01757862 0.039943542 0.040019184 -0.013044535 0.063505165 -0.00547762 0.009636686 -0.03452605 0.0945329 -0.016495464 0.043155275 0.021143777 0.015914805 -0.0047464967 -0.05065477 -0.0509133 -0.017533151 0.013342632 0.04345612 0.011863826 -0.013291676 -0.009751431 -0.04027335 0.06048968 -0.0062974268 -0.02534828 0.008770789 -0.001352716 0.03133516 0.04154836 0.030107273 -0.07299844 0.053225312 0.0021782368 0.06524623 0.017650012 -0.0022503554 -0.017647788 0.03351042 -0.034425613 0.07497314 -0.005487157 0.079741605 0.056801423 0.03211044 0.06619251 -0.0064129634
妨害 -0.07310028 0.04958439 -0.023839304 0.035461172 -0.0283243 0.041840028 0.0041909325 0.00474343 -0.04246984 -0.0030694231 -0.005756637 0.026685849 0.07867569 0.01049076 0.038537543 0.058947273 -0.039644178 -0.019007256 0.031313453 0.032430615 -0.012952545 0.04504983 -0.0041729473 0.018204385 -0.026416328 0.069932796 0.00059932604 0.037688836 0.017139576 0.0139726475 -0.0014145788 -0.04159244 -0.0425657 -0.022210764 0.0078510465 0.03377651 0.008870092 -0.00503873 -0.009201302 -0.031740494 0.048250616 -0.011162111 -0.014782394 0.0019934403 0.0041644545 0.01712607 0.02898483 0.02781531 -0.060783993 0.04380343 0.009310835 0.04892666 0.0027499148 0.0044819484 -0.024033248 0.02834833 -0.019773671 0.058661643 0.006956499 0.071091585 0.039356064 0.02591781 0.049456604 -0.0033762942
销售 -0.065427326 0.05052541 -0.024745567 0.02532022 -0.03674776 0.045524444 0.0030352846 -0.00061852316 -0.043270934 0.00085120916 -0.013100795 0.030942807 0.06940552 0.014226829 0.041676622 0.062408205 -0.025455752 -0.020931618 0.025850063 0.036192838 -0.009449295 0.038290292 -0.0028206406 0.011215457 -0.03129218 0.06904015 -0.006091836 0.021895867 0.010833387 0.016902464 -0.01085378 -0.04691827 -0.047512475 -0.020027544 0.011209316 0.031825293 0.013732673 -0.010563645 -0.008894803 -0.01771261 0.03896022 -0.0035179723 -0.027624339 0.010397158 0.0012308849 0.02357666 0.023316672 0.020572815 -0.056679226 0.039913964 0.0040416275 0.04846991 0.013000069 9.6130934e-05 -0.011498455 0.026639368 -0.031290177 0.055299487 -0.0018553211 0.057797194 0.04495681 0.019076709 0.044713005 -0.008929272
条件 -0.048276808 0.03811965 -0.013374909 0.021206217 -0.021574605 0.03712839 0.012286469 0.010455157 -0.03357658 -0.006978937 -0.0041722073 0.018770233 0.049871404 -0.00048019475 0.029430304 0.036919195 -0.026852721 -0.016855912 0.02164478 0.025049139 -0.014297436 0.033026617 0.0032485134 0.011171533 -0.017620951 0.037959598 -0.010900969 0.015414123 0.014645816 0.01191283 -0.0063706273 -0.024875764 -0.022210632 -0.007475163 -6.978007e-07 0.029406039 0.010194938 -0.0067386017 -0.0009974202 -0.009345917 0.023130784 -0.007217665 -0.021651624 0.005513204 0.0019933882 0.014326423 0.014092267 0.02264696 -0.03980427 0.030147044 -0.0034711133 0.031632975 0.006497636 -0.0046437625 -0.0139571205 0.0151717905 -0.01800816 0.027371438 -0.002548007 0.042448062 0.030260105 0.014787048 0.026462313 -0.0054851333
生产 -0.060075413 0.048016537 -0.012957093 0.024623532 -0.028226389 0.03274653 0.014305428 0.002302846 -0.034916803 -0.008558872 -0.0018526174 0.024939444 0.054924387 0.0014614966 0.040328845 0.046779346 -0.026902247 -0.016895026 0.03359389 0.031203669 -0.0053615426 0.034516443 -0.005084663 0.018008478 -0.021192743 0.056716975 0.0021108356 0.023755439 0.009417059 0.012513233 -0.0026804237 -0.03887862 -0.02874544 -0.014113373 0.0036683548 0.028026318 0.017427377 -0.010742859 0.0014387047 -0.015627889 0.043901537 -0.0018385528 -0.025672954 0.00725604 0.0007207343 0.01655686 0.025034437 0.016302485 -0.050964434 0.04018293 -0.003258957 0.03870941 0.010093423 0.010097368 -0.011619441 0.018821035 -0.022479415 0.04712733 -0.0043497994 0.059909403 0.039112892 0.0102093285 0.043945532 0.005254435
危险 -0.067390226 0.053498752 -0.01809072 0.032780286 -0.03903979 0.04748238 0.0055716 0.008022906 -0.03550257 -0.010615362 -0.010274269 0.030869707 0.069247104 0.0071388567 0.036024366 0.0514813 -0.030863283 -0.024218023 0.040869985 0.036262106 -0.0073681455 0.03987517 -4.2608284e-05 0.015429052 -0.026230184 0.06500581 -0.004011072 0.0362434 0.023564484 0.012760074 -0.007666961 -0.047259554 -0.044685014 -0.020318445 0.011820426 0.029508136 0.015237214 -0.0078115016 -0.0122682415 -0.017032407 0.039975293 -0.011314726 -0.023467114 -0.0011796522 0.001472531 0.021871887 0.027616374 0.024455957 -0.050452918 0.036951084 0.010857331 0.04733853 0.007066709 0.00325978 -0.020514216 0.014049894 -0.020934291 0.051875703 -0.0010620662 0.06600466 0.044841006 0.011843482 0.047184374 -0.0018082049
赔偿 -0.056798425 0.037391927 -0.018791633 0.03250995 -0.023504224 0.04780735 0.012706041 0.0115853725 -0.036454327 -0.007228738 -0.002819161 0.029698178 0.06327965 0.011859199 0.02914164 0.044903316 -0.03264974 -0.017772218 0.027859183 0.03265616 -0.016626013 0.044547047 0.000553683 0.007224293 -0.024224699 0.059048798 -0.011577769 0.025555713 0.011165755 0.0176692 -0.0017370424 -0.033361368 -0.0419289 -0.00926383 0.015657187 0.02575261 0.013484061 -0.011197471 -0.008596156 -0.029437523 0.04394593 -0.000653608 -0.01753715 -0.0007846709 0.0040584914 0.013042065 0.018399917 0.01640595 -0.045056026 0.04316978 0.0011986039 0.04578492 0.0010323393 0.0064745755 -0.01854676 0.015511545 -0.018045677 0.03978134 0.0041113878 0.049530104 0.03868095 0.015648808 0.037483316 -0.007976214
卖淫罪 -0.03954834 0.029216055 -0.019780466 0.022490188 -0.028590996 0.029794892 0.001553778 0.012232877 -0.02197298 -3.4188153e-05 -0.007766262 0.019023899 0.053169217 0.007194181 0.022362027 0.042165093 -0.016159797 -0.010847146 0.020827774 0.021187639 -0.015614198 0.03242812 0.00027287702 0.0030408201 -0.023335868 0.046311557 -0.010158497 0.024471775 0.0065141846 0.006742789 -0.00036852824 -0.024545837 -0.026430001 -0.004736606 0.0032956433 0.02969374 0.008978605 -0.013089477 -0.01046816 -0.017735107 0.024812844 -0.00866965 -0.021964122 0.0100469375 0.004707865 0.0062248474 0.01997718 0.015603239 -0.044779908 0.036312707 0.0039930325 0.026114384 0.006539598 0.0049207984 -0.013851188 0.02140902 -0.015792394 0.032845467 0.001552548 0.045817707 0.0339651 0.01319067 0.0376372 -0.0067071184
肇事罪 -0.043159083 0.04333895 -0.019853206 0.0334635 -0.031557508 0.041289736 0.006521207 0.010847956 -0.037138958 0.003064406 0.002700251 0.018391693 0.06482757 -0.00041399582 0.029704204 0.04003018 -0.025401765 -0.012282186 0.021951066 0.032158546 -0.0064695883 0.02847893 0.0002688093 0.0074817794 -0.020297656 0.047342803 -0.003493963 0.023400633 0.013895285 0.00976591 -0.007306865 -0.035689574 -0.039147574 -0.0058237603 0.0033241692 0.029998299 0.017487254 -0.01088732 -0.0062113083 -0.013238709 0.035090405 0.0022684296 -0.021288933 0.0018290663 -0.005660806 0.009935193 0.030181061 0.023168037 -0.03990279 0.03712994 -0.0047354046 0.038869474 0.009584141 0.008010613 -0.010206769 0.013834264 -0.01873687 0.040517338 -0.0069309915 0.051089592 0.040721994 0.015068777 0.04259648 -0.0037833788
行贿罪 -0.04617143 0.03638922 -0.0074889646 0.030878598 -0.027507357 0.034210056 0.010124067 -0.00024751096 -0.03554254 0.0014467388 -0.006356467 0.022646286 0.057486914 0.012083073 0.022354338 0.03562941 -0.020589346 -0.008825019 0.020154925 0.030731944 -0.0105024325 0.029101955 -0.008080636 0.009230101 -0.024887761 0.05145528 -0.0037923092 0.017181616 0.019785378 0.01594136 -0.0055755684 -0.024239676 -0.035672273 -0.01422302 0.015056937 0.02137641 0.0016752456 -0.0013332771 -0.010672725 -0.016131649 0.024565846 -0.008857439 -0.012008149 -0.0016995316 0.0024224718 0.013372293 0.017520523 0.009303752 -0.04279566 0.030396245 -0.00029739586 0.028543415 0.009795866 -0.005007187 -0.0044888854 0.02165262 -0.023731958 0.040396355 -0.0042759925 0.03667122 0.027672568 0.012480063 0.028041828 0.0013580284
聚众 -0.058124125 0.036766276 -0.020865593 0.02823962 -0.032507945 0.031010037 0.00917641 0.0022937588 -0.03755313 -0.0035962788 -0.008303475 0.030149413 0.06462504 0.012127981 0.02450053 0.044871185 -0.02926817 -0.015667541 0.024790918 0.033910938 -0.016812786 0.0340615 -0.0069639916 0.007897366 -0.012609104 0.054739416 -0.0023482668 0.017137323 0.021528387 0.00838941 -0.014076982 -0.03897925 -0.027175954 -0.010216135 0.012822734 0.032054212 0.01426252 -0.012995365 -0.011679124 -0.013006495 0.037682313 0.0007663886 -0.010485095 0.0057079005 0.00563833 0.01791434 0.021821305 0.025183644 -0.04163411 0.036883127 0.007104165 0.040995173 0.013758274 0.009123749 -0.012392651 0.014650419 -0.025018577 0.044210456 0.0072085354 0.04260846 0.03576024 0.00819826 0.04027168 0.0036197226
抓 -0.05341728 0.032279942 -0.021972809 0.027552506 -0.029306276 0.033645418 0.010067358 0.00954963 -0.033376172 0.0031868883 0.0021364929 0.018049525 0.055337198 0.009082477 0.024411129 0.04923975 -0.027189918 -0.009052246 0.024629872 0.019622052 -0.0116642155 0.03358491 -0.005973724 0.009637612 -0.026031163 0.04457902 -0.0062522627 0.01808485 0.017322348 0.017591182 -0.012981405 -0.031671304 -0.027674606 -0.014301769 0.005183872 0.035178736 0.008245153 -0.005675821 -0.00805233 -0.020631725 0.03531713 0.0013342998 -0.018549934 -0.004569438 -0.004839754 0.018289896 0.02734443 0.017459763 -0.046827104 0.032469563 -0.004170335 0.02709192 0.014227524 0.0022058599 -0.019409932 0.008610685 -0.015365089 0.042625625 0.0015409117 0.048848588 0.02761725 0.021529472 0.030506445 0.0039966893
类别 -0.05474976 0.045463823 -0.013296975 0.02492972 -0.023380145 0.037258994 0.00010609912 0.0135670975 -0.036878873 0.00084658735 -0.004168099 0.017673617 0.056907855 0.008003279 0.035276715 0.03801121 -0.028408488 -0.016709182 0.022941845 0.028531762 -0.019161383 0.031126916 -0.005551189 0.0069767563 -0.021977369 0.058193903 -0.006724328 0.018586298 0.018706616 0.011568089 -0.00088894286 -0.026951509 -0.03976169 -0.0064476277 0.0046302355 0.02310611 0.00438894 -0.0014138313 -0.007796521 -0.02378908 0.03578828 -0.0040162746 -0.018671947 0.0073900134 -0.0009818024 0.007360815 0.022568667 0.018840965 -0.04140021 0.034502365 -0.0017116172 0.031130567 0.002493239 0.0033657586 -0.006621081 0.01554883 -0.013710882 0.042102564 -0.006368866 0.054265793 0.035444796 0.02189972 0.03862775 -0.009426011
年 -0.03900379 0.034558665 -0.008747075 0.016980205 -0.029990224 0.031553548 0.0051220316 0.0022235832 -0.031675935 -0.0074681463 -0.0005467841 0.014374847 0.05725169 0.00821622 0.029149115 0.03597881 -0.027577562 -0.018420188 0.018862208 0.017589185 -0.0039544357 0.03166831 -0.0067651006 0.012331405 -0.01064267 0.045760293 -0.009862763 0.014548467 0.015798857 0.0054815793 -0.00495217 -0.03487377 -0.03889283 -0.007548355 0.0036724994 0.029141068 0.011741951 -0.0064217867 -0.009021358 -0.019529104 0.037068542 0.0040045935 -0.01904818 0.0054584784 -0.0033357812 0.017184813 0.0225461 0.018639896 -0.043519076 0.022758808 0.010749803 0.030923221 0.003919088 -0.0010897826 -0.014238221 0.007100183 -0.021307321 0.039188024 0.0011386912 0.045089133 0.024543298 0.02060735 0.028919473 0.0023660657
酒驾 -0.05106775 0.03593525 -0.00759067 0.02308736 -0.017821923 0.03779867 0.0030501352 0.009128946 -0.030226197 -0.0071297754 -0.0036919434 0.019039933 0.043509092 0.012811188 0.022149889 0.035753243 -0.017422993 -0.01863922 0.026812319 0.022047618 -0.015206408 0.033520516 -0.006080172 0.004500672 -0.011346291 0.054375473 -0.0064257523 0.01612429 0.015214037 0.005093171 -0.008992837 -0.030876815 -0.021931062 -0.016426194 0.014713955 0.02178059 0.007259697 -0.0031228107 -0.010151123 -0.011761938 0.029594531 -0.0072199074 -0.014229727 0.00067193736 -0.00199586 0.010054261 0.017228946 0.01422762 -0.033664558 0.030735329 0.002051137 0.026534412 0.009960714 0.009810003 -0.0046280064 0.018009853 -0.023289198 0.027248034 0.008444819 0.038505256 0.023720637 0.0082332855 0.02396361 0.0026520174
